svm_type nu_svc
kernel_type linear
nr_class 2
total_sv 287
rho -0.495107
label 1 2
nr_sv 142 145
SV
13523.96298249283 1:-0.101302 2:-0.259462 3:0.0549977 4:-0.00603346 5:0.075395 6:-0.43706 7:-0.388474 8:0.143373 9:0.0354402 10:0.111458 11:-0.270458 12:-0.162645 13:0.240759 14:0.088081 15:0.076007 16:-0.168175 17:-0.183889 18:0.0637098 19:0.109383 20:0.180943 21:-0.165636 22:0.00470195 23:0.0474844 24:0.0524486 25:-0.0287238 26:-0.226458 27:-0.0107226 28:-0.0321579 29:0.0709029 30:-0.00606936 31:-0.295409 32:-0.363298 33:0.0298046 34:0.0466894 35:0.0322496 36:-0.0661737 37:-0.225656 38:0.0026444 39:-0.149973 40:-0.0478211 41:-0.21117 42:-0.11547 43:-0.106318 44:-0.0596946 45:-0.12977 46:0.0946866 47:-0.288342 48:0.0566814 49:-0.0569878 50:-0.0369606 51:-0.214104 52:-0.233875 53:0.187711 54:-0.0225852 55:-0.00781955 56:-0.0423006 57:-0.0858252 58:0.178746 59:-0.0385761 60:0.0193525 61:-0.0907017 62:-0.093284 63:0.199548 64:-0.0154402 65:0.107658 66:-0.200007 67:0.0399488 68:-0.14478 69:0.00184605 70:-0.102094 71:-0.0539333 72:0.12352 73:-0.200449 74:0.00177601 75:0.0208459 76:-0.229563 77:-0.41314 78:0.114934 79:0.0398436 80:-0.0205127 81:-0.349864 82:-0.280005 83:-0.155378 84:-0.0980741 85:-0.0780296 86:-0.409313 87:-0.145637 88:-0.183667 89:-0.050357 90:-0.154438 91:-0.11808 92:-0.371458 93:-0.0340783 94:-0.115607 95:-0.0208223 96:-0.124479 97:-0.0624823 98:0.184011 99:0.0527872 100:0.101623 
10590.15170424885 1:-0.259088 2:0.064023 3:0.0263841 4:-0.0912745 5:-0.0907207 6:-0.528557 7:-0.106293 8:0.0524465 9:-0.0849725 10:-0.0964144 11:-0.472851 12:-0.107587 13:0.0789329 14:-0.102201 15:-0.0924939 16:0.0671585 17:-0.020528 18:0.179569 19:-0.278956 20:-0.148937 21:-0.223879 22:-0.183773 23:-0.0114471 24:-0.190454 25:-0.209004 26:-0.379651 27:-0.373386 28:0.0446555 29:-0.10097 30:-0.166181 31:-0.100351 32:-0.13546 33:-0.0251235 34:-0.0982808 35:-0.0181273 36:-0.169128 37:-0.156794 38:-0.0668473 39:-0.133365 40:0.0599993 41:-0.0574948 42:-0.0657917 43:-0.113263 44:-0.0579955 45:0.163845 46:-0.207265 47:0.0165415 48:0.135292 49:-0.0346896 50:-0.0892131 51:-0.294858 52:-0.276937 53:0.123374 54:-0.285196 55:-0.0397015 56:-0.114707 57:-0.133454 58:-0.0715771 59:-0.3393 60:-0.0649666 61:0.119223 62:-0.0255947 63:0.113145 64:-0.274806 65:-0.147673 66:-0.0743196 67:-0.129181 68:0.168127 69:-0.192831 70:-0.279961 71:-0.238108 72:-0.165726 73:0.0622928 74:-0.140318 75:-0.208563 76:0.0367108 77:-0.14347 78:0.013467 79:-0.137176 80:-0.153012 81:-0.145842 82:-0.15977 83:-0.0679421 84:-0.196127 85:-0.0311243 86:-0.0359514 87:-0.0841012 88:-0.102183 89:-0.138539 90:0.148041 91:-0.348894 92:-0.0438596 93:0.0115271 94:-0.0328951 95:-0.100471 96:-0.458186 97:-0.166346 98:0.040246 99:-0.108209 100:-0.0949535 
8213.300879071931 1:-0.0283339 2:-0.141054 3:-0.363135 4:-0.051669 5:-0.152128 6:-0.315433 7:-0.0946267 8:-0.0160519 9:0.208711 10:-0.0379924 11:0.162282 12:0.047998 13:-0.213396 14:0.0732893 15:-0.264055 16:0.280215 17:0.189634 18:0.231146 19:0.0241859 20:-0.219231 21:-0.0696566 22:-0.00935345 23:0.325545 24:0.111604 25:-0.00641862 26:-0.351576 27:-0.0857511 28:-0.0218374 29:0.0306363 30:-0.0594283 31:-0.246865 32:-0.246716 33:-0.146018 34:0.0274317 35:-0.134632 36:0.184666 37:-0.139239 38:0.22963 39:-0.0459037 40:-0.153305 41:0.148416 42:-0.582038 43:-0.0255877 44:-0.0996549 45:-0.0737384 46:-0.177262 47:-0.0611275 48:-0.0429424 49:-0.0171177 50:-0.215306 51:-0.36917 52:0.00556655 53:0.0819268 54:0.167591 55:-0.141702 56:0.0996243 57:0.144372 58:-0.0173505 59:0.00237402 60:-0.178024 61:0.249783 62:0.134804 63:0.130411 64:0.00437628 65:-0.308413 66:-0.153671 67:-0.0431477 68:0.248968 69:0.102774 70:-0.207617 71:-0.149659 72:-0.0978076 73:-0.0690983 74:0.00277794 75:-0.139806 76:-0.321682 77:0.0465364 78:-0.0421855 79:0.011252 80:-0.148388 81:0.00953111 82:-0.0523267 83:0.309196 84:-0.0549377 85:-0.168288 86:0.0359484 87:-0.222118 88:0.17366 89:-0.141457 90:-0.199949 91:0.00423259 92:-0.176355 93:0.00907082 94:0.00333243 95:-0.249726 96:-0.307328 97:-0.159025 98:-0.0223495 99:0.228872 100:-0.0322823 
13529.0872294483 1:-1.2338 2:-0.0992116 3:-0.329527 4:0.0837787 5:-0.107905 6:-1.19095 7:-0.41002 8:-0.560272 9:-0.0461532 10:-0.207556 11:-1.22366 12:-0.368953 13:-0.374756 14:-0.149672 15:-0.209408 16:-0.759041 17:-0.536456 18:-0.388308 19:-0.246818 20:-0.26945 21:-1.05011 22:-0.662416 23:-0.348878 24:-0.140087 25:-0.157016 26:-1.34343 27:-0.606666 28:-0.165422 29:-0.208813 30:-0.11997 31:-1.39181 32:-0.379648 33:-0.0248286 34:-0.10718 35:-0.270988 36:-1.29857 37:-0.236178 38:4.19599e-05 39:-0.0888293 40:-0.104865 41:-1.13376 42:-0.323437 43:0.0374637 44:0.0494511 45:-0.017851 46:-0.927784 47:0.0948041 48:-0.596593 49:0.00337141 50:0.0925311 51:-0.807269 52:-0.117186 53:-0.688074 54:-0.0619978 55:0.0110889 56:-0.730808 57:-0.0908936 58:-0.458571 59:-0.218248 60:-0.0480813 61:-0.350125 62:-0.188042 63:-0.246566 64:-0.284571 65:-0.0980155 66:-0.604562 67:-0.603567 68:-0.285379 69:-0.339987 70:-0.0386892 71:-0.891968 72:-0.435261 73:-0.149705 74:-0.137961 75:-0.00957065 76:-1.13004 77:-0.233157 78:-0.0356091 79:-0.109726 80:-0.114773 81:-0.876329 82:-0.252957 83:-0.129049 84:-0.062638 85:-0.0266907 86:-0.622438 87:-0.301172 88:-0.0592108 89:0.0382513 90:-0.0860528 91:-0.983072 92:0.210292 93:-0.330114 94:0.0337343 95:0.13046 96:-1.04923 97:-0.0666684 98:-0.406236 99:-0.0958977 100:0.0259989 
12422.17071977797 1:0.0164057 2:0.0248009 3:-0.181965 4:-0.00676213 5:-0.0200164 6:-0.0748261 7:-0.109272 8:-0.359533 9:0.0317437 10:0.0166391 11:0.370071 12:-0.0572652 13:-0.145121 14:-0.0771431 15:-0.0304034 16:-0.0776798 17:-0.131194 18:-0.341425 19:-0.0649832 20:-0.0437682 21:0.168954 22:-0.233744 23:-0.498256 24:-0.176586 25:-0.00764136 26:0.0589112 27:-0.102767 28:-0.138064 29:-0.28059 30:0.211046 31:-0.303673 32:0.213827 33:-0.0354169 34:-0.120022 35:0.0773341 36:0.00205554 37:-0.11098 38:0.00746444 39:0.04569 40:0.0848738 41:0.0235476 42:0.0263031 43:-0.160551 44:-0.0230065 45:0.0829868 46:-0.068899 47:-0.149048 48:-0.173767 49:-0.138311 50:0.0322637 51:-0.230134 52:-0.390363 53:-0.336447 54:-0.123703 55:0.0312733 56:0.251778 57:-0.0798202 58:-0.15112 59:-0.12938 60:-0.0895919 61:-0.145946 62:-0.435016 63:-0.379222 64:0.0308541 65:-0.0678011 66:0.154194 67:-0.346969 68:-0.676836 69:-0.0850958 70:0.0309206 71:-0.0434285 72:-0.231846 73:-0.310731 74:-0.18893 75:0.000213822 76:0.0416505 77:0.0696159 78:-0.166689 79:-0.214178 80:-0.0751147 81:0.0866933 82:-0.0367428 83:-0.212885 84:-0.0694536 85:-0.045099 86:-0.373363 87:-0.0825194 88:-0.378876 89:-0.0611263 90:-0.0987756 91:0.36346 92:-0.104159 93:-0.320201 94:-0.0793657 95:-0.000928096 96:0.165419 97:-0.261438 98:-0.379942 99:-0.0189568 100:0.043857 
8791.484490746698 1:0.0109034 2:-0.189148 3:-0.222825 4:-0.0353067 5:-0.0390225 6:-0.138213 7:-0.398251 8:-0.393567 9:-0.10798 10:-0.0626077 11:-0.68447 12:-0.365748 13:-0.111221 14:-0.0221766 15:-0.107197 16:-0.54992 17:-0.197809 18:-0.278932 19:-0.115896 20:0.0137667 21:-0.241588 22:0.0284585 23:-0.365088 24:-0.0184978 25:0.071098 26:-0.106008 27:-0.0368174 28:-0.171791 29:-0.146631 30:0.0693696 31:-0.0546211 32:-0.238543 33:-0.33824 34:-0.0629895 35:-0.0262661 36:0.0808027 37:-0.345893 38:-0.276616 39:-0.0011415 40:0.0199306 41:0.20902 42:-0.261191 43:-0.15654 44:-0.0343667 45:-0.0639049 46:-0.184726 47:-0.158506 48:-0.150763 49:-0.0265629 50:-0.181635 51:-0.3695 52:-0.643113 53:-0.531361 54:-0.121125 55:-0.0469917 56:-0.498136 57:-0.483064 58:-0.471231 59:-0.114095 60:-0.114554 61:-0.305042 62:-0.354766 63:-0.333492 64:-0.138828 65:-0.104768 66:-0.134067 67:-0.291087 68:-0.15849 69:-0.0514553 70:-0.0293812 71:0.0826217 72:-0.190366 73:-0.1495 74:-0.169095 75:-0.117124 76:0.296324 77:-0.0410894 78:-0.236437 79:-0.0838719 80:-0.208363 81:0.175437 82:-0.147584 83:-0.329841 84:-0.102087 85:-0.0658242 86:0.115436 87:-0.15047 88:-0.115024 89:-0.155871 90:-0.0820116 91:-0.0486117 92:-0.3234 93:-0.103881 94:-0.000188192 95:-0.0425758 96:-0.202909 97:-0.517706 98:-0.219397 99:-0.018643 100:-0.00614011 
11464.48735728621 1:-0.538572 2:-0.0261942 3:0.0361375 4:-0.0881097 5:-0.120007 6:-0.0754458 7:-0.0879889 8:-0.25702 9:-0.228016 10:-0.25223 11:0.375846 12:0.22921 13:-0.165424 14:-0.203667 15:-0.400992 16:0.270035 17:0.0884321 18:-0.208395 19:-0.150974 20:-0.305959 21:-0.244057 22:-0.050014 23:-0.268498 24:-0.0582653 25:-0.288131 26:-0.168625 27:-6.26725e-05 28:-0.0984807 29:0.100052 30:-0.149619 31:0.118892 32:0.210014 33:-0.155266 34:-0.0240928 35:-0.259121 36:-0.0944038 37:-0.165302 38:-0.0707389 39:-0.0407445 40:-0.139611 41:-0.482398 42:-0.264525 43:-0.460518 44:-0.162472 45:-0.148434 46:-0.571786 47:-0.142463 48:0.192871 49:-0.105093 50:-0.227186 51:-0.0861611 52:0.0232363 53:0.0985655 54:-0.24604 55:-0.201234 56:0.224528 57:0.16934 58:-0.1415 59:-0.214675 60:-0.297514 61:-0.0746629 62:0.0979161 63:-0.181519 64:-0.298732 65:-0.292595 66:-0.123978 67:0.010105 68:-0.193423 69:-0.21693 70:-0.301491 71:-0.170754 72:-0.217122 73:-0.32642 74:-0.0772856 75:-0.165162 76:0.174132 77:0.179203 78:-0.056139 79:-0.157699 80:-0.28525 81:-0.00662495 82:-0.0428812 83:-0.0268551 84:-0.173259 85:-0.231293 86:-0.272161 87:-0.252536 88:-0.24148 89:-0.315064 90:-0.296949 91:-0.491837 92:-0.413825 93:0.153508 94:-0.148065 95:-0.188176 96:-0.207422 97:-0.0852678 98:0.0247209 99:-0.156816 100:-0.259756 
11894.1882319675 1:0.299989 2:-0.0589426 3:-0.25454 4:0.0160366 5:0.0329176 6:0.352689 7:-0.00385967 8:-0.289984 9:0.0845567 10:-0.0230474 11:0.507333 12:0.303665 13:-0.094463 14:0.0455725 15:0.0473914 16:0.00323786 17:-0.0884813 18:-0.157264 19:-0.0387355 20:0.122258 21:-0.27745 22:-0.236967 23:-0.279325 24:0.0435777 25:0.0108599 26:0.206142 27:0.176189 28:0.0483131 29:0.136676 30:-0.0512955 31:0.266109 32:0.181695 33:-0.157151 34:0.00387568 35:-0.0272722 36:0.182236 37:-0.110447 38:-0.167136 39:-0.0399068 40:0.0112943 41:-0.100383 42:0.10919 43:-0.2136 44:0.0208299 45:0.158056 46:0.0583849 47:-0.068847 48:-0.166236 49:-0.061428 50:0.022016 51:0.122229 52:-0.243446 53:-0.0391126 54:-0.0397185 55:-0.00516444 56:0.286357 57:-0.132866 58:-0.283103 59:-0.0788986 60:0.0145294 61:0.0607731 62:-0.358517 63:-0.19621 64:-0.147856 65:0.0203776 66:-0.123369 67:-0.313293 68:-0.17758 69:-0.117475 70:0.0353138 71:0.163316 72:0.155509 73:0.130926 74:0.0133132 75:0.0603604 76:0.350385 77:0.126333 78:-0.179117 79:-0.0495369 80:0.00691752 81:0.108423 82:-0.183532 83:0.0778089 84:-0.095791 85:0.0432792 86:-0.0866924 87:-0.0509898 88:-0.0429796 89:-0.0692317 90:0.19458 91:0.117324 92:-0.0936567 93:-0.130661 94:-0.0463616 95:0.0496083 96:0.378173 97:-0.12653 98:-0.0480618 99:-0.0882045 100:-0.0171778 
11969.52425603118 1:0.0883218 2:-0.122817 3:-0.146533 4:-0.085888 5:-0.047436 6:0.114451 7:-0.379418 8:-0.055263 9:-0.0194319 10:-0.0331867 11:0.259974 12:-0.277028 13:-0.237277 14:-0.100859 15:0.0204521 16:0.15684 17:-0.29493 18:-0.296809 19:-0.0996932 20:0.0894114 21:0.285558 22:-0.0535102 23:-0.0575593 24:0.00603673 25:0.0952459 26:0.359869 27:-0.205045 28:-0.139623 29:0.0330764 30:0.0817843 31:0.118637 32:0.363584 33:-0.0725533 34:0.164294 35:-0.0902421 36:0.0598834 37:0.298585 38:0.180923 39:0.0414166 40:-0.050223 41:-0.0379959 42:0.0890723 43:-0.257177 44:-0.119752 45:-0.0600943 46:-0.0254881 47:-0.239459 48:-0.29618 49:-0.137302 50:0.0199425 51:0.168477 52:-0.143069 53:-0.114602 54:-0.0651261 55:-0.198573 56:0.42079 57:-0.0373163 58:-0.187233 59:-0.104334 60:-0.0229805 61:0.405159 62:-0.120473 63:-0.376488 64:-0.113414 65:-0.0111105 66:0.180872 67:-0.479684 68:-0.275444 69:-0.0880301 70:-0.0205447 71:0.00231215 72:-0.15956 73:-0.360212 74:0.027602 75:0.0478578 76:-0.00801352 77:0.426206 78:-0.378429 79:0.0747665 80:-0.0397671 81:0.165581 82:0.220978 83:0.0530145 84:-0.0742391 85:0.020373 86:-0.140037 87:0.0320641 88:-0.162623 89:-0.0994078 90:0.0638278 91:0.0318622 92:-0.207882 93:-0.368559 94:-0.100976 95:-0.0925434 96:0.283206 97:-0.167086 98:-0.232174 99:0.00183193 100:-0.152921 
1225.883802313889 1:-0.338534 2:-0.112047 3:-0.206475 4:-0.114205 5:-0.0155172 6:-0.0315724 7:0.0752963 8:-0.225794 9:-0.0789242 10:-0.0432977 11:0.157264 12:0.177786 13:-0.0403375 14:0.0114451 15:-0.0835555 16:0.322718 17:-0.12625 18:-0.106745 19:-0.0067841 20:0.118906 21:0.186475 22:-0.0400287 23:-0.269883 24:-0.185923 25:-0.000445086 26:-0.15413 27:0.0849984 28:-0.575166 29:-0.0161851 30:0.0231269 31:0.0238333 32:-0.04309 33:-0.319179 34:0.00609836 35:-0.00685242 36:0.09609 37:-0.0867669 38:-0.0632393 39:-0.134974 40:-0.0396602 41:0.204673 42:0.169553 43:-0.12183 44:-0.365719 45:0.0583879 46:-0.401949 47:-0.23065 48:-0.26266 49:-0.0547723 50:0.13685 51:-0.269529 52:-0.147278 53:-0.0613294 54:0.00128021 55:-0.052442 56:-0.0251616 57:-0.0210532 58:-0.205019 59:0.060303 60:-0.0215495 61:0.418978 62:-0.205382 63:-0.193302 64:-0.0562959 65:0.119864 66:0.483296 67:-0.223592 68:-0.237408 69:-0.22757 70:-0.0639175 71:-0.0888641 72:-0.0450137 73:-0.410996 74:-0.0556653 75:-0.0798399 76:-0.158967 77:-0.122666 78:-0.33615 79:0.00131096 80:-0.082228 81:0.109694 82:-0.0318067 83:-0.217773 84:-0.0558139 85:-0.0828041 86:0.393397 87:0.19051 88:0.0928314 89:-0.0638508 90:-0.0462083 91:0.00133134 92:0.0137515 93:-0.123715 94:0.00485834 95:0.0146399 96:0.038953 97:-0.0527997 98:-0.269897 99:0.112287 100:-0.0456856 
8849.900275257041 1:-0.143132 2:-0.0644048 3:0.415094 4:-0.0937209 5:-0.0388964 6:0.277047 7:0.107357 8:0.444627 9:-0.00637427 10:0.00302741 11:0.438913 12:0.111351 13:0.0644395 14:-0.120366 15:-0.141436 16:0.306925 17:-0.239766 18:-0.00756826 19:0.0738553 20:-0.275401 21:0.123477 22:-0.0269561 23:0.259446 24:0.0898141 25:-0.158684 26:0.114892 27:0.0967546 28:0.245396 29:0.098375 30:-0.0828265 31:0.160877 32:-0.143907 33:0.232639 34:0.0239181 35:0.00687023 36:0.0484005 37:0.0555208 38:0.281963 39:0.0945361 40:-0.0517688 41:0.0275258 42:0.00121656 43:0.22859 44:0.0403933 45:-0.228039 46:0.0649261 47:-0.101179 48:0.205738 49:-0.239696 50:-0.102006 51:0.199541 52:0.153505 53:0.193377 54:-0.159265 55:-0.0208889 56:0.336625 57:0.144705 58:-0.0375319 59:-0.11303 60:-0.106383 61:0.0686696 62:-0.280893 63:0.22272 64:0.0664789 65:-0.150129 66:-0.0365375 67:-0.128208 68:0.121896 69:0.133837 70:-0.140337 71:-0.0176907 72:-0.0171075 73:-0.11358 74:0.0800881 75:-0.159869 76:-0.0790713 77:0.152169 78:0.189309 79:0.00703303 80:-0.165156 81:-0.154892 82:-0.268698 83:0.0903099 84:-0.0172314 85:-0.124992 86:0.0985408 87:-0.109144 88:0.166928 89:0.0525092 90:-0.164218 91:0.0616523 92:0.0424343 93:0.57986 94:-0.141795 95:-0.11172 96:0.323515 97:0.126762 98:0.357478 99:-0.107159 100:0.00852232 
12846.85284387861 1:0.170044 2:0.0709951 3:-0.383028 4:-0.12505 5:-0.0669174 6:0.213494 7:0.0423158 8:-0.0953287 9:-0.143184 10:-0.1103 11:0.378537 12:0.174001 13:-0.00160718 14:-0.0816546 15:0.00674003 16:0.327644 17:0.0939054 18:0.0570985 19:-0.187478 20:-0.0795842 21:0.122751 22:0.185173 23:-0.18135 24:-0.111114 25:-0.104606 26:0.218563 27:0.0892614 28:-0.18399 29:0.15123 30:-0.134025 31:0.175608 32:0.24678 33:-0.12643 34:0.0564747 35:-0.0147145 36:-0.105047 37:0.139277 38:0.096343 39:0.00765426 40:0.0890701 41:0.0777312 42:0.16725 43:0.14556 44:-0.107024 45:0.0980662 46:-0.00988043 47:0.196313 48:-0.263306 49:0.0802517 50:-0.048959 51:-0.254682 52:0.0319751 53:0.180245 54:-0.0957291 55:-0.105975 56:0.157003 57:0.0564729 58:0.207117 59:-0.164276 60:-0.16989 61:0.201632 62:0.125037 63:0.119965 64:-0.103902 65:0.0215885 66:0.0386429 67:0.142397 68:-0.257634 69:-0.178898 70:-0.00672614 71:-0.191401 72:0.161383 73:-0.165494 74:-0.0355891 75:-0.0278616 76:-0.0156387 77:0.128141 78:0.037618 79:-0.0251253 80:0.0117051 81:-0.338712 82:0.0799721 83:0.201746 84:0.0248482 85:-0.00947484 86:-0.217222 87:0.224233 88:0.214385 89:0.0387485 90:0.0188564 91:-0.0254176 92:0.296688 93:-0.0558925 94:-0.0357373 95:0.0195607 96:-0.194217 97:0.0275775 98:0.0654066 99:-0.203301 100:-0.0922639 
3227.928145789609 1:0.255127 2:0.0227788 3:-0.199507 4:-0.211508 5:-0.059049 6:0.371964 7:-0.290575 8:-0.322864 9:-0.150686 10:-0.183876 11:0.251069 12:0.0537577 13:-0.140235 14:-0.0917177 15:-0.1212 16:0.283689 17:0.0393422 18:-0.323438 19:-0.106215 20:0.00423179 21:0.500167 22:0.00860067 23:0.0422959 24:-0.0555677 25:0.00546123 26:0.288023 27:-0.0687023 28:-0.193536 29:0.00550372 30:-0.127782 31:0.27129 32:-0.0267366 33:-0.126163 34:0.0276725 35:-0.222963 36:0.353107 37:0.0248651 38:-0.228917 39:-0.2207 40:-0.157243 41:-0.45 42:-0.360313 43:-0.136399 44:-0.223485 45:-0.121497 46:0.0993592 47:0.0216202 48:-0.169304 49:-0.115335 50:-0.0410469 51:0.25274 52:-0.104942 53:-0.0592307 54:-0.103862 55:0.0360279 56:0.224219 57:0.0142173 58:0.100839 59:-0.0354674 60:0.0526054 61:0.108009 62:0.00491511 63:-0.244695 64:-0.0120545 65:0.109472 66:0.321492 67:-0.0845388 68:-0.101737 69:0.102261 70:0.0545909 71:0.176486 72:-0.0511715 73:-0.347968 74:0.0683053 75:-0.0883526 76:0.139603 77:-0.0187856 78:-0.272115 79:0.0682891 80:0.0712895 81:0.403075 82:0.111094 83:0.0455049 84:-0.0707589 85:-0.0308182 86:-0.182317 87:-0.0157433 88:-0.238197 89:-0.0507862 90:-0.11254 91:0.144994 92:0.116104 93:-0.149396 94:-0.177365 95:-0.111031 96:0.311131 97:-0.122068 98:-0.178278 99:-0.140738 100:0.0255508 
11110.91557470319 1:-0.167452 2:-0.0329029 3:-0.154954 4:-0.0852804 5:0.0185935 6:-0.341394 7:-0.0909623 8:-0.122475 9:0.0140414 10:0.0888436 11:-0.169181 12:0.223336 13:-0.154972 14:0.0144688 15:0.0150553 16:0.0794923 17:0.0730858 18:0.16546 19:0.0351623 20:-0.156031 21:-0.253222 22:0.050626 23:0.128346 24:-0.0540148 25:-0.095478 26:-0.153155 27:0.177773 28:-0.114804 29:-0.0839486 30:-0.154584 31:-0.0764814 32:-0.0897937 33:-0.216449 34:-0.0697463 35:-0.0971716 36:0.0253891 37:-0.35235 38:-0.38892 39:-0.0202106 40:-0.107183 41:-0.0779354 42:-0.012678 43:-0.0212083 44:-0.0574343 45:0.04965 46:-0.272148 47:-0.0270699 48:-0.188641 49:-0.0169232 50:-0.177156 51:-0.252544 52:-0.106294 53:-0.0578223 54:0.079211 55:-0.132687 56:0.163756 57:0.15554 58:-0.0196181 59:-0.0144765 60:-0.0811293 61:0.0779057 62:0.110275 63:0.0130804 64:-0.0590171 65:-0.105553 66:-0.133466 67:0.173096 68:0.0741486 69:-0.0848675 70:-0.123165 71:-0.500071 72:0.0902977 73:0.00391439 74:0.0121159 75:-0.144229 76:-0.563086 77:-0.198279 78:-0.273748 79:0.0391931 80:-0.188373 81:-0.0523645 82:-0.279836 83:-0.282685 84:-0.0241932 85:-0.132505 86:-0.218514 87:0.0529267 88:-0.156763 89:-0.00865185 90:0.0227268 91:-0.224278 92:-0.0584688 93:-0.0676844 94:-0.0258095 95:-0.112785 96:-0.102429 97:-0.0090758 98:0.0337988 99:0.015624 100:-0.113037 
3051.834803808984 1:0.11143 2:0.255998 3:-0.0826587 4:-0.0556666 5:0.0172679 6:0.0972991 7:0.340566 8:0.0188939 9:-0.0116549 10:-0.161523 11:0.187989 12:0.199543 13:0.355299 14:-0.208032 15:-0.0922545 16:0.08433 17:0.241816 18:0.0122459 19:-0.154038 20:0.0253019 21:-0.149267 22:0.19473 23:-0.0347461 24:0.0252231 25:-0.133386 26:0.395135 27:0.189152 28:-0.079981 29:-0.106311 30:-0.00782231 31:0.371378 32:0.0559248 33:-0.000430354 34:0.0387041 35:-0.0491522 36:0.175577 37:0.221043 38:-0.0209969 39:-0.0274702 40:-0.102272 41:0.113543 42:-0.0637467 43:-0.143321 44:-0.0688153 45:-0.0739736 46:-0.00751884 47:-0.030059 48:-0.0844533 49:-0.0866293 50:-0.0901839 51:0.0474345 52:0.043981 53:0.0662021 54:-0.099837 55:-0.232388 56:0.0145827 57:-0.139252 58:0.268569 59:-0.183202 60:-0.0692604 61:-0.0656356 62:0.0886802 63:-0.111837 64:-0.0867299 65:-0.0131384 66:0.0371205 67:0.0214053 68:-0.0721366 69:0.0491275 70:-0.126285 71:0.469646 72:0.0907195 73:-0.0324222 74:-0.0391079 75:-0.0229901 76:0.37464 77:0.0944812 78:0.144864 79:0.0469154 80:-0.0419061 81:0.160171 82:0.194913 83:-0.0265162 84:-0.0142913 85:-0.128968 86:-0.095644 87:-0.275584 88:-0.0378792 89:-0.155465 90:-0.0788104 91:-0.139682 92:-0.144165 93:-0.151876 94:-0.148957 95:-0.151091 96:-0.376334 97:-0.00639129 98:-0.0824821 99:-0.0454494 100:-0.21478 
13529.0872294483 1:0.104741 2:0.188263 3:0.215513 4:-0.00481238 5:0.0450643 6:-0.202124 7:0.31071 8:0.346912 9:0.236092 10:0.0439706 11:-0.23355 12:0.0408712 13:0.3588 14:0.218499 15:-0.086299 16:0.0611123 17:0.260435 18:0.110976 19:0.0318894 20:-0.168465 21:-0.0299725 22:-0.211189 23:0.261247 24:-0.0306605 25:-0.233391 26:-0.319673 27:-0.306106 28:0.254148 29:0.119952 30:-0.131098 31:-0.155311 32:-0.252567 33:0.0762145 34:0.0659714 35:-0.0585606 36:-0.0654187 37:-0.0396858 38:0.149036 39:0.0418739 40:-0.1576 41:-0.0112618 42:-0.0250388 43:0.133094 44:0.0692442 45:-0.0918368 46:-0.0606722 47:0.0895938 48:0.0419562 49:0.0600507 50:-0.0238311 51:-0.40366 52:0.224615 53:0.106936 54:0.0764955 55:0.000869202 56:-0.326665 57:0.210351 58:0.326576 59:0.194869 60:0.0481608 61:0.0422522 62:0.41711 63:0.0754211 64:-0.0111798 65:-0.145653 66:-0.203139 67:-0.0890038 68:0.178842 69:-0.0531473 70:-0.189033 71:-0.144346 72:-0.0430782 73:0.262 74:0.0393188 75:-0.123141 76:-0.0422429 77:-0.0469861 78:0.0469821 79:0.0086426 80:-0.122483 81:-0.370092 82:-0.0936011 83:0.182874 84:0.0364576 85:-0.129605 86:-0.349719 87:-0.0256157 88:0.0100384 89:0.0452814 90:0.00403774 91:0.0721347 92:0.0723697 93:0.147893 94:0.0865886 95:-0.0545078 96:-0.388635 97:0.120322 98:0.192618 99:0.163007 100:-0.0695059 
13508.58403473496 1:-0.124982 2:-0.242061 3:0.0311019 4:-0.112296 5:-0.0579001 6:-0.0379617 7:0.120614 8:-0.167497 9:-0.0701299 10:-0.0346042 11:-0.206691 12:0.0346479 13:-0.0597829 14:-0.137131 15:-0.0822974 16:-0.201161 17:-0.0463933 18:0.189561 19:-0.140655 20:0.0095564 21:-0.0117527 22:-0.313126 23:0.0350734 24:-0.252707 25:-0.108529 26:-0.060312 27:-0.173094 28:-0.184708 29:-0.0225306 30:-0.0779303 31:-0.228188 32:0.191626 33:-0.489891 34:-0.107461 35:-0.00921268 36:-0.158661 37:0.0854921 38:-0.0360897 39:-0.0438001 40:-0.0453469 41:-0.14635 42:-0.0057626 43:0.191318 44:-0.0871686 45:-0.104893 46:0.0547778 47:0.102487 48:0.116432 49:-0.277471 50:-0.079564 51:-0.076144 52:0.299445 53:-0.00691103 54:-0.0827623 55:0.00506781 56:0.11469 57:0.0918323 58:0.0923148 59:-0.0350524 60:-0.0433929 61:-0.218446 62:0.164531 63:0.173895 64:-0.0468918 65:-0.0811717 66:-0.0927178 67:-0.0764706 68:0.103921 69:-0.117033 70:-0.187115 71:0.0311066 72:-0.0531067 73:-0.0255567 74:0.0213882 75:-0.0910058 76:-0.127447 77:0.11014 78:-0.485211 79:0.0665839 80:-0.0901328 81:0.0955346 82:0.120214 83:-0.38168 84:-0.116963 85:-0.0227149 86:0.0362555 87:-0.134091 88:0.00608501 89:-0.238945 90:-0.141315 91:-0.170744 92:0.0639477 93:0.184711 94:-0.0930727 95:-0.0858317 96:-0.0379932 97:0.254238 98:0.00438044 99:-0.0424842 100:-0.0320968 
13529.0872294483 1:0.23546 2:0.182495 3:-0.247454 4:0.0220692 5:-0.116942 6:0.413488 7:-0.226184 8:-0.484886 9:0.000319417 10:-0.052798 11:0.379121 12:0.224366 13:-0.375511 14:-0.143447 15:-0.155426 16:0.465829 17:0.128504 18:-0.254278 19:-0.0260331 20:-0.140838 21:0.341074 22:-0.102188 23:-0.205431 24:-0.0507144 25:-0.100836 26:0.594988 27:0.251871 28:-0.27209 29:-0.00939849 30:-0.133924 31:0.576103 32:0.0167432 33:-0.312319 34:0.0688044 35:-0.245085 36:0.213153 37:-0.13422 38:-0.360242 39:0.0541616 40:-0.0232878 41:0.15411 42:0.0741909 43:0.140297 44:-0.0671212 45:-0.0113314 46:0.240942 47:0.0650426 48:-0.270634 49:-0.0845113 50:0.144126 51:0.354673 52:-0.127511 53:-0.306902 54:-0.0960956 55:0.12664 56:0.096415 57:0.149948 58:-0.287723 59:-0.0539398 60:0.033427 61:0.342346 62:0.119838 63:-0.493353 64:0.00672103 65:0.0133966 66:0.161217 67:-0.138159 68:-0.523491 69:0.0492732 70:0.0472678 71:0.419133 72:0.0642427 73:-0.127328 74:0.0352607 75:-0.0278246 76:0.357594 77:-0.185881 78:-0.0624646 79:0.114265 80:-0.0773469 81:0.219255 82:0.0674325 83:-0.310411 84:-0.0455484 85:0.0981153 86:0.0674423 87:0.143886 88:0.0965314 89:-0.0310718 90:0.105246 91:0.342873 92:0.133747 93:-0.0791174 94:-0.0304733 95:0.116243 96:0.528951 97:-0.00887738 98:-0.18867 99:-0.15716 100:0.13016 
12798.47132768658 1:-0.0146524 2:0.0126235 3:-0.1999 4:-0.0252299 5:-0.0139434 6:0.183808 7:-0.0502206 8:-0.537817 9:0.0331372 10:-0.131202 11:0.261738 12:0.0406565 13:-0.244549 14:-0.0213309 15:-0.119885 16:0.0912244 17:-0.158629 18:0.112074 19:-0.167045 20:-0.0972271 21:0.125983 22:-0.073208 23:0.0430045 24:-0.0741123 25:-0.0653423 26:0.130961 27:-0.121937 28:0.158796 29:-0.0347086 30:-0.0794445 31:-0.372511 32:-0.0692368 33:0.239932 34:0.0372854 35:-0.105655 36:-0.0567077 37:-0.0252038 38:0.234482 39:0.101243 40:-0.0595293 41:-0.134786 42:-0.0897032 43:0.200443 44:0.115255 45:-0.0369889 46:0.12069 47:-0.355129 48:-0.199933 49:-0.105836 50:0.0640507 51:0.0499631 52:-0.0431367 53:-0.283802 54:-0.136512 55:-0.122267 56:0.259434 57:0.0706317 58:-0.395632 59:-0.062439 60:-0.11131 61:0.294547 62:-0.188348 63:-0.0563551 64:-0.0401893 65:0.0351001 66:-0.0664765 67:-0.181111 68:-0.0639201 69:0.0209523 70:-0.138404 71:0.0463697 72:-0.128137 73:0.0197802 74:-0.0870461 75:-0.203755 76:-0.112818 77:-0.186279 78:-0.0409472 79:-0.252024 80:-0.165212 81:-0.0412257 82:-0.127307 83:0.0205342 84:-0.0864536 85:-0.0255487 86:0.0573861 87:-0.251295 88:0.0322236 89:0.142626 90:0.110687 91:-0.124651 92:-0.222547 93:0.213911 94:-0.0712878 95:0.0222381 96:-0.32422 97:-0.0816667 98:0.0738683 99:-0.0177691 100:-0.165261 
13166.92913818683 1:-0.138859 2:-0.197456 3:-0.110497 4:-0.0469261 5:0.000794265 6:0.108514 7:-0.0257119 8:-0.123942 9:0.0737105 10:-0.0302345 11:0.197362 12:-0.113021 13:-0.0897713 14:-0.0291631 15:-0.0747698 16:0.0798446 17:-0.125406 18:-0.267366 19:-0.050223 20:-0.0967376 21:0.218909 22:-0.0838885 23:-0.275956 24:0.0369978 25:-0.122774 26:0.0692034 27:-0.142827 28:0.0166422 29:-0.0200837 30:0.019532 31:0.216063 32:-0.0413807 33:0.268777 34:-0.10684 35:-0.108725 36:-0.0262173 37:-0.159116 38:0.115269 39:-0.0984582 40:-0.240978 41:-0.105072 42:-0.00958473 43:-0.230952 44:0.0761837 45:-0.0748298 46:-0.296905 47:-0.237 48:-0.0564376 49:-0.0622046 50:-0.0174256 51:-0.253418 52:0.000526874 53:-0.113526 54:0.106238 55:-0.0235386 56:0.0521644 57:-0.360963 58:-0.142478 59:0.081833 60:-0.149834 61:0.105736 62:-0.250728 63:-0.0608827 64:-0.0409873 65:-0.13329 66:0.162171 67:-0.143359 68:-0.101409 69:-0.0567778 70:-0.141876 71:-0.0604868 72:-0.407455 73:0.0798796 74:-0.0909934 75:-0.0908937 76:0.0911585 77:-0.407001 78:0.213523 79:-0.0607729 80:-0.16088 81:0.0678373 82:-0.0871328 83:0.0681284 84:-0.00858607 85:-0.151775 86:0.0123906 87:0.0765088 88:-0.0196967 89:-0.0304219 90:-0.0460338 91:-0.0845842 92:-0.100655 93:-0.0699087 94:0.0639834 95:-0.0143364 96:-0.18887 97:0.109853 98:-0.25391 99:0.146732 100:0.00082838 
1790.529857649268 1:0.13871 2:-0.0242964 3:-0.0651006 4:-0.0570245 5:-2.27896e-06 6:-0.11499 7:0.0736498 8:-0.166589 9:-0.166161 10:-0.0671468 11:0.00731833 12:0.259382 13:0.066426 14:-0.0736564 15:-0.176748 16:0.569816 17:0.231663 18:0.258093 19:-0.0657125 20:-0.0474591 21:0.474472 22:-0.00356096 23:-0.0822312 24:0.016164 25:-0.00654992 26:-0.0531964 27:0.112214 28:-0.0446921 29:-0.00846201 30:-0.118049 31:-0.225996 32:0.0738529 33:0.0557335 34:0.0381247 35:-0.101957 36:0.444397 37:-0.028058 38:-0.0627411 39:0.14339 40:0.0151948 41:0.376167 42:0.0180193 43:0.166495 44:0.13305 45:0.0358875 46:-0.0401999 47:-0.109937 48:-0.171603 49:-0.138931 50:-0.072099 51:-0.0903948 52:-0.0231807 53:-0.231165 54:-0.237707 55:-0.0616147 56:-0.109853 57:0.105864 58:-0.348942 59:-0.200001 60:-0.129542 61:0.441958 62:0.173991 63:0.127079 64:-0.187126 65:-0.020652 66:0.0966608 67:-0.312772 68:-0.242459 69:-0.020679 70:-0.0220007 71:-0.394545 72:-0.108821 73:-0.242875 74:-0.191802 75:-0.189063 76:-0.32988 77:-0.0172128 78:-0.31398 79:-0.289288 80:-0.206497 81:0.282889 82:-0.041125 83:-0.144177 84:-0.00306537 85:-0.171097 86:0.39051 87:-0.194298 88:0.0688706 89:0.0726264 90:-0.0578793 91:0.153473 92:-0.241189 93:-0.184236 94:-0.10206 95:-0.0265013 96:0.0567623 97:-0.237106 98:-0.430577 99:-0.237828 100:-0.0459161 
11402.44508518926 1:-0.793669 2:-0.147217 3:-0.416235 4:-0.0268715 5:-0.11911 6:-1.1454 7:-0.175878 8:0.108245 9:0.0677093 10:-0.149491 11:-1.20545 12:-0.138162 13:-0.0888571 14:0.117946 15:-0.0150938 16:-0.803993 17:0.0380334 18:-0.410766 19:0.150952 20:-0.160215 21:-0.724572 22:0.0763323 23:-0.179174 24:0.159337 25:-0.10525 26:-0.896518 27:-0.135155 28:-0.0963139 29:0.228044 30:-0.137011 31:-0.539707 32:0.174238 33:-0.00609005 34:0.206501 35:-0.00430899 36:-0.508198 37:0.0947453 38:0.0223516 39:0.154998 40:-0.0315415 41:-0.753562 42:0.0611984 43:-0.30338 44:0.0115406 45:-0.0820629 46:-0.382211 47:0.160742 48:-0.246939 49:-0.0235811 50:-0.249489 51:-0.883258 52:-0.0834841 53:-0.0142827 54:0.0202665 55:-0.18931 56:-0.866664 57:-0.002081 58:-0.196699 59:-0.0756337 60:-0.173105 61:-0.821867 62:0.140966 63:-0.253525 64:-0.0204156 65:-0.297962 66:-0.820609 67:0.218128 68:-0.165355 69:0.0762229 70:-0.0659041 71:-0.757739 72:0.105882 73:-0.000316422 74:0.0982265 75:-0.0320826 76:-0.208276 77:0.229556 78:-0.00663288 79:0.0215163 80:-0.0926047 81:-0.38571 82:0.203821 83:-0.0103358 84:-0.0920979 85:-0.186371 86:-0.414802 87:0.249574 88:-0.36838 89:-0.0349597 90:-0.18179 91:-0.350273 92:-0.0121185 93:-0.399784 94:0.0960514 95:-0.317149 96:-0.402684 97:-0.211855 98:0.170524 99:0.0633596 100:-0.226885 
7109.752563727171 1:0.256198 2:-0.000886494 3:-0.120356 4:-0.181904 5:-0.0928355 6:0.248367 7:0.21788 8:0.0953985 9:-0.258135 10:-0.156089 11:-0.0967612 12:0.0741885 13:0.120233 14:-0.131187 15:-0.135448 16:-0.238392 17:0.109267 18:0.0283816 19:-0.156909 20:-0.0655068 21:-0.278826 22:-0.133217 23:0.151162 24:-0.265442 25:0.0331466 26:-0.0654713 27:0.064888 28:-0.142872 29:-0.173701 30:0.0496342 31:0.281392 32:0.0672801 33:-0.172256 34:-0.239271 35:-0.0233691 36:0.340632 37:-0.0875291 38:-0.12589 39:-0.279677 40:-0.110056 41:0.0959798 42:0.0475214 43:-0.387415 44:-0.0695919 45:-0.034244 46:0.187629 47:0.113285 48:0.171179 49:-0.0648171 50:-0.205988 51:0.0861391 52:0.226631 53:0.150334 54:-0.105204 55:-0.156136 56:0.00988741 57:0.0228809 58:0.217802 59:-0.0601963 60:-0.0528381 61:-0.106813 62:-0.0528927 63:0.143068 64:-0.10745 65:0.0241315 66:-0.414982 67:-0.174543 68:0.205211 69:-0.236074 70:-0.0224778 71:0.0130312 72:-0.0428027 73:-0.104179 74:-0.093157 75:-0.0741169 76:0.0878489 77:-0.105582 78:-0.247475 79:-0.0759003 80:-0.19054 81:0.147256 82:-0.107869 83:0.0228194 84:-0.00896997 85:-0.110653 86:-0.0417567 87:-0.086054 88:-0.193326 89:-0.0172256 90:-0.065622 91:-0.120634 92:0.0249681 93:0.103177 94:-0.160518 95:-0.0535956 96:-0.000440128 97:0.216873 98:0.205329 99:-0.0762474 100:-0.146474 
13332.26561624944 1:-0.252816 2:-0.0984827 3:-0.228318 4:0.00168958 5:-0.0160169 6:0.00617378 7:-0.090592 8:-0.0171144 9:-0.0273777 10:-0.11781 11:0.945792 12:0.351096 13:-0.109077 14:0.0436055 15:-0.0210973 16:1.25633 17:0.384346 18:-0.118089 19:0.125219 20:0.101947 21:1.07354 22:0.169744 23:-0.242203 24:-0.0114982 25:0.160926 26:1.01386 27:0.119882 28:-0.302209 29:0.00146152 30:-0.000998073 31:0.680007 32:0.0141966 33:-0.209044 34:-0.143894 35:-0.00278949 36:0.0970595 37:-0.00755494 38:-0.174488 39:-0.00932894 40:0.0987375 41:0.294024 42:0.0284365 43:0.00969792 44:-0.0021512 45:0.0832712 46:-0.228765 47:-0.258275 48:-0.686859 49:-0.200475 50:-0.136067 51:-0.277946 52:-0.197109 53:-0.287649 54:-0.182081 55:-0.149547 56:0.47379 57:-0.0106461 58:-0.214312 59:-0.0142181 60:-0.222289 61:0.823916 62:0.0246157 63:-0.247081 64:-0.0286927 65:-0.116037 66:0.652659 67:-0.01288 68:-0.283825 69:-0.0772078 70:-0.0139164 71:0.592107 72:-0.162048 73:-0.159299 74:-0.0123786 75:-0.122334 76:0.278722 77:-0.220644 78:-0.0996288 79:-0.0939506 80:-0.168731 81:-0.189594 82:-0.188908 83:-0.139254 84:-0.0650997 85:-0.0535487 86:0.0397562 87:-0.0919349 88:-0.0867583 89:0.0234272 90:-0.0442538 91:-0.330483 92:-0.254669 93:-0.470137 94:-0.0829607 95:0.0266605 96:-0.322727 97:-0.39384 98:-0.272061 99:-0.0650327 100:0.0309842 
8215.213927753677 1:-0.345015 2:0.11521 3:0.113975 4:0.0108554 5:-0.121153 6:-0.370626 7:0.164132 8:0.144314 9:-0.0371434 10:-0.103966 11:-0.0939558 12:-0.0145523 13:0.001388 14:-0.0568404 15:-0.151532 16:-0.184047 17:-0.0523068 18:-0.248128 19:-0.00314723 20:-0.0563856 21:-0.251375 22:-0.135061 23:-0.060991 24:0.0782824 25:-0.110563 26:-0.331257 27:0.0335092 28:-0.317745 29:-0.087308 30:-0.146756 31:-0.283991 32:-0.0165521 33:-0.283368 34:-0.0768226 35:-0.248486 36:-0.362488 37:0.144114 38:-0.239933 39:0.0128699 40:-0.187068 41:-0.306567 42:0.0253308 43:-0.206854 44:0.0790697 45:-0.252905 46:-0.119974 47:0.0118164 48:0.253077 49:0.0811986 50:-0.0929035 51:-0.164941 52:0.107468 53:0.259851 54:0.0398836 55:-0.172026 56:-0.160194 57:-0.0090788 58:0.0236459 59:0.0689312 60:-0.0358925 61:-0.360593 62:0.0692274 63:-0.220315 64:0.0740951 65:0.0222741 66:-0.256319 67:-0.270202 68:-0.236541 69:0.142054 70:-0.023542 71:-0.395834 72:-0.117912 73:-0.0166561 74:0.109507 75:-0.0428762 76:-0.122831 77:-0.0201007 78:0.0693088 79:-0.0543877 80:-0.116736 81:-0.148013 82:0.0774449 83:-0.100624 84:-0.0469645 85:0.0111277 86:-0.0480066 87:-0.0293167 88:-0.172799 89:0.0110635 90:-0.0727633 91:-0.272997 92:0.0739585 93:0.184521 94:0.0626755 95:-0.119039 96:-0.329599 97:0.0923537 98:0.245601 99:0.0665406 100:-0.286983 
13529.0872294483 1:-0.182919 2:0.00603967 3:0.175992 4:-0.0755073 5:-0.182624 6:-0.0580938 7:0.272401 8:-0.062543 9:-0.0908816 10:-0.170255 11:0.105379 12:0.11696 13:0.0147216 14:0.0460676 15:-0.155948 16:-0.20728 17:-0.120902 18:-0.166473 19:-0.0615654 20:-0.0853594 21:-0.28393 22:-0.161659 23:-0.286619 24:-0.0310054 25:-0.2282 26:-0.176288 27:-0.109571 28:-0.185028 29:-0.0673153 30:-0.367573 31:-0.177971 32:-0.102335 33:-0.011293 34:-0.151388 35:-0.171467 36:-0.350796 37:-0.207529 38:0.021147 39:-0.085808 40:0.012121 41:0.140481 42:-0.195759 43:0.159602 44:0.151942 45:-0.134255 46:-0.271093 47:-0.0694782 48:0.221202 49:-0.0157202 50:-0.0821288 51:0.0992101 52:0.153688 53:-0.143483 54:-0.0370884 55:-0.166979 56:0.092846 57:0.093627 58:-0.24529 59:0.0610514 60:-0.040392 61:-0.307498 62:-0.110056 63:-0.549599 64:-0.0726897 65:-0.00620016 66:-0.0875397 67:-0.170109 68:-0.558204 69:0.0465593 70:-0.159099 71:-0.280574 72:-0.399565 73:-0.269724 74:0.0500592 75:-0.0893964 76:-0.773422 77:-0.392728 78:-0.139678 79:-0.0569717 80:-0.0502265 81:-0.407212 82:-0.417352 83:-0.186157 84:-0.0212571 85:-0.0990944 86:-0.32731 87:-0.457014 88:-0.118426 89:0.128116 90:-0.229515 91:-0.122549 92:-0.0645187 93:0.274785 94:-0.0580896 95:-0.105173 96:6.18293e-05 97:0.150708 98:-0.0445065 99:-0.24607 100:-0.164634 
7417.982485424423 1:-0.1596 2:-0.415778 3:-0.239497 4:-0.231066 5:-0.00652823 6:0.0357712 7:-0.313685 8:-0.287674 9:-0.302394 10:-0.131252 11:-0.267354 12:-0.0771345 13:-0.155426 14:-0.23053 15:-0.129264 16:-0.0183848 17:-0.207473 18:-0.0320653 19:-0.116993 20:-0.0484692 21:0.260121 22:-0.0935077 23:-0.112109 24:-0.154121 25:-0.0847849 26:0.0602215 27:-0.281495 28:-0.341223 29:-0.173402 30:-0.224916 31:0.110102 32:-0.104696 33:-0.0131743 34:-0.0821654 35:-0.153433 36:-0.0796168 37:0.0798163 38:-0.00166278 39:-0.109965 40:-0.0352998 41:-0.11717 42:-0.0229598 43:-0.266834 44:-0.177245 45:0.0840255 46:-0.311151 47:-0.284104 48:0.0242796 49:-0.273501 50:-0.00434396 51:0.0331231 52:-0.093784 53:0.0164263 54:-0.240983 55:-0.0961001 56:-0.139421 57:-0.128467 58:-0.081601 59:-0.217234 60:0.023894 61:-0.157154 62:-0.158021 63:0.158654 64:-0.127773 65:-0.0562645 66:0.229173 67:-0.161255 68:0.0633607 69:-0.00687142 70:-0.244994 71:0.120976 72:-0.261586 73:-0.0239852 74:-0.0852416 75:-0.129587 76:0.204814 77:-0.0917773 78:0.142033 79:-0.218321 80:-0.173991 81:-0.168694 82:0.0310453 83:0.156945 84:-0.209834 85:-0.059656 86:-0.207579 87:-0.00887239 88:-0.107912 89:-0.11178 90:0.00857644 91:-0.0566431 92:-0.197938 93:-0.102552 94:-0.339279 95:-0.0324815 96:0.0697683 97:-0.0571061 98:0.0562413 99:-0.244534 100:-0.0747191 
12663.86298818354 1:-0.190527 2:-0.113295 3:-0.0310638 4:0.0269887 5:-0.0947857 6:-0.304392 7:-0.0403473 8:0.148639 9:-0.0447184 10:-0.0452995 11:-0.517814 12:-0.0929223 13:0.124294 14:0.00258489 15:0.072796 16:-0.27916 17:-0.0158095 18:0.087657 19:0.178375 20:0.225768 21:-0.406799 22:0.0210147 23:-0.177256 24:0.125267 25:0.246204 26:-0.089058 27:0.0192379 28:-0.0174367 29:0.0898521 30:0.0379008 31:-0.13675 32:-0.304641 33:0.16312 34:-0.126816 35:0.00461939 36:-0.0743485 37:-0.639544 38:0.07653 39:-0.0195647 40:0.0113129 41:-0.162692 42:-0.385927 43:-0.210476 44:0.0172966 45:-0.055802 46:-0.0290865 47:-0.0715793 48:-0.332798 49:-0.175748 50:-0.0961357 51:-0.00931908 52:-0.0548131 53:-0.415099 54:0.00188835 55:0.00525948 56:-0.411175 57:-0.278183 58:-0.198754 59:-0.0487274 60:0.0238641 61:-0.0510399 62:-0.249304 63:0.0880944 64:0.0627698 65:-0.0731465 66:-0.25152 67:-0.101826 68:-0.183918 69:-0.165309 70:-0.0759838 71:0.0311012 72:-0.0245506 73:-0.176325 74:0.0416395 75:-0.0474889 76:0.12503 77:-0.0350075 78:0.0649592 79:-0.0496083 80:-0.0187342 81:-0.132008 82:-0.180076 83:-0.145256 84:-0.0407953 85:-0.0165976 86:-0.0613554 87:-0.270882 88:-0.338653 89:0.102791 90:-0.0594827 91:0.0129802 92:-0.094111 93:-0.283941 94:-0.198307 95:-0.0647925 96:0.0899071 97:0.0732872 98:0.00632294 99:-0.0684201 100:-0.000768204 
12024.2319146661 1:0.120503 2:0.0297028 3:0.0489535 4:-0.163537 5:-0.0366491 6:-0.057396 7:-0.179159 8:0.0596867 9:-0.135262 10:-0.118167 11:0.190505 12:0.115016 13:0.0663024 14:0.0234645 15:0.0679446 16:0.250854 17:-0.0776364 18:0.320507 19:0.0459182 20:0.0339694 21:0.131269 22:-0.117284 23:0.0471165 24:-0.0501121 25:0.0242923 26:0.156357 27:0.161921 28:0.191826 29:-0.0927337 30:0.0449037 31:0.167512 32:0.232829 33:0.142689 34:0.0417351 35:0.0571892 36:0.0274948 37:-0.189456 38:-0.0886389 39:0.0568088 40:-0.11233 41:-0.252058 42:-0.272964 43:-0.204394 44:0.0670658 45:0.043526 46:0.000999494 47:0.0624855 48:-0.273356 49:-0.034606 50:-0.106499 51:-0.143477 52:-0.23289 53:-0.561399 54:-0.0516123 55:-0.0141525 56:0.0218719 57:0.0559437 58:-0.0555758 59:0.147274 60:-0.0504336 61:0.186128 62:0.0206043 63:0.298812 64:0.0651845 65:-0.0416429 66:0.214298 67:0.0322503 68:0.161133 69:-0.0638141 70:-0.0349542 71:0.462402 72:0.155344 73:0.00570552 74:-0.0282174 75:0.155845 76:0.0433754 77:0.0829728 78:-0.044021 79:0.0707641 80:0.0424238 81:-0.00616716 82:0.0692545 83:-0.200263 84:0.112749 85:-0.128378 86:-0.184033 87:-0.0985111 88:-0.26437 89:0.0817545 90:0.0834424 91:0.0766588 92:-0.123714 93:-0.379829 94:-0.0528137 95:-0.0853636 96:0.22524 97:-0.365531 98:-0.0649922 99:-0.0457302 100:-0.0737748 
13529.0872294483 1:-0.178558 2:0.0161337 3:-0.01896 4:-0.0913671 5:-0.173064 6:-0.296324 7:-0.0133972 8:0.122355 9:-0.0176774 10:-0.126325 11:-0.486789 12:-0.00225743 13:-0.0337498 14:-0.203687 15:0.0118512 16:-0.370996 17:0.157882 18:0.0457362 19:-0.133016 20:-0.086391 21:-0.340786 22:-0.200162 23:-0.0145432 24:0.0330165 25:-0.0902417 26:-0.298126 27:-0.211556 28:-0.253208 29:0.0314108 30:-0.0750795 31:-0.502824 32:-0.086872 33:-0.328475 34:0.00679547 35:-0.111481 36:-0.052922 37:-0.108538 38:-0.453083 39:0.00874435 40:-0.0613648 41:-0.121994 42:-0.0592715 43:-0.125913 44:-0.0397787 45:0.016317 46:-0.231403 47:0.161022 48:0.0537521 49:0.0406379 50:-0.203832 51:-0.389718 52:0.178516 53:0.0440599 54:0.0550086 55:-0.20375 56:-0.376997 57:0.184779 58:0.134564 59:0.017472 60:-0.173647 61:-0.00783524 62:0.344991 63:0.104475 64:0.00982983 65:-0.101547 66:-0.0749935 67:0.0877005 68:-0.102323 69:0.0485777 70:-0.0805976 71:-0.278537 72:0.0255186 73:-0.182834 74:0.0797833 75:-0.0872109 76:-0.199471 77:0.301219 78:-0.207067 79:0.0765727 80:-0.161029 81:0.107486 82:0.124695 83:-0.296946 84:0.00426811 85:-0.141536 86:-0.0105248 87:-0.0027125 88:-0.349124 89:-0.0237428 90:-0.0582166 91:-0.39964 92:0.0698278 93:0.146355 94:0.129635 95:-0.177256 96:-0.442987 97:-0.00970596 98:0.0729467 99:0.0613112 100:-0.10562 
8335.581868379974 1:-0.101581 2:0.159019 3:-0.0592484 4:-0.0549026 5:0.0183513 6:-0.12329 7:-0.0587063 8:-0.027588 9:-0.136283 10:-0.0810741 11:-0.0435936 12:0.074846 13:0.113898 14:-0.254615 15:-0.0450971 16:0.231936 17:0.0609219 18:0.300329 19:-0.229991 20:-0.0856085 21:0.141493 22:-0.0599546 23:-0.0837002 24:-0.153003 25:-0.0962625 26:0.032493 27:-0.227383 28:-0.0599374 29:-0.123253 30:-0.1483 31:-0.356866 32:-0.0359927 33:-0.310899 34:-0.0943444 35:0.0362716 36:-0.416323 37:-0.259829 38:-0.229734 39:-0.167726 40:-0.0394333 41:-0.366514 42:0.0428062 43:-0.025733 44:-0.238045 45:-0.114584 46:-0.0826922 47:0.156676 48:0.00919756 49:-0.05306 50:0.0739808 51:-0.351549 52:-0.00550589 53:0.075124 54:-0.0678927 55:0.0759454 56:-0.438693 57:-0.0559197 58:0.225058 59:-0.0726395 60:0.121206 61:0.0464025 62:0.0241918 63:0.400574 64:-0.0799097 65:0.0659483 66:0.0924347 67:-0.0203696 68:0.00684424 69:-0.0469594 70:0.0109215 71:0.0124032 72:-0.211463 73:-0.153135 74:0.00317494 75:-0.137451 76:-0.308324 77:-0.280288 78:0.0561361 79:-0.0941974 80:-0.101727 81:-0.360446 82:-0.367753 83:-0.174903 84:-0.138844 85:-0.0178108 86:-0.194984 87:0.0112797 88:0.0218688 89:-0.141685 90:-0.015991 91:-0.126262 92:0.272001 93:0.0613601 94:0.000633044 95:0.0710545 96:-0.286841 97:-0.173076 98:0.101335 99:-0.031705 100:0.119591 
13443.18412692281 1:0.467275 2:0.243373 3:-0.234413 4:-0.0622103 5:-0.20327 6:0.229044 7:0.281682 8:-0.463942 9:-0.29791 10:-0.266149 11:0.343584 12:0.120574 13:-0.154434 14:-0.174459 15:-0.207407 16:0.439318 17:0.335127 18:-0.134201 19:-0.100105 20:-0.177744 21:1.16947 22:0.565668 23:-0.0492273 24:-0.0677548 25:-0.200776 26:1.4217 27:0.586913 28:0.157274 29:-0.0659454 30:-0.17273 31:1.2294 32:0.26649 33:-0.263051 34:0.0246779 35:-0.0540263 36:1.11821 37:0.210355 38:-0.240235 39:-0.0407392 40:-0.208818 41:0.8238 42:0.146707 43:-0.327648 44:-0.156823 45:-0.192795 46:0.224103 47:0.0168813 48:-0.262546 49:-0.0129047 50:-0.14788 51:0.0441776 52:0.153752 53:-0.374979 54:-0.209969 55:-0.264952 56:0.116579 57:-0.00811646 58:-0.0634734 59:-0.174429 60:-0.325581 61:0.255902 62:0.293328 63:0.0750277 64:-0.125849 65:-0.324028 66:0.727382 67:0.401072 68:-0.0671996 69:-0.0736766 70:-0.297172 71:0.973405 72:0.301738 73:0.184326 74:-0.0953574 75:-0.394051 76:0.751644 77:0.337109 78:-0.159713 79:-0.200549 80:-0.384646 81:0.764826 82:0.22845 83:-0.165429 84:-0.258307 85:-0.244249 86:0.60311 87:0.161957 88:-0.294591 89:-0.217099 90:-0.264425 91:0.12887 92:-0.239807 93:-0.289483 94:-0.0956098 95:-0.118591 96:0.122109 97:-0.025841 98:-0.368313 99:-0.249588 100:-0.247307 
13182.44553811276 1:-0.124155 2:-0.134062 3:0.0891756 4:-0.0411517 5:-0.0761561 6:0.0466018 7:-0.0747372 8:-0.220956 9:0.0981996 10:-0.164383 11:0.0819189 12:0.115361 13:0.00377659 14:0.0396184 15:-0.215647 16:0.0199935 17:-0.028897 18:-0.0503909 19:0.032402 20:-0.113684 21:-0.0205142 22:-0.0824573 23:-0.225821 24:0.0419528 25:-0.0115635 26:0.00601847 27:-0.0738827 28:0.0407695 29:0.0212144 30:-0.254423 31:0.0726939 32:0.142675 33:-0.0055502 34:-0.0577769 35:-0.248923 36:-0.0881329 37:-0.0967373 38:-0.0059574 39:-0.000563535 40:-0.282062 41:-0.194753 42:-0.0779404 43:0.143714 44:-0.0739194 45:-0.241827 46:0.00209966 47:-0.17112 48:-0.0198933 49:-0.157232 50:-0.129692 51:0.0353818 52:-0.118917 53:-0.457282 54:-0.0687239 55:-0.291079 56:0.108632 57:0.0457579 58:0.0226784 59:-0.143642 60:-0.309803 61:-0.00661967 62:-0.109888 63:-0.184295 64:-0.172329 65:-0.182073 66:-0.122117 67:-0.212727 68:-0.39042 69:-0.14042 70:-0.139698 71:-0.0352577 72:-0.238109 73:-0.0798704 74:-0.048842 75:-0.334016 76:-0.0217651 77:0.0264818 78:-0.127246 79:-0.169414 80:-0.386786 81:-0.180951 82:-0.157708 83:-0.04173 84:-0.174377 85:-0.359543 86:-0.389308 87:-0.461295 88:-0.0423135 89:-0.340939 90:-0.340849 91:-0.204407 92:-0.0986954 93:0.0450411 94:-0.0531309 95:-0.100022 96:-0.180392 97:-0.035797 98:-0.359236 99:0.0371905 100:-0.277576 
52.63544912651005 1:0.0306061 2:0.0291224 3:-0.258056 4:0.0693097 5:-0.0467885 6:0.0572499 7:0.00809624 8:-0.00407267 9:-0.0243736 10:-0.0401503 11:-0.128956 12:0.00592751 13:0.0618868 14:0.0878342 15:0.0272441 16:-0.0821797 17:-0.0587449 18:-0.0135961 19:0.0312492 20:0.0536399 21:0.236333 22:-0.117577 23:-0.0618385 24:-0.0505262 25:0.179092 26:0.181584 27:-0.175477 28:-0.155195 29:0.0169593 30:0.0837776 31:-0.147671 32:-0.135305 33:-0.515922 34:0.0273079 35:0.0816285 36:-0.0491402 37:0.0532187 38:-0.570694 39:-0.029598 40:0.0924972 41:0.0167114 42:-0.0781163 43:-0.161478 44:-0.0128633 45:0.0565051 46:-0.0256724 47:-0.139202 48:-0.365036 49:0.063812 50:-0.0112816 51:-0.244786 52:-0.167151 53:-0.0356569 54:-0.0161823 55:-0.0311218 56:-0.282108 57:-0.073965 58:0.00405236 59:0.0240121 60:0.018168 61:0.00199912 62:-0.106107 63:0.0617231 64:0.0375545 65:-0.0768896 66:0.23799 67:-0.179372 68:0.110208 69:-0.0413566 70:-0.00537616 71:0.206534 72:-0.0786601 73:-0.148824 74:0.0458439 75:0.101703 76:-0.194499 77:-0.209599 78:-0.403012 79:0.0104551 80:0.0767698 81:-0.393951 82:-0.0614917 83:-0.498871 84:-0.148793 85:-0.0227617 86:-0.12225 87:-0.141983 88:-0.0216919 89:-0.0484621 90:-0.118368 91:-0.162448 92:-0.126653 93:-0.143675 94:0.0891742 95:0.012438 96:-0.046018 97:-0.0535874 98:-0.0174628 99:0.0147552 100:-0.0613162 
1798.425642685616 1:-0.182402 2:-0.0256602 3:0.0314118 4:-0.0429553 5:-0.257859 6:-0.299079 7:-0.0813251 8:0.0250823 9:-0.0306702 10:-0.255989 11:-0.0828352 12:-0.164014 13:0.0089199 14:-0.029497 15:-0.272121 16:-0.159612 17:-0.231827 18:-0.168309 19:0.0723587 20:-0.0480077 21:-0.303198 22:-0.321348 23:-0.00296656 24:-0.00459492 25:0.0101802 26:-0.398551 27:-0.320614 28:-0.197984 29:0.0521209 30:-0.144814 31:-0.636327 32:-0.115839 33:0.00110296 34:-0.0199298 35:-0.115679 36:-0.48857 37:-0.0305683 38:0.0292541 39:-0.0896549 40:-0.0378351 41:-0.202273 42:-0.0619888 43:-0.0740134 44:0.00898755 45:-0.129633 46:-0.02229 47:-0.0346903 48:-0.37031 49:-0.274368 50:-0.126406 51:-0.240856 52:-0.0886075 53:-0.0995588 54:-0.223191 55:-0.0981706 56:0.011473 57:-0.144991 58:-0.0434383 59:-0.138001 60:-0.0937769 61:0.0904182 62:-0.281207 63:-0.149131 64:-0.0728971 65:-0.0942672 66:-0.146527 67:-0.426271 68:-0.288264 69:-0.0737657 70:0.00281064 71:-0.356938 72:-0.535255 73:-0.47646 74:0.00668766 75:-0.122306 76:-0.653341 77:-0.486372 78:-0.265369 79:-0.0223791 80:-0.116811 81:-0.364419 82:-0.284105 83:-0.159656 84:-0.265089 85:0.00344108 86:-0.0105483 87:-0.133314 88:-0.183643 89:-0.118531 90:-0.0586816 91:-0.118563 92:-0.0470524 93:-0.221949 94:-0.0890867 95:-0.101695 96:-0.28342 97:-0.0912297 98:0.00620253 99:-0.134587 100:-0.0035228 
47.10399328431947 1:0.0677561 2:-0.0497866 3:-0.313756 4:-0.0202131 5:0.0556995 6:0.324778 7:0.127118 8:-0.339412 9:-0.113742 10:0.20918 11:0.295345 12:-0.134323 13:-0.182899 14:-0.144839 15:0.0462299 16:0.0535788 17:-0.0485772 18:-0.0574768 19:-0.0515847 20:-0.0138256 21:0.0532579 22:-0.0156448 23:-0.00405684 24:-0.0450302 25:-0.0974852 26:-0.0745728 27:-0.0560809 28:-0.340773 29:-0.0600658 30:0.0102771 31:0.210504 32:-0.175431 33:0.0315631 34:-0.0456984 35:0.0558431 36:0.194996 37:0.12877 38:-0.111995 39:-0.0565628 40:0.12867 41:0.148039 42:-0.129514 43:-0.101958 44:-0.0836015 45:0.0674458 46:0.106841 47:0.00695261 48:-0.0685552 49:-0.00830946 50:0.188666 51:0.177335 52:0.14881 53:0.177787 54:0.173264 55:0.563083 56:0.222693 57:-0.00337252 58:-0.141574 59:0.0554662 60:0.309043 61:-0.294187 62:0.0217591 63:-0.0645174 64:-0.159428 65:0.111285 66:-0.560544 67:-0.322637 68:0.0571717 69:-0.114775 70:0.0549041 71:0.0350198 72:-0.221736 73:-0.398534 74:-0.0744794 75:0.0637056 76:0.193411 77:-0.107955 78:0.0326568 79:-0.0381431 80:0.0421726 81:0.20913 82:0.11483 83:-0.102795 84:-0.122964 85:0.0954943 86:0.0139005 87:-0.159236 88:-0.300174 89:-0.100393 90:0.00347718 91:-0.125282 92:0.202696 93:-0.173907 94:-0.0807705 95:0.0427987 96:0.126972 97:0.208879 98:0.0810883 99:0.0551345 100:0.323758 
12484.62137380141 1:-0.223983 2:-0.0679826 3:0.129753 4:0.0754947 5:-0.00629298 6:-0.240055 7:-0.490701 8:-0.081017 9:0.0429318 10:-0.00629682 11:0.0168043 12:-0.695887 13:-0.0971361 14:0.0784176 15:-0.00494733 16:0.854372 17:0.372997 18:-0.064483 19:0.197436 20:0.577565 21:0.933221 22:0.30746 23:0.0583982 24:0.275008 25:0.706478 26:0.804971 27:-0.0914552 28:0.0260212 29:0.0895981 30:0.187516 31:0.248381 32:-0.366039 33:-0.131027 34:0.00633557 35:0.0206708 36:-0.249191 37:-0.30356 38:0.0807338 39:0.099979 40:0.10555 41:-0.451592 42:-0.483478 43:0.0354818 44:0.0964825 45:0.126906 46:-0.101698 47:-0.1282 48:0.00281203 49:-0.129626 50:-0.121596 51:-0.33804 52:-0.353159 53:-0.0628374 54:-0.0786863 55:0.0314923 56:-0.134799 57:-0.426204 58:-0.385564 59:-0.0967395 60:-0.0303299 61:0.56796 62:0.235866 63:-0.136525 64:0.165071 65:0.41575 66:0.553291 67:0.0989242 68:0.0120061 69:0.274383 70:0.538539 71:0.497973 72:-0.197702 73:-0.0188411 74:0.102115 75:-0.00302258 76:0.0334682 77:-0.481846 78:-0.374115 79:-0.167492 80:-0.0260093 81:-0.655737 82:-0.419859 83:-0.249451 84:-0.0108881 85:-0.0198012 86:-0.732517 87:-0.417828 88:-0.178044 89:0.0249373 90:-0.00380294 91:0.191661 92:-0.139777 93:-0.160172 94:-0.0348073 95:-0.0916252 96:0.157798 97:-0.185142 98:-0.264642 99:-0.105749 100:-0.0133029 
676.8893111637826 1:-0.0695693 2:0.131122 3:-0.281943 4:0.0874653 5:-0.0494406 6:-0.247934 7:0.257108 8:0.00453527 9:0.00127869 10:0.0743647 11:-0.102208 12:0.207724 13:0.250454 14:-0.0536043 15:-0.101398 16:-0.203553 17:0.218782 18:0.265888 19:-0.0813604 20:-0.106269 21:-0.0307999 22:0.163605 23:0.0782947 24:-0.104777 25:-0.0482935 26:0.243759 27:-0.0906054 28:-0.142633 29:-0.147459 30:-0.0239333 31:0.171375 32:0.0397212 33:0.0467332 34:-0.0863528 35:-0.166292 36:-0.46233 37:-0.321667 38:0.109683 39:-0.0625773 40:0.107063 41:-0.834174 42:-0.043944 43:0.362068 44:-0.148315 45:-0.0437539 46:0.128597 47:-0.0369242 48:-0.252211 49:0.0681093 50:-0.169238 51:-0.27219 52:0.206184 53:-0.040616 54:-0.119156 55:-0.139387 56:-0.236826 57:0.108782 58:0.249341 59:-0.158166 60:-0.091179 61:-0.188558 62:0.076884 63:0.0218842 64:-0.106101 65:-0.0245181 66:-0.212779 67:0.0294164 68:-0.248828 69:-0.0745607 70:-0.13923 71:-0.0756982 72:-0.0989276 73:-0.0995923 74:-0.074107 75:-0.119368 76:0.150212 77:-0.287438 78:0.0952637 79:-0.123872 80:-0.147919 81:-0.107742 82:-0.263736 83:0.232171 84:-0.0202327 85:0.0142899 86:-0.264571 87:0.0490657 88:0.419122 89:-0.161421 90:-0.099242 91:0.0952754 92:-0.0904146 93:-0.230434 94:0.0455594 95:-0.197395 96:-0.179548 97:0.139816 98:0.0575872 99:-0.126109 100:-0.16837 
12496.45058087894 1:-0.0263806 2:-0.0570615 3:-0.00059901 4:0.146011 5:-0.0307015 6:0.0809675 7:0.227182 8:0.0411968 9:-0.0499131 10:-0.042206 11:-0.219106 12:0.143381 13:0.0694024 14:-0.059332 15:0.0152502 16:0.12667 17:0.131755 18:0.299367 19:-0.0327083 20:-0.0536243 21:0.514672 22:-0.0152567 23:0.0450383 24:-0.0500451 25:-0.0567947 26:0.330053 27:-0.00962364 28:0.134152 29:0.0376874 30:-0.0606674 31:0.132143 32:-0.0898647 33:0.220963 34:0.0343893 35:0.0192713 36:0.0496495 37:0.0891819 38:0.0354329 39:0.0122574 40:-0.0250722 41:0.249986 42:0.0403953 43:-0.0420779 44:0.034062 45:-0.126602 46:-0.196447 47:0.135456 48:-0.00214517 49:0.0249353 50:-0.120759 51:0.211766 52:0.387137 53:0.0287848 54:-0.150667 55:-0.0812448 56:-0.136141 57:0.239527 58:0.0795899 59:-0.107322 60:-0.0683493 61:0.093026 62:0.266192 63:0.292442 64:-0.0680466 65:-0.0734563 66:0.203389 67:0.0412984 68:0.0289191 69:-0.109068 70:-0.0549219 71:0.165113 72:-0.206907 73:0.00817853 74:-0.0857228 75:-0.0529328 76:0.188143 77:-0.314441 78:0.121501 79:0.0887756 80:-0.0594647 81:0.171308 82:0.177498 83:-0.0811286 84:-0.0663174 85:-0.0679241 86:0.334303 87:0.0446807 88:0.0167898 89:0.00993617 90:-0.178509 91:0.0475593 92:0.163058 93:0.0616503 94:0.0401885 95:-0.172855 96:0.197643 97:0.289822 98:0.00573609 99:-0.188872 100:-0.0420495 
8283.590894850559 1:0.28477 2:0.131042 3:-0.0117848 4:0.0809257 5:-0.0404326 6:0.210893 7:0.0715079 8:0.0865939 9:0.00717038 10:0.0679016 11:-0.0315293 12:-0.168161 13:-0.307746 14:-0.0254355 15:0.0721924 16:0.0293952 17:0.106706 18:-0.321971 19:0.0745015 20:0.0309156 21:-0.169861 22:0.175839 23:-0.134537 24:-0.0654736 25:0.00842924 26:-0.206904 27:-0.07109 28:-0.22797 29:0.00920414 30:0.0836478 31:-0.201611 32:0.0204935 33:-0.12684 34:-0.209967 35:0.0826787 36:-0.281529 37:0.223832 38:-0.121602 39:-0.219541 40:0.0388672 41:0.134549 42:0.184905 43:-0.202841 44:-0.115846 45:-0.0492417 46:0.543535 47:0.203221 48:-0.203268 49:-0.11822 50:0.037514 51:0.511645 52:0.177784 53:0.1774 54:-0.197919 55:0.10008 56:0.19848 57:-0.0928557 58:-0.145581 59:-0.0766502 60:0.02569 61:0.449913 62:-0.00883522 63:-0.215494 64:0.0799084 65:-0.0575344 66:-0.0682893 67:-0.0303832 68:-0.17407 69:-0.0699583 70:-0.119348 71:-0.12508 72:-0.24067 73:-0.13541 74:-0.016486 75:-0.025567 76:-0.128379 77:0.0659498 78:-0.136513 79:-0.0640923 80:0.0290761 81:0.015029 82:0.0765551 83:-0.132609 84:-0.173716 85:0.101204 86:0.512494 87:0.167972 88:-0.0586167 89:-0.103096 90:0.047738 91:0.41332 92:0.1215 93:-0.282132 94:-0.122099 95:-0.000256467 96:0.378831 97:0.0319097 98:-0.0249384 99:-0.184823 100:0.0659017 
12871.85495435168 1:-0.259803 2:-0.0972515 3:-0.0729886 4:-0.0299673 5:-0.0771321 6:-0.399846 7:0.0191423 8:-0.0871564 9:0.0365159 10:-0.0283957 11:-0.253499 12:0.129875 13:-0.0690846 14:0.019273 15:0.071272 16:-0.427425 17:0.10583 18:-0.339164 19:-0.0245044 20:-0.0131409 21:-0.613381 22:0.233077 23:-0.0844617 24:-0.0520765 25:-0.120706 26:-0.266969 27:0.137277 28:-0.107354 29:-0.188881 30:-0.0489556 31:-0.385175 32:-0.154146 33:0.0859194 34:-0.03904 35:-0.102385 36:-0.366642 37:-0.166945 38:-0.0198543 39:-0.0512615 40:0.0412573 41:-0.419977 42:0.0557775 43:0.0474683 44:-0.0396972 45:-0.0792789 46:0.0425921 47:0.0762862 48:-0.0531809 49:-0.00475656 50:-0.0356333 51:-0.268195 52:-0.0023726 53:-0.154103 54:-0.0306092 55:-0.07168 56:-0.184728 57:0.0613251 58:0.0307492 59:-0.0782581 60:0.0602591 61:-0.0509972 62:0.140585 63:-0.290291 64:-0.0533015 65:0.0105172 66:-0.223713 67:0.198441 68:-0.307999 69:-0.0385234 70:-0.037879 71:-0.201613 72:-0.0424959 73:-0.107943 74:-0.198549 75:0.0265351 76:-0.514961 77:-0.450073 78:0.0937215 79:-0.101447 80:-0.0281471 81:-0.363771 82:-0.526343 83:-0.319104 84:-0.108934 85:-0.016342 86:-0.0658143 87:-0.0251339 88:-0.269569 89:0.0301059 90:-0.0623172 91:-0.19556 92:0.0727843 93:-0.0258645 94:-0.068761 95:-0.0476272 96:-0.615478 97:-0.17156 98:-0.203746 99:-0.0252803 100:-0.0761331 
13529.0872294483 1:-0.0536341 2:0.0678453 3:0.117894 4:-0.00268502 5:-0.0448815 6:0.0261216 7:0.0544484 8:0.116279 9:-0.0334583 10:-0.0192262 11:-0.219743 12:-0.103269 13:0.0562113 14:-0.00778569 15:-0.102221 16:-0.0245959 17:-0.020001 18:-0.219741 19:-0.0180412 20:0.0212618 21:-0.198453 22:-0.0926954 23:0.109652 24:-0.0861961 25:0.0422817 26:-0.453663 27:-0.161703 28:-0.0276193 29:-0.0759398 30:0.0733162 31:-0.372073 32:-0.0976533 33:-0.392236 34:-0.0267452 35:0.0612944 36:-0.293923 37:0.0458255 38:-0.0495313 39:0.0459983 40:0.0622776 41:0.0447479 42:0.217038 43:-0.200851 44:0.0461249 45:-0.0779889 46:-0.0359876 47:-0.0811089 48:-0.0237241 49:0.0741081 50:-0.0251112 51:-0.127054 52:-0.181219 53:0.125211 54:-0.0488249 55:0.00685634 56:-0.168423 57:-0.212474 58:0.0171463 59:-0.0230675 60:-0.058518 61:-0.114599 62:-0.146797 63:-0.0872642 64:-0.0251741 65:-0.0971836 66:-0.223618 67:-0.304006 68:0.0864597 69:0.0649305 70:-0.112476 71:-0.447847 72:-0.35897 73:-0.101817 74:0.0408455 75:-0.0716136 76:-0.0209036 77:-0.106974 78:-0.519604 79:0.0753798 80:0.0223266 81:-0.106844 82:-0.0926475 83:-0.0349936 84:0.075839 85:-0.177782 86:0.116108 87:0.058041 88:-0.0269998 89:0.0770611 90:-0.224903 91:-0.039534 92:-0.0418803 93:-0.0193208 94:0.0075285 95:-0.178861 96:-0.102385 97:-0.0281224 98:0.0351701 99:-0.0471511 100:-0.046798 
9774.263068729892 1:-0.644033 2:-0.0581623 3:0.100223 4:-0.00794077 5:-0.0302116 6:-0.309745 7:-0.108841 8:0.174589 9:-0.0377291 10:-0.106737 11:-0.227304 12:-0.11314 13:-0.286165 14:0.0544698 15:-0.0789932 16:-0.284847 17:-0.0112779 18:-0.0676301 19:-0.0247588 20:-0.00487535 21:-0.131694 22:0.0255564 23:-0.0171259 24:-0.0334834 25:-0.0956481 26:-0.321621 27:0.00300685 28:-0.196471 29:0.0851999 30:-0.170275 31:-0.665932 32:0.0822413 33:-0.259174 34:0.0199119 35:-0.191851 36:-0.314077 37:-0.312304 38:-0.23112 39:-0.0146837 40:-0.107182 41:0.00276679 42:-0.22368 43:-0.0558769 44:0.016538 45:-0.189029 46:-0.212113 47:-0.0193678 48:0.0145834 49:-0.223399 50:-0.147906 51:0.0685601 52:-0.152061 53:-0.158613 54:-0.192157 55:-0.154126 56:0.00275654 57:-0.161083 58:-0.334495 59:-0.0846063 60:-0.0920378 61:0.0675343 62:-0.142506 63:-0.251902 64:-0.0270109 65:-0.035756 66:0.142152 67:0.0627012 68:-0.0311215 69:-0.101656 70:-0.00870795 71:0.143895 72:0.18182 73:0.0421944 74:0.00858468 75:-0.194262 76:-0.304709 77:0.00115489 78:-0.448845 79:-0.00979002 80:-0.0419885 81:0.0451727 82:-0.153285 83:-0.0478094 84:-0.0345953 85:-0.0803927 86:0.251693 87:-0.035171 88:0.154504 89:-0.0799771 90:-0.0297152 91:-0.183436 92:-0.182994 93:-0.0643063 94:-0.247478 95:-0.147909 96:-0.0801466 97:-0.0362625 98:-0.082029 99:-0.220126 100:-0.129472 
13529.0872294483 1:-0.159822 2:-0.0489956 3:0.0690018 4:0.061002 5:-0.0976682 6:-0.123728 7:-0.409333 8:-0.196006 9:0.00817139 10:0.00256163 11:0.169501 12:-0.115466 13:-0.46686 14:-0.0838729 15:-0.0392509 16:0.954405 17:0.149745 18:-0.54046 19:-0.0937824 20:0.0133641 21:1.00543 22:0.206799 23:-0.185122 24:0.0102302 25:0.108656 26:0.908451 27:0.0348217 28:-0.260976 29:0.0494468 30:0.063876 31:0.704739 32:-0.124946 33:-0.0432994 34:-0.0201111 35:0.159184 36:0.316949 37:-0.316715 38:-0.257603 39:0.0163639 40:0.101566 41:-0.0988213 42:-0.123364 43:-0.213981 44:0.0702241 45:0.0466439 46:-0.0251728 47:-0.019474 48:0.114583 49:0.0577022 50:0.00521873 51:-0.047201 52:-0.183571 53:-0.0451708 54:0.000186692 55:-0.0226843 56:0.117227 57:-0.0361031 58:-0.323865 59:-0.112568 60:-0.0601248 61:0.776321 62:-0.022408 63:-0.608099 64:-0.0371337 65:0.0872993 66:0.804158 67:0.0518229 68:0.0425847 69:-0.0743593 70:0.166856 71:0.695101 72:-0.025033 73:-0.08898 74:-0.0203631 75:0.0210985 76:0.58877 77:-0.317239 78:0.121287 79:-0.0141256 80:0.0913975 81:0.355807 82:-0.232183 83:0.0875744 84:-0.0633628 85:0.09534 86:0.0236459 87:-0.0227356 88:-0.183047 89:-0.0786828 90:0.103912 91:0.0201449 92:-0.095037 93:0.12237 94:0.0136219 95:-0.0322182 96:0.155345 97:-0.335968 98:0.0372056 99:-0.117771 100:0.0152814 
13298.29849296625 1:-0.0531996 2:-0.0309806 3:-0.0494618 4:-0.0840936 5:-0.182274 6:0.128131 7:-0.058752 8:0.0223627 9:-0.0986584 10:-0.0828143 11:-0.172793 12:-0.102136 13:0.0816095 14:-0.18196 15:-0.0285892 16:-0.0355777 17:0.0918329 18:-0.118322 19:-0.0601848 20:-0.216159 21:-0.351873 22:0.0645206 23:-0.0677965 24:0.0349661 25:-0.12115 26:-0.305845 27:0.17111 28:0.0898815 29:-0.143554 30:-0.133303 31:-0.483299 32:-0.111772 33:-0.112576 34:-0.208485 35:-0.170826 36:-0.308584 37:0.31239 38:-0.0422266 39:-0.0223167 40:-0.116338 41:-0.243278 42:0.0567155 43:0.0534511 44:-0.000313155 45:-0.134894 46:-0.0584531 47:-0.179194 48:0.158718 49:-0.138783 50:-0.0724765 51:0.136693 52:-0.151078 53:0.114897 54:-0.0258502 55:-0.000871665 56:-0.113327 57:-0.118728 58:0.230539 59:-0.146643 60:0.0201943 61:0.0466816 62:0.0392563 63:-0.077113 64:-0.077374 65:-0.152797 66:-0.17066 67:-0.0872874 68:0.0213219 69:0.0135378 70:-0.180799 71:-0.419019 72:-0.0193123 73:0.30213 74:0.0485255 75:-0.0879186 76:-0.0676252 77:-0.248591 78:0.1922 79:0.0650481 80:-0.0812831 81:-0.0146531 82:0.127719 83:0.00466017 84:-0.0347127 85:-0.0199726 86:-0.108675 87:-0.0695801 88:0.0754463 89:0.00858566 90:-0.0114564 91:-0.244252 92:0.0539447 93:0.181281 94:-0.104651 95:-0.189033 96:-0.118116 97:-0.0653494 98:0.138266 99:0.0415447 100:-0.0452563 
11243.9788226278 1:0.067104 2:0.356642 3:-0.126696 4:-0.0970747 5:-0.122903 6:-0.064916 7:0.361835 8:0.00795656 9:-0.00285101 10:-0.267152 11:0.142087 12:0.284926 13:0.000636083 14:0.0758085 15:-0.165842 16:0.135103 17:0.677704 18:0.0531523 19:0.00067867 20:0.00407462 21:0.262609 22:0.368626 23:0.318748 24:0.041356 25:0.0301663 26:0.0994372 27:-0.178853 28:0.167323 29:0.135471 30:-0.0192638 31:0.112575 32:0.0720438 33:0.226913 34:0.0582444 35:-0.0865024 36:-0.00472544 37:0.085028 38:0.103699 39:0.0580102 40:-0.0854599 41:-0.148291 42:-0.153165 43:0.122728 44:0.0291482 45:0.00189974 46:0.186974 47:0.220367 48:-0.084055 49:-0.0651886 50:-0.137999 51:-0.0744414 52:0.229083 53:-0.0889259 54:-0.089914 55:-0.0832141 56:-0.107805 57:0.302048 58:-0.0888191 59:-0.170942 60:0.0335862 61:-0.0187485 62:0.6868 63:0.272943 64:-0.135524 65:0.0211926 66:0.225905 67:0.283341 68:0.295487 69:-0.0964344 70:0.035561 71:0.0695245 72:0.190538 73:0.22009 74:-0.0644621 75:-0.0181129 76:-0.147308 77:-0.0398026 78:0.0797099 79:-0.0339946 80:-0.156354 81:-0.459222 82:0.0701587 83:0.0438546 84:-0.0261297 85:-0.0277027 86:-0.167531 87:-0.061804 88:0.294932 89:-0.0348211 90:0.0151762 91:0.0582078 92:0.251948 93:-0.263707 94:-0.0681369 95:-0.139278 96:0.00774097 97:0.287922 98:-0.218386 99:-0.0728854 100:-0.0978369 
13509.9281143927 1:0.256171 2:-0.0615794 3:-0.403327 4:-0.0577414 5:-0.0765393 6:0.115386 7:-0.0912633 8:-0.125973 9:-0.122509 10:-0.193652 11:-0.142658 12:-0.169517 13:-0.106493 14:-0.111033 15:-0.199222 16:-0.686664 17:-0.169897 18:-0.0410576 19:-0.314788 20:-0.320195 21:-0.742824 22:-0.103413 23:0.0255948 24:-0.136515 25:-0.171343 26:-0.954977 27:-0.0734497 28:-0.0667178 29:-0.188762 30:-0.153622 31:-1.14509 32:-0.31551 33:-0.270342 34:-0.0667918 35:-0.102912 36:-0.88668 37:-0.429873 38:-0.262147 39:-0.0736468 40:-0.131499 41:-0.428507 42:-0.327993 43:0.0401842 44:-0.0813603 45:-0.254662 46:0.193114 47:-0.25354 48:-0.423458 49:-0.0263316 50:-0.0578275 51:0.0627355 52:-0.145722 53:-0.25574 54:-0.136209 55:-0.24921 56:-0.233344 57:-0.0951615 58:-0.164714 59:-0.059151 60:-0.299904 61:-0.685805 62:-0.145976 63:-0.386663 64:-0.255716 65:-0.402251 66:-0.666532 67:-0.080605 68:-0.396366 69:-0.216663 70:-0.243537 71:-0.509627 72:-0.0800326 73:-0.412866 74:-0.20674 75:-0.143028 76:-0.948447 77:-0.12567 78:-0.230232 79:-0.107903 80:-0.194967 81:-0.700964 82:-0.33281 83:-0.407326 84:-0.061793 85:-0.106772 86:-0.27626 87:-0.354136 88:-0.365227 89:-0.150986 90:-0.147416 91:0.138977 92:-0.201576 93:-0.242717 94:-0.0896416 95:-0.0886232 96:0.0240317 97:-0.0784535 98:-0.176298 99:-0.256301 100:-0.2455 
13527.18425671369 1:-0.19894 2:-0.0233211 3:-0.055066 4:-0.230766 5:-0.0379328 6:0.331059 7:0.0467823 8:0.0263487 9:-0.194633 10:-0.0634518 11:-0.0141835 12:0.187854 13:-0.0280396 14:-0.0866279 15:-0.263137 16:0.0470784 17:-0.136686 18:0.0945711 19:-0.0293225 20:-0.305469 21:-0.0174303 22:-0.117498 23:0.0652536 24:-0.134147 25:-0.14377 26:-0.339717 27:0.0425398 28:-0.19846 29:-0.18376 30:-0.192557 31:0.608614 32:0.16732 33:-0.106573 34:-0.181255 35:-0.245645 36:1.11909 37:0.199732 38:0.0019217 39:-0.234285 40:-0.168891 41:1.00803 42:0.0423186 43:-0.197547 44:-0.215761 45:-0.0165759 46:-0.139829 47:0.130944 48:-0.0320203 49:-0.190748 50:-0.0322505 51:0.2507 52:0.200145 53:-0.058943 54:-0.138362 55:-0.00344311 56:-0.106372 57:0.239612 58:0.0205781 59:-0.00731851 60:-0.180243 61:0.00497035 62:-0.0601782 63:0.0246587 64:0.0410926 65:-0.235214 66:0.113387 67:-0.00874093 68:0.0437509 69:-0.0431354 70:-0.219446 71:-0.0931623 72:0.190926 73:-0.147908 74:-0.170458 75:-0.174444 76:0.393537 77:0.296827 78:-0.109273 79:-0.212656 80:-0.153856 81:0.875502 82:0.33787 83:-0.0661627 84:-0.10306 85:-0.185379 86:0.724068 87:0.031117 88:-0.0322859 89:-0.0956209 90:-0.188832 91:-0.0185849 92:0.0415573 93:-0.0953721 94:-0.14678 95:-0.0961782 96:0.286193 97:0.041736 98:-0.00350244 99:-0.0866222 100:-0.000141353 
3349.27417296727 1:-0.178975 2:0.0510403 3:-0.00810113 4:-0.0868509 5:-0.107794 6:-0.056002 7:0.195057 8:0.140105 9:-0.180367 10:-0.0509678 11:-0.156863 12:0.137046 13:-0.145897 14:0.00754851 15:-0.292502 16:-0.204094 17:0.02807 18:-0.149318 19:0.014752 20:-0.060461 21:-0.522782 22:-0.0273747 23:-0.107315 24:0.097799 25:-0.124411 26:-0.499775 27:-0.0038238 28:-0.223768 29:-0.019807 30:-0.233388 31:-0.0966639 32:-0.109774 33:-0.0221298 34:0.11748 35:-0.227604 36:-0.0713345 37:0.0641728 38:-0.0496869 39:0.00647021 40:-0.0442691 41:-0.0885275 42:0.397749 43:-0.173012 44:0.0327421 45:0.021038 46:-0.141569 47:0.0368812 48:-0.0558046 49:0.0955461 50:-0.116263 51:-0.0758737 52:0.0655129 53:0.180251 54:-0.0592798 55:-0.173247 56:-0.135367 57:0.0513901 58:0.0492107 59:-0.00324016 60:-0.142297 61:-0.459431 62:0.0467544 63:0.0593969 64:-0.0330345 65:-0.1129 66:-0.229675 67:0.036593 68:0.207132 69:0.0644672 70:-0.173937 71:-0.259671 72:-0.0306324 73:0.173176 74:0.0881855 75:-0.0962541 76:-0.200801 77:0.00384658 78:-0.0146145 79:0.112293 80:-0.0994233 81:-0.273729 82:-0.0646354 83:-0.0705534 84:0.0955649 85:-0.0773332 86:-0.271824 87:0.349119 88:0.302965 89:0.10523 90:-0.0371872 91:-0.316828 92:-0.0466836 93:0.0172667 94:0.0442667 95:-0.0944363 96:-0.149955 97:0.112968 98:0.106883 99:-0.0744748 100:-0.133145 
13377.75417765688 1:0.201367 2:0.0197791 3:-0.180687 4:0.0419416 5:-0.131706 6:0.281098 7:0.0153532 8:0.130735 9:0.140103 10:-0.078741 11:0.327113 12:0.238899 13:0.268806 14:-0.0396401 15:0.0526959 16:0.288173 17:0.255048 18:0.179607 19:-0.0824339 20:-0.0939707 21:-0.285015 22:0.15772 23:0.210873 24:-0.0442182 25:-0.0717904 26:-0.21516 27:-0.0837018 28:0.0704229 29:0.107971 30:-0.0439078 31:0.295368 32:-0.269798 33:0.246504 34:0.123126 35:-0.133892 36:-0.00438494 37:-0.217335 38:0.166369 39:0.0245877 40:-0.129734 41:0.0978528 42:-0.312282 43:0.111375 44:0.0443 45:-0.0575861 46:0.107288 47:0.0460664 48:0.154266 49:0.0147936 50:-0.203498 51:0.320071 52:0.0735132 53:0.399539 54:-0.0340355 55:-0.141897 56:0.107395 57:0.239998 58:0.495476 59:-0.134122 60:-0.0596021 61:0.151959 62:0.176445 63:0.260617 64:-0.0900155 65:-0.0481386 66:-0.326807 67:0.124487 68:0.231024 69:-0.118138 70:-0.0274227 71:-0.284096 72:0.0698273 73:0.138765 74:-0.181667 75:-0.0640576 76:-0.0151968 77:-0.0293595 78:0.385089 79:0.0108256 80:0.0111214 81:-0.186047 82:-0.0925148 83:0.0705073 84:0.00806044 85:0.0185094 86:-0.0300051 87:-0.213385 88:-0.0412551 89:-0.0443205 90:-0.119853 91:0.125291 92:0.0904622 93:-0.119001 94:0.0456388 95:-0.137259 96:0.310912 97:-0.056325 98:0.21807 99:-0.011376 100:-0.0900516 
13529.0872294483 1:0.0672653 2:0.191536 3:-0.0352132 4:0.0582131 5:-0.0935483 6:-0.21926 7:0.193361 8:-0.0362403 9:0.119241 10:-0.2981 11:-0.125711 12:-0.0103916 13:0.0853481 14:0.00355873 15:-0.174484 16:0.0366012 17:0.0921239 18:0.0944899 19:0.110808 20:0.0331636 21:-0.357447 22:-0.137197 23:-0.0339136 24:0.0705978 25:0.0794333 26:-0.437569 27:-0.297287 28:-0.352051 29:-0.0595271 30:0.032876 31:-0.199704 32:-0.246831 33:-0.212895 34:-0.00598524 35:0.0345725 36:-0.00953093 37:0.0385042 38:-0.0973222 39:0.0292207 40:0.0371924 41:-0.0514035 42:0.00696955 43:0.222025 44:-0.107285 45:0.0452327 46:0.00347163 47:0.0726408 48:0.045922 49:0.0887818 50:-0.152121 51:-0.36664 52:0.141148 53:0.0866064 54:0.108738 55:-0.153187 56:-0.268692 57:0.0193401 58:0.288737 59:0.0902592 60:0.0293979 61:0.114961 62:0.0418412 63:-0.0365836 64:0.0483767 65:-0.0112555 66:-0.303133 67:-0.333609 68:-0.0875767 69:-0.0068056 70:0.087785 71:-0.511732 72:-0.168799 73:-0.17963 74:0.00920568 75:-0.0151228 76:-0.0675444 77:-0.18474 78:-0.0226319 79:0.0249842 80:-0.133276 81:0.0161629 82:-0.0469214 83:0.0922652 84:-0.0100094 85:-0.195411 86:-0.11231 87:0.0356078 88:0.365794 89:-0.12275 90:-0.186039 91:0.00483271 92:0.0160333 93:-0.0296416 94:0.0196466 95:-0.28347 96:-0.681672 97:0.0270547 98:-0.196063 99:0.116586 100:-0.272243 
2850.301394331974 1:-0.128085 2:-0.0994029 3:0.036014 4:-0.101567 5:0.0152244 6:-0.513181 7:-0.0322692 8:0.118038 9:-0.210689 10:-0.0351388 11:0.0293852 12:-0.0328976 13:-0.317598 14:-0.272629 15:-0.16555 16:0.25927 17:0.0767606 18:-0.121092 19:-0.184404 20:-0.0674301 21:-0.0266359 22:0.101503 23:-0.205152 24:-0.0983484 25:-0.09262 26:-0.0773071 27:0.139847 28:-0.223153 29:-0.15132 30:-0.0861048 31:0.276404 32:0.176262 33:-0.239999 34:-0.0359506 35:-0.23023 36:0.14209 37:-0.390241 38:-0.316005 39:-0.079993 40:-0.0808717 41:-0.324592 42:-0.163589 43:-0.120441 44:-0.101174 45:0.0284411 46:-0.515747 47:-0.113465 48:-0.169706 49:-0.141409 50:0.250004 51:-0.620759 52:-0.107739 53:0.104643 54:-0.179536 55:0.109104 56:0.115697 57:-0.238736 58:-0.0540832 59:-0.295786 60:0.0598472 61:0.228224 62:0.0429473 63:0.087614 64:-0.133579 65:0.0859324 66:-0.0996621 67:0.155392 68:0.0376265 69:-0.000145197 70:0.00652044 71:0.0200143 72:0.29822 73:-0.12886 74:-0.0433926 75:-0.0221093 76:0.290941 77:0.47367 78:-0.106656 79:0.0377037 80:0.0255445 81:0.2373 82:-0.0748093 83:-0.41402 84:-0.0403257 85:0.225412 86:-0.242917 87:-0.0490736 88:-0.137736 89:-0.0500949 90:0.132504 91:-0.327415 92:-0.0451543 93:0.0150623 94:-0.0452699 95:0.240823 96:-0.188234 97:-0.153249 98:0.187969 99:-0.0962798 100:0.100001 
13529.0872294483 1:0.0577308 2:-0.109857 3:0.0201293 4:0.00784124 5:0.130758 6:0.0474105 7:-0.0087952 8:0.0060147 9:0.0423631 10:0.15407 11:0.154226 12:0.0528934 13:-0.11126 14:0.0411828 15:0.273367 16:-0.0622231 17:-0.220469 18:-0.210482 19:0.102928 20:0.364718 21:-0.383237 22:-0.238226 23:-0.110061 24:0.09412 25:0.291514 26:-0.386406 27:-0.0406764 28:0.00261967 29:-0.140456 30:0.224437 31:-0.406907 32:-0.282972 33:-0.118246 34:-0.00428748 35:0.210233 36:-0.554737 37:-0.0461375 38:-0.142882 39:-0.0833372 40:0.203103 41:-0.398319 42:-0.326665 43:0.105837 44:-0.133935 45:0.25683 46:0.163598 47:-0.219045 48:-0.0713208 49:0.164599 50:0.218242 51:0.165597 52:0.0216474 53:-0.00766627 54:0.112142 55:0.227245 56:0.0429032 57:-0.0196901 58:0.0852535 59:0.256761 60:0.428741 61:-0.155805 62:-0.20707 63:0.0931916 64:0.280276 65:0.5575 66:-0.519866 67:-0.297896 68:0.096559 69:0.250031 70:0.390629 71:-0.341333 72:-0.273882 73:0.174756 74:0.050803 75:0.364242 76:-0.225582 77:-0.234341 78:0.06295 79:0.153274 80:0.442332 81:-0.0800807 82:0.0127416 83:0.153134 84:0.239644 85:0.31935 86:-0.305066 87:-0.273883 88:0.300465 89:0.243561 90:0.416563 91:0.150973 92:-0.0668662 93:0.0625025 94:0.127437 95:0.183869 96:0.116178 97:-0.0194263 98:0.121446 99:0.118374 100:0.206006 
13529.0872294483 1:0.18126 2:-0.253775 3:0.200661 4:-0.135292 5:-0.10634 6:0.118708 7:0.0489407 8:0.0140853 9:-0.098905 10:-0.0979889 11:-0.0251976 12:0.0559631 13:-0.241744 14:-0.146977 15:-0.211981 16:0.290469 17:-0.170215 18:0.0489883 19:-0.17356 20:-0.187498 21:-0.0168264 22:-0.00337 23:-0.0184091 24:-0.258894 25:-0.22579 26:0.0208371 27:0.187602 28:0.0244534 29:-0.213086 30:-0.292721 31:0.185434 32:0.242941 33:0.114577 34:-0.113523 35:-0.307793 36:0.104137 37:-0.0122424 38:-0.00474848 39:-0.0311216 40:-0.328685 41:0.184394 42:-0.15857 43:-0.398024 44:-0.132778 45:-0.288269 46:-0.0673307 47:-0.258782 48:-0.174518 49:-0.0900633 50:-0.185807 51:-0.274449 52:-0.0629294 53:-0.372379 54:-0.138077 55:-0.186495 56:-0.290119 57:0.0367338 58:-0.269841 59:-0.052429 60:-0.206676 61:0.0478245 62:-0.154815 63:0.0219222 64:-0.162515 65:-0.128169 66:-0.256031 67:-0.0361325 68:-0.0534829 69:-0.293641 70:-0.143679 71:-0.315695 72:0.099923 73:-0.173744 74:-0.20696 75:-0.149267 76:-0.350363 77:0.113899 78:-0.0218213 79:-0.18132 80:-0.184525 81:-0.070121 82:-0.0124057 83:-0.0414923 84:-0.131342 85:-0.183479 86:-0.162471 87:0.0265477 88:-0.293472 89:-0.271898 90:-0.354744 91:-0.0395904 92:-0.222383 93:0.0526732 94:-0.155194 95:-0.0988834 96:-0.141844 97:-0.0437365 98:-0.23455 99:-0.206418 100:-0.068458 
11992.47141837142 1:-0.582831 2:-0.356121 3:-0.373377 4:-0.203559 5:-0.0499892 6:-0.647012 7:-0.548245 8:-0.392842 9:-0.353102 10:-0.107253 11:-0.360029 12:-0.180522 13:-0.330501 14:-0.130385 15:-0.068845 16:-0.700773 17:0.134221 18:-0.0608613 19:0.0235847 20:-0.069485 21:-0.774429 22:-0.274062 23:-0.613989 24:-0.220875 25:-0.0572171 26:-0.887987 27:-0.233266 28:-0.66308 29:-0.249168 30:-0.109085 31:-0.593296 32:-0.168413 33:-0.0463563 34:-0.303139 35:-0.0932943 36:-0.447654 37:-0.141921 38:0.0469062 39:-0.277243 40:-0.179426 41:-0.622807 42:-0.00898029 43:-0.112527 44:-0.195379 45:-0.190119 46:-0.337661 47:-0.32555 48:-0.0803665 49:-0.329039 50:-0.111796 51:-0.342722 52:-0.293651 53:-0.283802 54:-0.312187 55:-0.134771 56:-0.0782844 57:-0.0173501 58:-0.0474487 59:-0.194369 60:-0.139959 61:-0.38097 62:0.154169 63:0.0804324 64:-0.091366 65:-0.0532736 66:-0.596776 67:-0.115119 68:-0.268119 69:-0.332471 70:-0.042136 71:-0.442851 72:-0.091684 73:-0.218967 74:-0.364849 75:-0.183502 76:-0.409109 77:-0.0887058 78:-0.0321087 79:-0.411136 80:-0.111741 81:-0.239003 82:-0.128827 83:-0.010977 84:-0.498161 85:-0.180127 86:-0.534065 87:-0.0381649 88:-0.218127 89:-0.251122 90:-0.233485 91:-0.356408 92:-0.143164 93:-0.217041 94:-0.121597 95:0.00956449 96:-0.269605 97:-0.292155 98:-0.294769 99:-0.060842 100:0.00078407 
12132.04291117547 1:-0.280558 2:-0.211477 3:-0.0587707 4:-0.0576952 5:-0.0312069 6:0.196089 7:-0.32405 8:-0.105882 9:-0.231858 10:-0.0910256 11:-0.0272474 12:0.0645502 13:0.119798 14:-0.136618 15:0.0109168 16:-0.385425 17:-0.184178 18:-0.200436 19:-0.160542 20:-0.0533019 21:-0.21994 22:-0.257074 23:-0.490522 24:-0.126016 25:-0.142057 26:-0.184773 27:-0.498035 28:-0.310223 29:-0.12697 30:-0.120974 31:0.0262929 32:-0.281566 33:-0.357029 34:0.0230548 35:-0.136558 36:0.154947 37:-0.0496461 38:-0.542982 39:-0.249251 40:-0.127337 41:0.122633 42:-0.16217 43:-0.201227 44:-0.0505953 45:-0.154028 46:-0.306005 47:-0.304824 48:-0.142038 49:-0.151602 50:-0.141658 51:-0.0465952 52:-0.31461 53:-0.149706 54:-0.143709 55:-0.0598286 56:-0.301923 57:-0.191008 58:0.167496 59:-0.0397351 60:-0.0800786 61:-0.226667 62:-0.265359 63:-0.197957 64:-0.120636 65:-0.0839058 66:-0.0817808 67:-0.373403 68:-0.295718 69:-0.193304 70:0.0366738 71:-0.280009 72:-0.085992 73:-0.331735 74:-0.175676 75:0.00370482 76:0.0286812 77:-0.128975 78:-0.252397 79:-0.0512268 80:-0.0235756 81:0.169448 82:-0.021953 83:-0.162001 84:-0.128542 85:-0.0976635 86:-0.0207795 87:-0.0289483 88:0.107816 89:-0.0252508 90:-0.183521 91:-0.252586 92:-0.16718 93:-0.114281 94:-0.106517 95:-0.168568 96:-0.0126081 97:-0.151053 98:-0.363487 99:-0.109155 100:-0.11654 
13529.0872294483 1:0.220741 2:0.00816786 3:0.0475856 4:-0.00927021 5:0.057486 6:-0.0183704 7:0.11447 8:-0.0367976 9:-0.0150043 10:-0.0212147 11:0.000413695 12:0.142283 13:0.0315375 14:0.0914352 15:0.0136337 16:0.0215604 17:0.00365016 18:0.0931108 19:0.00143623 20:0.0363359 21:0.602704 22:0.216557 23:0.0347197 24:0.00667547 25:0.0331513 26:0.642415 27:0.00232573 28:-0.0303672 29:-0.0447981 30:0.191149 31:0.849562 32:0.0974612 33:-0.260272 34:0.210666 35:0.275905 36:0.772998 37:-0.119958 38:-0.0568974 39:0.219271 40:0.155061 41:0.369902 42:-0.0661002 43:0.212081 44:0.102383 45:-0.00135485 46:0.309623 47:-0.010895 48:-0.0869869 49:0.14204 50:-0.0428908 51:0.0609239 52:0.0337749 53:-0.0917627 54:-0.0574766 55:-0.194768 56:-0.103943 57:0.0581281 58:0.0483481 59:0.0207158 60:-0.173197 61:0.195031 62:0.0143568 63:0.0557092 64:0.0331877 65:-0.188041 66:0.425078 67:0.0648022 68:-0.0763611 69:-0.0373183 70:-0.125763 71:0.471081 72:0.180929 73:0.0108246 74:0.0641113 75:-0.112223 76:0.448089 77:-0.123189 78:0.00602845 79:0.247586 80:-0.0812666 81:0.395217 82:-0.0872238 83:0.295296 84:0.0714544 85:-0.0740019 86:0.168519 87:-0.186681 88:0.261434 89:-0.0178919 90:0.0238422 91:0.252989 92:0.0551279 93:0.102794 94:0.194794 95:-0.0375538 96:0.210048 97:0.257619 98:0.094384 99:0.0494022 100:-0.147428 
6639.169165269927 1:-0.0335317 2:-0.13904 3:0.113618 4:0.08654 5:0.0870703 6:0.0117981 7:-0.0646935 8:0.0240676 9:0.0819625 10:0.0639882 11:0.089526 12:-0.132667 13:-0.178726 14:0.0412317 15:0.132896 16:-0.0616967 17:-0.481847 18:-0.0506737 19:-0.144256 20:0.0324733 21:0.0588092 22:-0.27675 23:0.0189789 24:-0.265547 25:-0.0747727 26:-0.186707 27:-0.0455967 28:-0.10125 29:-0.128916 30:-0.00898492 31:-0.0532766 32:0.0589871 33:0.104694 34:-0.0656069 35:-0.0615213 36:-0.117213 37:0.0144322 38:-0.386072 39:-0.0455683 40:-0.15132 41:-0.0751342 42:-0.189109 43:-0.341036 44:-0.152438 45:-0.120516 46:-0.275147 47:-0.242258 48:0.149617 49:0.0455972 50:0.0937548 51:0.15829 52:0.0932359 53:0.176018 54:-0.00618657 55:0.0548493 56:0.0503416 57:0.0456201 58:0.187571 59:0.0749705 60:0.0503458 61:-0.0842539 62:-0.152483 63:0.183071 64:0.0192909 65:-0.0185726 66:0.0214899 67:-0.356351 68:0.180781 69:-0.0988449 70:-0.0920928 71:-0.229218 72:-0.158377 73:-0.190714 74:-0.164055 75:-0.152406 76:-0.496723 77:0.0352634 78:0.0196895 79:-0.281129 80:-0.220382 81:-0.218211 82:-0.119797 83:-0.238509 84:-0.237038 85:-0.137263 86:0.156398 87:-0.311032 88:-0.232779 89:-0.183619 90:-0.142104 91:-0.0312275 92:-0.199626 93:0.13151 94:0.158956 95:0.206677 96:0.18275 97:0.128532 98:0.119419 99:-0.00344397 100:0.0805194 
12429.18799505657 1:0.153205 2:0.1993 3:0.0131197 4:0.0872861 5:-0.104071 6:0.0204117 7:0.175215 8:-0.0545339 9:0.0498242 10:-0.0467424 11:0.0170102 12:0.133403 13:0.133443 14:0.067423 15:-0.0402815 16:-0.169125 17:0.0382531 18:-0.251823 19:-0.00674396 20:-0.04887 21:-0.188623 22:-0.0804396 23:-0.0459556 24:-0.119823 25:-0.0122624 26:0.168376 27:0.276183 28:0.0840829 29:-0.189034 30:-0.0968337 31:0.0620293 32:0.198546 33:0.126639 34:-0.106139 35:-0.0619995 36:-0.0259902 37:-0.0340374 38:-0.444434 39:-0.100284 40:-0.105566 41:-0.156476 42:0.0923521 43:0.0276746 44:-0.00473214 45:-0.103697 46:0.214745 47:-0.0414042 48:-0.293028 49:0.0337447 50:-0.231252 51:0.124454 52:0.188549 53:-0.151276 54:0.00186137 55:-0.173774 56:0.127232 57:-0.0145805 58:0.0901412 59:0.065682 60:-0.0968885 61:0.182607 62:-0.0803717 63:-0.15285 64:-0.103949 65:-0.13372 66:0.0109445 67:-0.0599737 68:-0.180505 69:0.0134542 70:-0.114608 71:0.238679 72:0.220976 73:0.0539218 74:0.0337102 75:-0.239671 76:-0.0126562 77:0.22554 78:-0.0194513 79:-0.0612596 80:-0.117776 81:0.122043 82:0.107218 83:-0.29683 84:-0.0435563 85:-0.0995039 86:-0.204427 87:0.317863 88:-0.132133 89:0.00459089 90:-0.0809931 91:0.156762 92:0.360418 93:-0.0951192 94:-0.126736 95:-0.176202 96:0.0103683 97:0.339065 98:-0.0268742 99:-0.0207047 100:-0.159513 
2171.82427167419 1:-0.0485084 2:0.318131 3:0.197034 4:-0.0914095 5:-0.107269 6:0.0671265 7:0.295917 8:0.118975 9:0.0154837 10:-0.0391452 11:0.080333 12:0.352184 13:0.174823 14:-0.047701 15:-0.00281298 16:0.140189 17:0.15793 18:0.186781 19:-0.089259 20:-0.0213975 21:-0.197917 22:0.0142944 23:0.204247 24:-0.126767 25:-0.100455 26:-0.321691 27:0.266658 28:0.332951 29:-0.152569 30:-0.112655 31:-0.408422 32:0.163778 33:0.264317 34:-0.0291927 35:-0.0384426 36:0.0236249 37:-0.0265154 38:0.0534686 39:-0.0491443 40:-0.0308796 41:0.180054 42:-0.233787 43:0.151601 44:-0.135857 45:-0.20633 46:-0.0577453 47:0.169108 48:0.136413 49:0.0084323 50:0.0780663 51:-0.218786 52:0.243233 53:-0.260623 54:-0.0673384 55:-0.0100695 56:-0.409585 57:-0.0316553 58:-0.120997 59:-0.0424053 60:-0.0175958 61:-0.322434 62:-0.207815 63:-0.00561152 64:-0.00367677 65:0.0416215 66:-0.0940832 67:-0.0484801 68:-0.134735 69:-0.15705 70:-0.0944488 71:-0.503453 72:-0.00864129 73:0.134481 74:-0.112699 75:-0.0870791 76:-0.540323 77:0.0431016 78:-0.0869782 79:-0.0556076 80:-0.148691 81:-0.310685 82:-0.0929724 83:-0.0851773 84:-0.041152 85:-0.189143 86:-0.0310474 87:-0.0378181 88:0.00606233 89:-0.157314 90:-0.183775 91:-0.0911468 92:0.153174 93:-0.00977544 94:0.044838 95:0.114554 96:0.0207912 97:0.25147 98:-0.234991 99:-0.0237654 100:0.0549577 
12520.23422212399 1:-0.0784548 2:0.0350383 3:-0.0863974 4:0.0491001 5:-0.126603 6:-0.00483191 7:0.0815673 8:-0.00760839 9:0.0708553 10:-0.087782 11:0.192657 12:0.083741 13:0.201319 14:0.0231843 15:-0.124429 16:0.453923 17:0.0929083 18:0.110884 19:0.0124393 20:-0.088107 21:0.457676 22:-0.128161 23:0.0968862 24:-0.00695239 25:-0.0539361 26:0.282746 27:0.135239 28:0.272699 29:0.110934 30:-0.10082 31:0.185271 32:0.259404 33:0.352027 34:-0.178401 35:-0.116288 36:0.228824 37:0.195298 38:0.228161 39:-0.222279 40:-0.212262 41:0.0969529 42:-0.120216 43:0.110248 44:-0.0110547 45:-0.148161 46:-0.0518844 47:-0.120095 48:-0.0366159 49:-0.167676 50:-0.0191222 51:-0.0440156 52:-0.145436 53:-0.110084 54:-0.0820507 55:-0.0540248 56:0.389755 57:-0.0275804 58:-0.0557021 59:-0.049749 60:-0.0363841 61:0.425592 62:0.0733233 63:0.130295 64:0.109021 65:-0.0307952 66:0.236998 67:-0.0960769 68:-0.272427 69:0.0113683 70:0.0109018 71:0.101375 72:-0.148422 73:0.0591684 74:0.0189984 75:-0.0415567 76:0.0341214 77:0.0190308 78:0.271607 79:-0.00392496 80:-0.101062 81:0.179661 82:-0.0133423 83:0.308931 84:0.0233295 85:-0.0302864 86:0.245415 87:-0.317515 88:-0.0699989 89:-0.051879 90:0.0292494 91:-0.0736276 92:0.0503938 93:0.137594 94:-0.109274 95:0.040436 96:-0.468294 97:0.0114449 98:0.173139 99:-0.0996986 100:-0.0485602 
13208.81515495786 1:-0.0503775 2:-0.22711 3:-0.104271 4:-0.218062 5:-0.0797784 6:0.158661 7:-0.0912566 8:-0.0846459 9:-0.105631 10:-0.0444165 11:0.374325 12:-0.00450687 13:-0.114004 14:0.158042 15:-0.0477075 16:0.203565 17:-0.309129 18:-0.0715944 19:0.128945 20:-0.0586488 21:0.1013 22:-0.315694 23:-0.137424 24:0.0337126 25:-0.122035 26:0.0560877 27:-0.288362 28:-0.202821 29:-0.0421406 30:-0.0791971 31:-0.0384031 32:-0.344561 33:-0.209605 34:0.0423889 35:-0.0819774 36:-0.198942 37:-0.250052 38:0.106137 39:-0.0303132 40:-0.140021 41:-0.199443 42:-0.299591 43:-0.0247449 44:0.0247756 45:-0.0401684 46:-0.0517137 47:-0.198934 48:-0.121604 49:-0.206044 50:-0.0252434 51:0.0137379 52:-0.122042 53:-0.436483 54:-0.0652372 55:-0.0336995 56:0.16893 57:-0.0711257 58:-0.321252 59:0.0636715 60:-0.0365384 61:0.0484218 62:-0.195907 63:0.0468051 64:0.0333889 65:-0.100786 66:-0.195234 67:-0.200617 68:-0.204177 69:0.0825668 70:-0.118815 71:0.0865837 72:-0.256267 73:-0.230546 74:0.0822824 75:-0.159112 76:-0.330877 77:-0.426637 78:-0.214321 79:-0.0141747 80:0.0490172 81:-0.700479 82:-0.362146 83:-0.130538 84:-0.133316 85:-0.116489 86:-0.6561 87:-0.191593 88:-0.149454 89:-0.23314 90:-0.041576 91:-0.172797 92:-0.0874596 93:-0.206286 94:-0.164667 95:-0.034642 96:0.0528214 97:-0.0882078 98:-0.441329 99:-0.0483572 100:-0.137833 
1529.958624747032 1:-0.263542 2:-0.225745 3:-0.168479 4:-0.156195 5:-0.120996 6:-0.370161 7:-0.0987079 8:0.132285 9:-0.0178391 10:0.0655319 11:-0.146202 12:-0.0177087 13:0.303594 14:-0.0742005 15:-0.214038 16:-0.100084 17:0.0757607 18:0.193421 19:-0.258413 20:-0.136933 21:-0.112449 22:0.110836 23:0.0787475 24:-0.261229 25:-0.0167201 26:0.121218 27:0.215632 28:-0.0412905 29:-0.21401 30:-0.0313495 31:0.145958 32:-0.0359914 33:-0.0699091 34:-0.0279882 35:-0.0541447 36:-0.0818619 37:0.0473747 38:0.134638 39:-0.203513 40:-0.0414249 41:0.203684 42:0.190889 43:0.324661 44:-0.233946 45:6.12605e-05 46:-0.125815 47:-0.209073 48:-0.324667 49:-0.0905191 50:-0.0503486 51:-0.0233794 52:-0.247948 53:-0.107371 54:0.0588418 55:0.064969 56:-0.300713 57:-0.265279 58:0.323399 59:0.00436957 60:0.0130233 61:-0.0106493 62:-0.106973 63:0.173134 64:-0.0623845 65:-0.0917767 66:0.127912 67:-0.154828 68:0.0487678 69:-0.089084 70:-0.106343 71:0.130488 72:0.117306 73:0.00156578 74:-0.117947 75:-0.172483 76:0.0742171 77:0.0875966 78:-0.0219541 79:-0.113386 80:-0.0349432 81:-0.0619655 82:0.0782152 83:0.15309 84:-0.16626 85:0.0166799 86:0.162452 87:0.208983 88:0.22435 89:-0.131815 90:-0.00215344 91:-0.0634199 92:0.00721251 93:-0.237719 94:-0.123006 95:-0.114875 96:-0.074612 97:0.0913751 98:0.0790266 99:0.0527575 100:0.0450494 
4661.464703393705 1:-0.121306 2:-0.195103 3:0.21033 4:0.0113807 5:-0.046325 6:0.16622 7:0.231887 8:0.369221 9:-0.0290962 10:-0.0443874 11:0.240531 12:0.138428 13:0.060662 14:-0.0789078 15:-0.0540144 16:0.274689 17:0.0417384 18:-0.00299516 19:-0.0734831 20:-0.049638 21:0.179404 22:0.125955 23:0.287074 24:0.0362649 25:-0.153873 26:-0.0368421 27:-0.133315 28:0.28154 29:-0.11547 30:-0.110451 31:-0.016393 32:-0.176775 33:-0.0999785 34:-0.118348 35:-0.125303 36:-0.0806694 37:0.0464417 38:0.161742 39:-0.0233561 40:-0.110669 41:-0.143027 42:0.167805 43:0.346885 44:0.0799652 45:-0.0311968 46:0.00649091 47:-0.0591234 48:0.098385 49:-0.0975389 50:0.0536385 51:-0.300647 52:0.010385 53:0.159569 54:-0.233272 55:0.0504655 56:-0.187123 57:0.116812 58:0.116329 59:-0.243463 60:0.0649964 61:0.158021 62:0.0899883 63:0.273001 64:0.0030543 65:0.00515498 66:0.180721 67:-0.198002 68:0.174211 69:0.0400306 70:-0.0910682 71:-0.150799 72:-0.391054 73:0.251375 74:-0.116463 75:-0.204132 76:0.00791591 77:-0.168525 78:0.0758047 79:-0.0447513 80:-0.162647 81:-0.229984 82:-0.166125 83:0.199719 84:-0.0624143 85:0.00574582 86:-0.520366 87:-0.01607 88:0.117878 89:-0.0608594 90:0.0105492 91:0.218995 92:-0.106108 93:0.139254 94:-0.0302992 95:-0.000657753 96:-0.0269232 97:0.0178797 98:0.239386 99:-0.0683863 100:-0.0205698 
8572.35870105381 1:-0.143409 2:-0.337771 3:-0.0230202 4:-0.286276 5:-0.070948 6:0.0385642 7:-0.129221 8:-0.066078 9:-0.0231161 10:0.0618634 11:-0.285859 12:-0.138773 13:0.115645 14:0.0800597 15:0.0447873 16:-0.273332 17:-0.134923 18:0.111519 19:-0.0745116 20:0.0631158 21:-0.249579 22:-0.0331196 23:0.00938963 24:-0.129368 25:0.0224266 26:-0.0186867 27:0.0479943 28:-0.0226333 29:-0.142946 30:0.0995595 31:-0.430706 32:0.0677117 33:0.0683162 34:-0.0394899 35:0.0963716 36:-0.238083 37:0.0452378 38:-0.0862816 39:-0.112627 40:0.0602458 41:0.0247324 42:0.0474221 43:-0.520003 44:-0.0274307 45:0.0995196 46:-0.103472 47:-0.297144 48:0.0256038 49:-0.11707 50:0.0159991 51:0.216074 52:-0.0313001 53:-0.11227 54:-0.046188 55:0.0702783 56:-0.0941317 57:-0.0280651 58:0.203925 59:0.0342877 60:0.0520792 61:-0.107559 62:-0.081032 63:0.151185 64:-0.0197035 65:-0.0338199 66:-0.36345 67:-0.0312886 68:-0.173111 69:-0.00596916 70:-0.0379944 71:-0.109193 72:0.0729729 73:-0.00700553 74:-0.109914 75:0.0202903 76:-0.204079 77:0.017664 78:0.2275 79:0.000787303 80:0.124591 81:-0.200326 82:-0.062126 83:0.0387621 84:-0.038008 85:0.0849703 86:-0.185647 87:-0.0120881 88:-0.211848 89:-0.000945272 90:0.00725285 91:-0.369717 92:-0.323986 93:0.186189 94:-0.0920095 95:0.0527113 96:-0.133254 97:-0.04277 98:-0.0015677 99:-0.0246062 100:0.0123535 
12017.31375957879 1:-0.521554 2:-0.564394 3:0.171824 4:0.034292 5:-0.0583898 6:-0.33504 7:-0.488841 8:0.0260444 9:0.0215032 10:-0.0615535 11:-0.0183645 12:-0.0870245 13:-0.0145976 14:0.0141669 15:-0.0890968 16:0.0654612 17:0.0823928 18:-0.0901009 19:0.00574174 20:0.10603 21:-0.0531743 22:0.15927 23:-0.0615129 24:-0.102726 25:-0.0922031 26:0.171467 27:0.0765162 28:-0.294495 29:-0.203684 30:-0.0689413 31:-0.081586 32:0.174877 33:-0.0518003 34:-0.159786 35:0.0232608 36:-0.289078 37:0.0879856 38:-0.417889 39:-0.21147 40:-0.0226714 41:-0.238214 42:0.0297697 43:-0.0102641 44:0.0430132 45:0.0351377 46:-0.0566549 47:-0.201525 48:-0.075434 49:-0.117955 50:-0.0360455 51:-0.241859 52:-0.424021 53:-0.0812734 54:-0.0309927 55:-0.0636719 56:-0.299224 57:-0.040215 58:-0.259267 59:-0.0372968 60:-0.0652036 61:-0.37245 62:-0.0495342 63:-0.297379 64:-0.0683859 65:0.0608737 66:-0.0729548 67:-0.0623887 68:-0.203644 69:-0.0044123 70:-0.12745 71:0.041076 72:-0.069901 73:-0.261844 74:-0.0706233 75:-0.112811 76:-0.22086 77:0.0123087 78:-0.0422018 79:-0.0956344 80:-0.112509 81:-0.00207381 82:0.0144842 83:-0.0291108 84:-0.0308906 85:-0.0422388 86:0.00105919 87:-0.0411122 88:-0.0605363 89:-0.0653905 90:-0.0304431 91:-0.16901 92:-0.630418 93:-0.278435 94:-0.0137746 95:-0.0377094 96:-0.330234 97:-0.505952 98:-0.127994 99:0.00318522 100:-0.0344001 
13333.9924071849 1:0.288914 2:0.139987 3:-0.00663498 4:0.0412773 5:-0.0995294 6:0.137987 7:0.41002 8:0.159248 9:0.0632155 10:-0.0496026 11:0.265333 12:0.434751 13:0.0109556 14:0.000167231 15:0.0153274 16:0.342449 17:0.0303197 18:0.130886 19:-0.0239779 20:-0.0960191 21:0.46854 22:0.105287 23:-0.037643 24:0.0822283 25:-0.188549 26:0.448642 27:-0.137062 28:-0.0280891 29:-0.0604739 30:-0.0364629 31:0.604067 32:0.124494 33:0.0188006 34:-0.0911161 35:-0.0933081 36:0.442951 37:-0.0145732 38:-0.24289 39:0.0321188 40:-0.0442635 41:0.123595 42:-0.0846057 43:-0.131049 44:0.00370931 45:-0.0659558 46:0.0218857 47:0.020425 48:0.0877095 49:-0.0253215 50:-0.276872 51:-0.00537423 52:0.40671 53:0.334425 54:0.164025 55:-0.235378 56:0.257615 57:0.432077 58:0.147404 59:0.0827178 60:-0.0886035 61:0.279005 62:-0.16413 63:-0.0311168 64:0.0623617 65:0.0216245 66:0.357362 67:0.152938 68:0.244699 69:0.120964 70:0.00760616 71:0.297171 72:0.0714111 73:0.237924 74:0.065755 75:0.0655595 76:0.203636 77:0.313215 78:0.0346914 79:0.00256228 80:-0.0306601 81:0.0846973 82:0.0538894 83:-0.291611 84:-0.0507153 85:-0.031396 86:0.107461 87:0.103498 88:-0.00664296 89:0.0229735 90:-0.131603 91:-0.0160294 92:-0.0221438 93:0.121471 94:-0.0011594 95:-0.277359 96:0.0645275 97:0.313913 98:0.451865 99:0.124501 100:-0.256155 
8804.052072833576 1:0.26877 2:0.138794 3:-0.170256 4:-0.061282 5:-0.160991 6:-0.161101 7:0.309261 8:-0.171687 9:0.0347819 10:-0.109708 11:0.137265 12:0.298592 13:-0.0222608 14:-0.00577287 15:-0.161721 16:0.110009 17:0.196539 18:-0.294387 19:-0.0885496 20:-0.039925 21:0.0761417 22:0.300046 23:-0.26109 24:-0.044584 25:-0.0528989 26:0.154592 27:0.26232 28:-0.0282495 29:-0.12107 30:-0.0875351 31:-0.00633664 32:0.251992 33:-0.290372 34:-0.110863 35:-0.167361 36:-0.0854675 37:0.358426 38:-0.267666 39:-0.204061 40:-0.222672 41:0.180001 42:0.330951 43:-0.550093 44:0.00420512 45:0.0237047 46:0.124357 47:-0.169248 48:-0.174626 49:-0.090104 50:-0.180805 51:-0.110962 52:0.109056 53:-0.202277 54:0.0216484 55:-0.0243422 56:0.030396 57:-0.0110297 58:-0.341086 59:-0.0540169 60:-0.129746 61:-0.20029 62:-0.179276 63:-0.364812 64:0.0557286 65:0.0206921 66:-0.152515 67:0.000984655 68:-0.0369077 69:0.0510761 70:-0.0236819 71:0.0905472 72:0.0154554 73:-0.0943921 74:-0.0647514 75:0.0117065 76:0.0700316 77:-0.0926672 78:-0.14504 79:-0.0599345 80:-0.107896 81:-0.117115 82:-0.0720373 83:-0.248919 84:-0.192689 85:-0.168421 86:0.0232354 87:0.142275 88:-0.105161 89:-0.00772987 90:0.010645 91:0.206478 92:-0.0862867 93:-0.145979 94:-0.0527582 95:-0.17561 96:0.122466 97:0.0963876 98:-0.048 99:-0.0322501 100:-0.0158874 
128.9102656699139 1:0.00906803 2:-0.174445 3:0.0365385 4:0.13484 5:0.0681742 6:0.0907146 7:0.0251562 8:0.00672036 9:0.0556943 10:0.010255 11:-0.170644 12:0.291318 13:0.151202 14:0.0394281 15:0.0806717 16:0.153508 17:0.187358 18:0.152013 19:0.1057 20:-0.0507038 21:0.122053 22:0.409454 23:0.19575 24:-0.162154 25:-0.0338995 26:0.117313 27:0.158582 28:0.0505944 29:-0.138726 30:-0.0475486 31:0.176479 32:0.228774 33:0.259185 34:-0.034579 35:0.0895682 36:0.314556 37:0.116276 38:0.0447093 39:-0.0261167 40:0.166429 41:-0.127663 42:-0.100421 43:-0.0531857 44:-0.079268 45:0.116119 46:0.203808 47:-0.0464676 48:0.128317 49:-0.0400886 50:0.0207148 51:0.0854422 52:0.199162 53:-0.0564727 54:-0.154971 55:-0.0122621 56:0.00478593 57:0.521011 58:-0.031189 59:-0.0311564 60:-0.0883649 61:0.0141177 62:0.379836 63:0.27386 64:-0.0183309 65:-0.127498 66:-0.012342 67:0.379826 68:-0.0529272 69:-0.180721 70:-0.00321872 71:-0.242058 72:0.304327 73:0.0538479 74:-0.00129867 75:0.0161441 76:-0.00324833 77:0.35359 78:0.00828442 79:0.0890794 80:0.070339 81:0.144705 82:0.293029 83:0.0963966 84:-0.0125256 85:-0.0224832 86:-0.176992 87:0.0924035 88:0.0384669 89:0.00900703 90:0.0370528 91:0.242286 92:-0.12373 93:0.0403839 94:0.0157883 95:0.0178012 96:0.0606077 97:-0.0393981 98:-0.0781239 99:-0.121484 100:-0.0443685 
13222.29392465935 1:0.273865 2:0.0167884 3:-0.268705 4:-0.00636116 5:0.0947266 6:0.0532565 7:0.151428 8:-0.181426 9:0.0828974 10:0.0189942 11:0.0330586 12:0.183056 13:-0.068321 14:0.0538376 15:-0.0795835 16:-0.0651365 17:0.110256 18:-0.368097 19:-0.0675223 20:0.0456479 21:0.0410971 22:0.0903901 23:-0.462169 24:-0.0786255 25:-0.0194657 26:-0.00151937 27:0.0221053 28:-0.0767998 29:0.0104528 30:0.0532221 31:0.0027463 32:0.0750972 33:-0.200909 34:-0.0976139 35:0.0684327 36:0.616134 37:0.166974 38:-0.210287 39:-0.181817 40:0.155498 41:0.334562 42:0.0899444 43:-0.4094 44:-0.285109 45:0.0768398 46:0.243665 47:-0.181927 48:-0.257967 49:0.00131105 50:0.0640117 51:-0.00675958 52:-0.00131081 53:-0.179455 54:0.0624719 55:-0.058962 56:-0.161093 57:-0.0420421 58:-0.119754 59:0.0826315 60:-0.0648367 61:-0.181182 62:-0.0939468 63:-0.186555 64:-0.0698887 65:-0.0752221 66:0.0949193 67:-0.209925 68:-0.31467 69:-0.117474 70:-0.0417017 71:0.0880558 72:-0.248703 73:-0.337969 74:-0.131911 75:-0.00998231 76:-0.0149037 77:-0.077427 78:-0.256203 79:-0.0997363 80:0.0458233 81:0.49758 82:-0.0526098 83:-0.139339 84:-0.164258 85:0.108751 86:0.256279 87:-0.103466 88:-0.391006 89:-0.246372 90:0.052426 91:-0.0503008 92:-0.0399518 93:-0.18639 94:0.0034948 95:0.0852411 96:-0.29322 97:0.126717 98:-0.195456 99:0.0674569 100:0.018789 
12538.9933936343 1:0.202439 2:-0.103038 3:-0.11121 4:-0.162376 5:0.0432315 6:0.264792 7:-0.3671 8:-0.255352 9:-0.181872 10:-0.0146953 11:0.435755 12:0.08557 13:0.0248866 14:-0.0940593 15:-0.0973953 16:0.403058 17:-0.0903319 18:-0.144486 19:0.0260169 20:-0.288978 21:0.145341 22:-0.296633 23:-0.173565 24:0.0530542 25:-0.254739 26:0.163344 27:-0.162521 28:-0.264169 29:-0.0966992 30:-0.075072 31:-0.0204347 32:-0.108593 33:-0.203146 34:-0.123742 35:-0.0542067 36:0.199768 37:0.152042 38:-0.377131 39:-0.0741454 40:-0.0801624 41:0.0119907 42:-0.258205 43:-0.356162 44:-0.0529534 45:0.0515404 46:0.19262 47:-0.0411165 48:-0.107144 49:-0.0386537 50:-0.0579556 51:0.172988 52:-0.133738 53:-0.356109 54:-0.0817495 55:-0.141032 56:0.508874 57:0.0661387 58:-0.101294 59:-0.0398228 60:-0.112705 61:0.495854 62:0.00574449 63:-0.122059 64:-0.0426578 65:-0.0676587 66:-0.0256397 67:0.0269097 68:-0.17128 69:0.0249386 70:-0.0574735 71:0.195612 72:-0.0317164 73:-0.271144 74:-0.0177302 75:-0.0678497 76:0.194356 77:-0.00335472 78:-0.0465354 79:-0.0906573 80:-0.0993096 81:0.165144 82:-0.0583706 83:-0.267358 84:0.0715925 85:-0.119781 86:-0.1821 87:-0.24382 88:-0.320372 89:0.165886 90:-0.00459309 91:0.208523 92:-0.0364021 93:-0.178222 94:-0.00217937 95:-0.0519354 96:0.167238 97:-0.0156518 98:-0.441974 99:-0.153231 100:-0.0509533 
13529.0872294483 1:-0.251343 2:0.00708317 3:-0.187748 4:-0.102154 5:0.0152327 6:0.0394534 7:-0.173773 8:-0.1527 9:-0.165824 10:-0.0323113 11:0.0468955 12:-0.109274 13:-0.212568 14:-0.103786 15:0.0650826 16:-0.0602546 17:-0.119598 18:-0.165572 19:-0.0388387 20:0.108311 21:0.154765 22:-0.158538 23:-0.0400597 24:-0.070381 25:-0.0740585 26:0.207184 27:0.25205 28:-0.00717351 29:0.10503 30:-0.168194 31:0.00396619 32:-0.111543 33:-0.281351 34:0.0943621 35:0.0744975 36:-0.15102 37:-0.205118 38:-0.172685 39:0.0898105 40:0.137675 41:0.125891 42:0.111611 43:-0.105914 44:-0.0109513 45:0.05578 46:-0.517792 47:-0.266407 48:-0.121623 49:0.0523799 50:0.000827825 51:-0.286698 52:-0.196889 53:-0.104228 54:0.0180305 55:-0.090922 56:0.191305 57:-0.268006 58:0.00870104 59:0.0789223 60:-0.0299779 61:0.0698291 62:-0.145523 63:-0.201182 64:0.101847 65:-0.0320926 66:-0.115647 67:-0.23685 68:-0.179507 69:0.0115997 70:-0.266767 71:0.142651 72:0.149478 73:-0.0410339 74:0.0168989 75:-0.232989 76:-0.125061 77:-0.263712 78:0.125483 79:0.1217 80:0.0232662 81:0.0397132 82:-0.142484 83:0.221883 84:0.238692 85:0.0420862 86:0.219811 87:-0.137279 88:0.188982 89:0.138326 90:0.104657 91:-0.324532 92:-0.390311 93:-0.384725 94:-0.039787 95:-0.113309 96:-0.0555723 97:-0.239277 98:-0.237819 99:-0.0588156 100:-0.18742 
4420.821707047937 1:0.188324 2:-0.283801 3:-0.207795 4:-0.0582904 5:-0.0316442 6:0.449659 7:-0.384722 8:-0.10117 9:-0.015741 10:-0.070925 11:0.125979 12:-0.403137 13:-0.127556 14:-0.130035 15:-0.0802129 16:-0.147807 17:-0.249462 18:0.00858138 19:-0.0920171 20:-0.0970945 21:-0.284242 22:-0.164745 23:-0.216057 24:0.0841006 25:-0.285931 26:-0.3534 27:-0.381127 28:-0.258902 29:0.107586 30:-0.168683 31:0.0223427 32:-0.418568 33:-0.111834 34:0.0904726 35:-0.157589 36:0.185597 37:-0.150972 38:-0.376244 39:-0.16168 40:-0.361905 41:0.00776043 42:-0.024513 43:-0.000561133 44:0.0243407 45:-0.162918 46:0.231214 47:-0.228995 48:-0.163146 49:-0.0158879 50:-0.00349339 51:0.422872 52:-0.207521 53:0.000353226 54:-0.0243092 55:-0.125782 56:0.228705 57:-0.213298 58:0.0250767 59:-0.143839 60:-0.0723101 61:-0.271959 62:-0.18233 63:0.0105367 64:-0.176901 65:-0.0995881 66:0.0183983 67:-0.138912 68:-0.0585579 69:-0.180375 70:-0.0499648 71:-0.0839413 72:-0.404267 73:-0.125824 74:-0.188881 75:-0.0312442 76:-0.134366 77:0.0188921 78:-0.026493 79:-0.072846 80:-0.114098 81:0.123012 82:0.170525 83:0.107599 84:-0.147062 85:-0.0266899 86:0.0427289 87:0.00052704 88:0.0163015 89:-0.0775377 90:0.0317936 91:0.446636 92:-0.0421989 93:-0.324473 94:-0.0585176 95:0.0219522 96:0.49809 97:-0.198632 98:0.151897 99:-0.0228049 100:-0.0953403 
3495.784086006325 1:-0.154189 2:-0.122996 3:0.112327 4:-0.05552 5:-0.0315547 6:0.0178975 7:-0.16496 8:0.110587 9:-0.0635384 10:0.039966 11:-0.280134 12:-0.0606264 13:-0.194571 14:-0.114865 15:-0.0915942 16:0.313731 17:-0.18263 18:-0.295104 19:-0.224672 20:-0.0504088 21:-0.0103363 22:-0.322013 23:-0.0994054 24:-0.0610429 25:-0.110422 26:0.529981 27:-0.196955 28:0.0318153 29:-0.107703 30:-0.0354351 31:1.10996 32:0.095155 33:0.0711463 34:-0.0597599 35:0.165752 36:1.20872 37:0.343837 38:0.154883 39:-0.137952 40:0.134733 41:1.19686 42:0.139061 43:0.197222 44:0.050267 45:0.160292 46:-0.144188 47:-0.326842 48:0.0934921 49:-0.153335 50:0.0898967 51:-0.0229075 52:-0.312832 53:0.15444 54:0.0619015 55:0.0096399 56:-0.0666342 57:-0.0707362 58:0.00950553 59:-0.0678216 60:-0.0904735 61:0.461909 62:-0.0694713 63:-0.0179983 64:-0.254856 65:-0.0132 66:0.171089 67:-0.0970545 68:-0.329271 69:-0.00753505 70:-0.0150855 71:0.394168 72:-0.126075 73:-0.174557 74:0.00422517 75:-0.00332395 76:0.962833 77:0.0626065 78:0.0957007 79:-0.151762 80:0.0671293 81:1.00653 82:0.3689 83:-0.359349 84:-0.0489056 85:-0.049027 86:0.942849 87:-0.0111427 88:-0.0231488 89:-0.110268 90:-0.0313774 91:-0.231014 92:-0.369602 93:0.127922 94:-0.117149 95:-0.00917698 96:-0.00553212 97:-0.176044 98:0.226885 99:0.0614074 100:-0.0908343 
9214.017896248754 1:-0.477451 2:-0.0915523 3:-0.363118 4:-0.0375099 5:0.092164 6:-0.431761 7:-0.425304 8:-0.0456531 9:-0.0591064 10:0.103591 11:-0.0314157 12:-0.0232549 13:0.166722 14:-0.103183 15:0.0892287 16:0.0621179 17:0.120573 18:0.0714648 19:-0.157062 20:0.127161 21:0.446632 22:0.05461 23:-0.00402746 24:-0.0935098 25:0.0211263 26:0.884973 27:0.0921508 28:0.11314 29:-0.0166177 30:0.0321782 31:0.947069 32:0.0741997 33:0.154556 34:0.156998 35:0.291787 36:0.859108 37:0.227951 38:0.00155759 39:0.154532 40:0.371492 41:0.404776 42:0.272529 43:-0.0749083 44:0.0798566 45:0.212455 46:-0.0456742 47:-0.217847 48:-0.269213 49:-0.1051 50:-0.0686664 51:-0.216792 52:-0.244645 53:-0.0694906 54:-0.0696628 55:-0.1908 56:-0.0792087 57:0.172501 58:0.0493245 59:0.0475177 60:0.00324923 61:0.140955 62:0.0467008 63:-0.31354 64:-0.062961 65:-0.0479557 66:0.156972 67:0.0668288 68:-0.0168859 69:-0.0464717 70:0.035195 71:0.680682 72:0.234265 73:0.112334 74:0.189079 75:-0.0197497 76:0.615812 77:0.206065 78:0.131966 79:0.222919 80:-0.0198112 81:0.462441 82:0.385614 83:0.184401 84:0.122299 85:0.122583 86:0.190226 87:0.267089 88:0.114811 89:0.0905153 90:0.046342 91:-0.193328 92:-0.199157 93:-0.0196629 94:0.000995453 95:-0.0453694 96:-0.532363 97:-0.342114 98:-0.108538 99:-0.0318454 100:-0.173257 
6607.33891098397 1:-0.178004 2:0.207546 3:0.406262 4:-0.196286 5:-0.249701 6:0.142897 7:0.412302 8:0.528229 9:-0.0723294 10:-0.172206 11:-0.0168458 12:0.280915 13:0.632496 14:0.00773272 15:-0.151024 16:-0.3934 17:-0.11965 18:0.289523 19:0.0671558 20:-0.268211 21:0.25741 22:-0.00996399 23:0.486256 24:-0.11281 25:-0.144069 26:-0.00763095 27:0.10011 28:0.202308 29:-0.117419 30:-0.114536 31:-0.307003 32:0.332744 33:0.186531 34:-0.154295 35:-0.139544 36:-0.169265 37:0.0767027 38:0.183871 39:-0.123618 40:-0.0497701 41:-0.0438143 42:0.223472 43:0.382561 44:-0.0587838 45:-0.0478999 46:-0.254901 47:0.341935 48:0.2582 49:-0.0207981 50:-0.125471 51:0.0478047 52:0.328614 53:0.305374 54:-0.0463303 55:-0.055347 56:-0.0989152 57:0.238474 58:0.449137 59:-0.0548697 60:-0.0358675 61:-0.29577 62:0.0910411 63:-0.0367859 64:-0.0389207 65:-0.244985 66:0.147173 67:0.1042 68:-0.316851 69:-0.317248 70:-0.179061 71:0.0565181 72:0.106651 73:-0.154453 74:-0.383727 75:-0.230439 76:-0.31164 77:0.376917 78:0.396285 79:-0.256659 80:-0.355685 81:-0.46632 82:0.110546 83:0.2289 84:-0.27241 85:-0.378989 86:-0.270446 87:0.084813 88:-0.143898 89:-0.128309 90:-0.295033 91:-0.496346 92:-0.0854246 93:0.35095 94:0.0544035 95:0.0137337 96:0.0212694 97:0.112315 98:0.396185 99:-0.0344523 100:0.00339492 
