svm_type nu_svc
kernel_type linear
nr_class 2
total_sv 635
rho 0.664005
label 0 1
nr_sv 318 317
SV
15354.53882942773 1:-0.115775 2:-0.227775 3:-0.160969 4:-0.0338109 5:-0.0310147 6:-0.182518 7:-0.306408 8:-0.32885 9:0.126016 10:0.014019 11:0.0871533 12:-0.0353226 13:-0.141114 14:0.02639 15:0.0130149 16:-0.101161 17:0.0608394 18:0.124057 19:-0.113486 20:-0.0398693 21:0.0702027 22:0.126726 23:0.0284923 24:-0.0404481 25:-0.119247 26:0.0728314 27:0.0876575 28:-0.0135376 29:-0.0635315 30:-0.12725 31:-0.014194 32:-0.196995 33:0.0307026 34:-0.126009 35:-0.0511148 36:-0.0106874 37:-0.0320305 38:0.0223346 39:-0.122818 40:-0.120193 41:-0.00710262 42:-0.212844 43:0.029654 44:-0.0324651 45:0.00983966 46:-0.204948 47:-0.198244 48:-0.213082 49:-0.0349451 50:0.0174159 51:-0.245093 52:-0.253927 53:-0.306565 54:0.093207 55:0.0177909 56:-0.051254 57:-0.224116 58:-0.0411815 59:-0.000943426 60:0.0322889 61:-0.146147 62:-0.155687 63:0.140412 64:-0.0281445 65:-0.0803464 66:0.0618163 67:0.156529 68:0.133847 69:0.0192726 70:-0.130936 71:0.102768 72:0.188355 73:0.114402 74:-0.0733849 75:-0.0874222 76:0.0869931 77:-0.0550244 78:-0.157766 79:-0.218289 80:-0.117991 81:0.0740839 82:0.0907149 83:-0.192101 84:-0.178368 85:-0.0899837 86:0.127275 87:-0.0761297 88:0.0316764 89:-0.0687217 90:-0.0869661 91:0.0516199 92:-0.568492 93:-0.225417 94:0.0251028 95:0.0485432 96:-0.335191 97:-0.389576 98:-0.382484 99:0.128367 100:0.00291183 
15354.53882942773 1:-0.00828169 2:-0.0891181 3:-0.194998 4:-0.0820098 5:-0.020213 6:0.270796 7:-0.00180295 8:0.00578046 9:-0.0820519 10:0.0136414 11:0.288532 12:0.304713 13:0.0424535 14:-0.0938064 15:0.0239241 16:-0.109346 17:0.164228 18:-0.00417725 19:-0.0557227 20:-0.0183379 21:-0.452992 22:-0.273374 23:0.097772 24:-0.0836165 25:-0.147842 26:-0.104118 27:-0.441908 28:-0.0891843 29:-0.00565832 30:-0.165708 31:-0.172088 32:-0.357624 33:-0.0630552 34:0.0316408 35:-0.0532835 36:-0.434158 37:-0.226892 38:-0.157387 39:-0.0946667 40:-0.0500613 41:-0.00759719 42:0.0425072 43:0.0798132 44:-0.14009 45:-0.10185 46:-0.0930077 47:0.00671955 48:-0.131595 49:-0.00603326 50:-0.0425302 51:0.193204 52:-0.236435 53:-0.125533 54:0.0112988 55:0.0589143 56:-0.0302765 57:-0.35034 58:-0.0787963 59:-0.0689497 60:0.0282184 61:-0.0295327 62:-0.109136 63:0.0727582 64:-0.143974 65:-0.0418495 66:0.195307 67:0.186354 68:0.0751664 69:-0.0964018 70:-0.14104 71:-0.209378 72:-0.0994527 73:-0.119547 74:0.00819535 75:-0.107599 76:-0.474512 77:-0.171633 78:-0.0858568 79:0.000815441 80:-0.0732627 81:-0.27596 82:0.136462 83:0.0211945 84:-0.0648254 85:-0.0744291 86:0.113633 87:0.257736 88:-0.0540309 89:-0.120017 90:-0.111356 91:0.0983927 92:0.138617 93:0.0228315 94:-0.0414342 95:-0.0419089 96:0.232675 97:-0.213934 98:0.0317683 99:-0.00821649 100:0.0393593 
15354.53882942773 1:-0.213312 2:-0.229893 3:-0.175266 4:0.0521006 5:0.00180728 6:0.198384 7:0.128769 8:0.129977 9:0.0304958 10:-0.0730616 11:0.177545 12:0.0420553 13:0.068157 14:0.0396516 15:-0.0765085 16:-0.0387863 17:0.0645345 18:0.0726718 19:-0.043414 20:-0.123689 21:-0.298807 22:0.144154 23:-0.0403465 24:0.0102293 25:-0.185993 26:-0.00328372 27:-0.207765 28:-0.273656 29:-0.0950172 30:-0.122082 31:-0.0772109 32:-0.403613 33:-0.10654 34:-0.250626 35:0.0138965 36:-0.283681 37:-0.054378 38:-0.0215437 39:-0.179634 40:0.087483 41:-0.20216 42:-0.0109714 43:-0.251617 44:-0.076609 45:0.0366902 46:-0.395529 47:-0.193838 48:-0.0279283 49:-0.033833 50:0.0159338 51:-0.058228 52:0.0151776 53:0.0768781 54:-0.0358418 55:-0.0354379 56:-0.135471 57:-0.0171072 58:0.0999623 59:-0.0261464 60:-0.0564518 61:-0.181555 62:0.0579634 63:0.183606 64:-0.0281815 65:-0.110418 66:0.20791 67:0.199351 68:-0.00328631 69:0.0101677 70:-0.12653 71:0.200071 72:-0.10992 73:-0.235074 74:-0.00169602 75:-0.0567474 76:0.0202465 77:-0.288571 78:-0.272456 79:-0.0966425 80:-0.0152521 81:-0.127319 82:-0.175199 83:-0.231758 84:-0.113143 85:-0.0218983 86:-0.195473 87:-0.0654421 88:-0.391426 89:-0.161047 90:-0.00352911 91:-0.269586 92:-0.074726 93:-0.197957 94:-0.00532525 95:-0.0485748 96:0.0128266 97:0.248145 98:0.127657 99:-0.00682434 100:-0.103559 
15354.53882942773 1:0.116676 2:-0.212655 3:0.00225297 4:-0.158049 5:-0.130913 6:0.111254 7:-0.0445091 8:0.0353183 9:-0.0173084 10:-0.0453063 11:0.0961582 12:0.0872819 13:-0.0295467 14:0.0659027 15:0.0141608 16:-0.0046575 17:0.0811016 18:-0.238021 19:-0.00661378 20:-0.0430374 21:-0.341047 22:0.11014 23:-0.0638687 24:-0.00152372 25:-0.123537 26:-0.147273 27:-0.102847 28:0.0887247 29:-0.128715 30:-0.11486 31:0.0124719 32:-0.131488 33:-0.198552 34:-0.116861 35:-0.0183248 36:-0.136384 37:-0.227557 38:0.0496321 39:-0.0254693 40:-0.0126037 41:-0.285502 42:0.0105524 43:0.0165945 44:-0.0995101 45:-0.110587 46:0.0816106 47:-0.276739 48:-0.029515 49:-0.150668 50:-0.0767343 51:0.167303 52:-0.359377 53:0.0511562 54:0.038831 55:-0.011589 56:0.14917 57:0.00472195 58:-0.111943 59:-0.0228435 60:0.0392623 61:0.0232588 62:0.0929571 63:-0.237048 64:-0.0285 65:-0.0382855 66:-0.475403 67:0.129538 68:-0.0136273 69:0.0780293 70:-0.202542 71:-0.299794 72:-0.0130921 73:0.052481 74:-0.0935165 75:-0.24828 76:-0.117856 77:-0.0136487 78:-0.155426 79:-0.110124 80:-0.0628979 81:-0.0429278 82:0.00799935 83:0.13033 84:-0.0699697 85:0.00691174 86:-0.1408 87:0.0391881 88:0.0844908 89:-0.04522 90:-0.0883701 91:0.130406 92:-0.22002 93:0.0202853 94:-0.198171 95:-0.094125 96:0.0894043 97:-0.335951 98:0.0480355 99:0.0112761 100:-0.021807 
15354.53882942773 1:-0.499478 2:-0.0808829 3:-0.145743 4:-0.133093 5:-0.0339398 6:-0.176028 7:0.260961 8:0.139987 9:-0.151277 10:-0.0239207 11:0.144198 12:0.278098 13:0.0900787 14:-0.151915 15:-0.00501752 16:0.103419 17:-0.200944 18:0.0286106 19:0.0448189 20:-0.0812133 21:-0.0380782 22:-0.119294 23:0.0478672 24:0.00420106 25:-0.11232 26:0.127681 27:-0.0666382 28:-0.242346 29:-0.00302445 30:-0.0589549 31:-0.0376549 32:-0.42185 33:-0.132203 34:-0.0317863 35:-0.00630637 36:-0.211839 37:-0.471936 38:-0.0757428 39:-0.0689187 40:-0.0781016 41:0.0761213 42:0.0411416 43:-0.275657 44:0.00700994 45:-0.0502723 46:-0.302075 47:-0.12294 48:-0.198429 49:-0.100278 50:-0.172753 51:-0.107247 52:0.135512 53:0.0937116 54:-0.114074 55:0.0121796 56:0.18759 57:0.0971114 58:0.128195 59:-0.0605108 60:0.0356485 61:0.193547 62:-0.198448 63:0.0469417 64:-0.00882044 65:-0.0773105 66:-0.0767925 67:0.0230754 68:0.0838964 69:-0.0917661 70:-0.0813103 71:0.00941695 72:-0.0444729 73:-0.155319 74:-0.092615 75:-0.146417 76:-0.300578 77:-0.149627 78:-0.211993 79:0.0546691 80:-0.0566875 81:-0.183318 82:-0.0603121 83:-0.184753 84:0.0438415 85:-0.00248847 86:0.169664 87:0.178528 88:-0.266623 89:-0.0334739 90:-0.0691824 91:-0.190861 92:-0.0127386 93:-0.295226 94:-0.216949 95:-0.130091 96:-0.0801631 97:0.202522 98:0.0872041 99:-0.0711113 100:0.0486515 
15354.53882942773 1:0.0928513 2:-0.189876 3:-0.0814853 4:-0.0803082 5:-0.0304415 6:0.182304 7:0.193591 8:-0.00948861 9:-0.0716621 10:0.0405121 11:-0.0263031 12:-0.0359742 13:0.0211655 14:0.0101858 15:-0.103172 16:-0.201083 17:-0.340056 18:-0.0618064 19:-0.00316914 20:-0.172621 21:0.070568 22:-0.0525959 23:-0.150399 24:0.0161216 25:-0.186233 26:-0.16771 27:-0.0461063 28:-0.10501 29:-0.120153 30:-0.0971217 31:-0.26366 32:0.0946383 33:-0.100684 34:-0.140876 35:0.0279434 36:-0.136506 37:-0.0303665 38:0.162114 39:-0.0145722 40:0.0252138 41:0.052831 42:-0.370354 43:0.159167 44:0.0517908 45:-0.0645474 46:0.00985675 47:-0.103657 48:-0.0022897 49:0.0859373 50:-0.0896878 51:0.0842285 52:0.241921 53:0.189063 54:0.0125853 55:-0.19138 56:-0.193193 57:0.0399153 58:0.189929 59:0.0217646 60:-0.17483 61:0.049971 62:-0.459502 63:-0.254478 64:-0.0381193 65:0.0290404 66:0.209945 67:-0.207379 68:-0.604729 69:-0.187111 70:-0.0061085 71:-0.121258 72:-0.10695 73:-0.220818 74:-0.232298 75:-0.0485106 76:-0.292099 77:0.0329026 78:-0.138607 79:-0.106355 80:0.000798817 81:-0.0984531 82:-0.0895216 83:0.113311 84:-0.0369131 85:0.011463 86:-0.0285058 87:-0.214751 88:0.184393 89:-0.0840309 90:-0.0536593 91:0.218125 92:-0.0448458 93:-0.0356306 94:0.0422503 95:0.0257347 96:0.281793 97:0.291906 98:0.111248 99:-0.0737179 100:-0.0754568 
10429.84688314838 1:0.147933 2:-0.154172 3:-0.0567816 4:-0.0378313 5:-0.0189668 6:-0.116504 7:-0.137037 8:-0.172818 9:-0.124265 10:-0.0029195 11:-0.218254 12:-0.0725316 13:-0.029567 14:-0.118486 15:0.0336483 16:-0.0144564 17:-0.0515548 18:0.0154105 19:-0.189178 20:-0.0238597 21:0.0434071 22:-0.122432 23:-0.0247451 24:-0.0273489 25:-0.00392591 26:-0.127976 27:0.00489759 28:0.0610765 29:0.0213981 30:-0.0283024 31:-0.102877 32:0.0587878 33:-0.0594184 34:-0.0310257 35:-0.154487 36:0.135106 37:0.104276 38:0.0380576 39:-0.0366635 40:-0.140359 41:0.185112 42:0.0859193 43:-0.284405 44:-0.00832183 45:-0.150057 46:-0.0542861 47:-0.0723756 48:-0.133818 49:-0.00927773 50:-0.0172009 51:-0.343903 52:-0.190653 53:-0.243785 54:-0.0357387 55:0.00963948 56:-0.278266 57:-0.168854 58:0.0646068 59:-0.0889371 60:-0.111176 61:0.0967545 62:-0.159987 63:0.00430704 64:-0.219082 65:-0.046879 66:0.167574 67:-0.140995 68:-0.015895 69:-0.129953 70:0.00128718 71:0.0779328 72:0.082514 73:0.0594839 74:0.0244416 75:-0.121698 76:-0.114511 77:0.154138 78:0.0159661 79:0.0105485 80:-0.112405 81:0.0650867 82:0.062806 83:-0.00179881 84:0.00445688 85:-0.000498003 86:0.197334 87:0.120462 88:-0.271372 89:0.0421854 90:0.0113496 91:0.122987 92:-0.313846 93:-0.173427 94:-0.0061865 95:-0.0464979 96:-0.0721976 97:-0.171131 98:-0.204167 99:-0.101226 100:-0.0846971 
15354.53882942773 1:-0.32918 2:-0.158381 3:0.127775 4:0.0488378 5:-0.0614915 6:-0.157204 7:-0.0814331 8:-0.0168313 9:0.110371 10:0.0230391 11:-0.0586599 12:0.066289 13:-0.0329871 14:-0.0915263 15:0.0332382 16:-0.0298307 17:0.197884 18:-0.0226292 19:-0.0586465 20:-0.170335 21:-0.0256007 22:-0.0289213 23:-0.229334 24:-0.11423 25:-0.204659 26:0.212561 27:-0.149998 28:-0.158122 29:-0.115664 30:-0.216643 31:0.14949 32:-0.169418 33:-0.0287055 34:-0.129223 35:-0.0854755 36:-0.10742 37:-0.0131087 38:-0.11921 39:-0.127192 40:0.0623771 41:-0.0267246 42:0.0112963 43:-0.05147 44:-0.123857 45:0.106448 46:-0.298425 47:-0.215642 48:-0.469529 49:0.0405798 50:-0.00150033 51:-0.331118 52:-0.268874 53:-0.201303 54:0.0792919 55:-0.0134518 56:-0.36064 57:-0.188391 58:-0.110302 59:-0.068943 60:-0.11514 61:-0.324163 62:-0.0212846 63:0.0358319 64:-0.046862 65:-0.156536 66:0.0901189 67:-0.0617868 68:0.22497 69:-0.119436 70:-0.12678 71:0.31537 72:-0.104785 73:0.152138 74:-0.0582398 75:-0.120315 76:0.123655 77:0.0292133 78:-0.0646378 79:-0.123027 80:-0.10975 81:-0.054668 82:0.203331 83:-0.107456 84:-0.155385 85:0.037832 86:-0.130574 87:0.121088 88:-0.00255634 89:-0.0524226 90:0.0195482 91:-0.169453 92:-0.238665 93:-0.181029 94:-0.00602922 95:-0.0309025 96:-0.0599352 97:-0.248989 98:-0.20338 99:0.03261 100:-0.00673924 
15354.53882942773 1:-0.354005 2:0.0148308 3:0.158567 4:0.0527331 5:-0.10224 6:-0.0403932 7:-0.0572507 8:0.145719 9:0.0788795 10:-0.0425809 11:-0.104822 12:0.119028 13:-0.0270573 14:0.0238578 15:-0.135274 16:0.0201599 17:0.124545 18:0.0467855 19:-0.0373913 20:-0.138571 21:0.0641165 22:-0.090011 23:-0.0569187 24:-0.149068 25:0.0133889 26:0.0772427 27:0.0406654 28:-0.281505 29:-0.157227 30:0.0273301 31:-0.188218 32:-0.180016 33:-0.182018 34:-0.0955492 35:0.0282687 36:0.179023 37:-0.345606 38:-0.253908 39:-0.202351 40:-0.0855791 41:0.174809 42:-0.124773 43:-0.420431 44:-0.17983 45:-0.180349 46:-0.261974 47:0.042172 48:0.203056 49:-0.140579 50:-0.127139 51:-0.0237826 52:0.121274 53:0.216903 54:0.0026065 55:-0.0303271 56:0.00368429 57:0.0968877 58:-0.0078563 59:0.0417785 60:-0.0999121 61:0.154808 62:0.121681 63:0.017783 64:-0.00571644 65:-0.0567892 66:0.0126289 67:-0.217003 68:-0.0876066 69:-0.0982666 70:0.0527598 71:0.0394839 72:-0.210172 73:-0.40728 74:-0.187799 75:0.0218074 76:0.0102994 77:-0.256936 78:-0.434169 79:-0.0336336 80:-0.0249403 81:-0.145762 82:-0.18522 83:-0.392297 84:-0.0787111 85:-0.0744073 86:-0.177694 87:-0.0881884 88:-0.243657 89:-0.0766569 90:-0.222346 91:-0.159411 92:0.0131034 93:0.250494 94:-0.085103 95:-0.125493 96:-0.0324109 97:-0.133423 98:0.193735 99:0.0826246 100:-0.0036858 
15354.53882942773 1:-0.291223 2:-0.269683 3:-0.376271 4:0.00604324 5:-0.247668 6:0.199839 7:0.087122 8:-0.298941 9:-0.125185 10:-0.15585 11:0.271127 12:0.319628 13:0.126578 14:-0.150963 15:0.132443 16:0.148522 17:0.100039 18:0.224801 19:-0.031239 20:0.127658 21:0.0478532 22:-0.308003 23:0.0632616 24:-0.0558102 25:-0.130988 26:-0.0871861 27:-0.215079 28:0.0242007 29:-0.0809152 30:-0.151863 31:-0.403167 32:-0.283098 33:-0.139043 34:-0.0983676 35:-0.0334209 36:-0.812969 37:-0.512599 38:-0.322743 39:0.0515342 40:-0.112346 41:-1.13655 42:-0.15271 43:-0.191843 44:0.0913545 45:-0.100086 46:-0.243088 47:-0.278158 48:-0.434971 49:-0.0828562 50:-0.10352 51:0.208172 52:0.0200582 53:-0.275413 54:-0.0873367 55:-0.18655 56:0.250047 57:0.221514 58:-0.0443708 59:0.0312848 60:0.0821916 61:0.0940711 62:-0.0423128 63:0.0615522 64:0.0251253 65:0.0242518 66:0.049426 67:-0.255961 68:0.167637 69:-0.076689 70:-0.115314 71:-0.0645709 72:-0.0338834 73:0.120158 74:-0.0903875 75:-0.173804 76:-0.37602 77:-0.0268229 78:0.0640039 79:-0.0680206 80:-0.00468621 81:-0.685363 82:-0.179351 83:-0.422493 84:-0.0482904 85:0.0191385 86:-0.988309 87:0.0947442 88:-0.405111 89:0.0356866 90:0.0981847 91:-0.163699 92:-0.267646 93:-0.276846 94:-0.00732729 95:-0.170771 96:0.175296 97:-0.0222026 98:-0.322141 99:-0.0671345 100:-0.114116 
14347.94969782354 1:-0.149327 2:-0.130561 3:-0.244481 4:-0.122555 5:-0.042766 6:-0.106661 7:-0.186996 8:-0.27641 9:-0.112379 10:0.0115941 11:-0.189126 12:-0.372494 13:-0.095711 14:-0.117945 15:0.00328726 16:-0.154713 17:-0.242915 18:0.0446646 19:0.00952899 20:-0.0540106 21:-0.00679843 22:-0.353916 23:-0.0066912 24:0.0893271 25:-0.175433 26:0.201662 27:-0.175873 28:0.0233081 29:0.0123073 30:-0.0826577 31:0.105695 32:0.248251 33:-0.0355258 34:-0.0753711 35:-0.0447262 36:0.01853 37:0.336419 38:0.139857 39:-0.138707 40:-0.129097 41:0.0781103 42:0.0940233 43:0.0490456 44:-0.0943297 45:-0.081875 46:0.134688 47:-0.0991888 48:-0.354895 49:-0.176698 50:-0.0893281 51:-0.200991 52:-0.161735 53:-0.136762 54:-0.0733815 55:-0.091162 56:-0.283496 57:-0.165333 58:-0.182948 59:-0.130835 60:-0.0613814 61:-0.0580989 62:-0.0252889 63:-0.00909313 64:-0.0149514 65:-0.00522424 66:-0.111682 67:-0.360806 68:-0.0143267 69:0.0954375 70:-0.0114949 71:0.0493981 72:-0.308488 73:0.00179545 74:0.026818 75:-0.0388384 76:0.0716823 77:0.17915 78:-0.0295573 79:-0.0529092 80:-0.0813591 81:-0.00755479 82:0.246856 83:0.141604 84:-0.132029 85:-0.0978312 86:0.0634465 87:0.000849376 88:-0.0239288 89:-0.166575 90:-0.0156915 91:0.183128 92:-0.0712463 93:-0.377688 94:-0.0879623 95:-0.0446206 96:-0.25736 97:-0.164207 98:-0.223251 99:-0.109447 100:-0.0656722 
15354.53882942773 1:0.127642 2:0.295089 3:0.196473 4:0.0153219 5:0.0339401 6:-0.179536 7:-0.126924 8:0.117822 9:-0.0622804 10:0.0377325 11:-0.120491 12:-0.131512 13:0.219788 14:-0.107841 15:0.0870785 16:-0.130422 17:-0.116075 18:0.0663338 19:-0.111028 20:-0.0168644 21:0.0383044 22:0.0267445 23:-0.274867 24:-0.185712 25:-0.186915 26:-0.0487849 27:-0.0332278 28:-0.436275 29:-0.0871409 30:-0.165152 31:-0.195089 32:-0.317478 33:-0.418834 34:-0.0262034 35:-0.185492 36:0.126266 37:-0.0970319 38:-0.395152 39:0.0714465 40:-0.148071 41:0.239786 42:0.0830221 43:-0.265066 44:-0.118419 45:-0.0399592 46:0.0267736 47:0.182226 48:-0.0198556 49:0.0224863 50:-0.0884351 51:-0.37846 52:-0.22064 53:0.115921 54:-0.151644 55:-0.0383196 56:-0.228714 57:-0.042691 58:0.189233 59:-0.11639 60:-0.0799438 61:0.0542342 62:0.125305 63:0.0570574 64:-0.0324045 65:-0.204363 66:0.235535 67:-0.031616 68:-0.0522306 69:-0.0688069 70:-0.123942 71:0.156124 72:-0.190582 73:-0.334522 74:-0.100734 75:-0.0624804 76:-0.28389 77:-0.294518 78:-0.454077 79:-0.103181 80:-0.0267892 81:-0.125484 82:-0.170953 83:-0.182155 84:-0.0550197 85:0.049976 86:0.0302127 87:-0.0737145 88:-0.162506 89:-0.218247 90:0.0333937 91:-0.0137371 92:0.275862 93:0.157459 94:0.0179133 95:-0.0348459 96:-0.166348 97:-0.106097 98:0.0900459 99:-0.0113761 100:-0.0379141 
13881.38678948899 1:0.26707 2:0.0458863 3:-0.0558571 4:-0.0816829 5:-0.0761619 6:0.168999 7:0.0963912 8:-0.107755 9:-0.105897 10:-0.0317244 11:-0.0613063 12:-0.0696727 13:0.0705605 14:-0.0383287 15:-0.0965956 16:-0.0813283 17:0.0346107 18:-0.167024 19:-0.020535 20:-0.0864045 21:-0.282608 22:0.187369 23:-0.0155525 24:-0.0207361 25:-0.0619444 26:-0.297332 27:-0.0719141 28:-0.181987 29:0.0727995 30:-0.0363947 31:-0.0454571 32:-0.508705 33:-0.0448573 34:-0.0272675 35:-0.0196056 36:-0.143789 37:-0.508203 38:0.179677 39:-0.081046 40:-0.0242538 41:-0.320796 42:-0.108656 43:0.252463 44:-0.0052815 45:-0.0299072 46:0.203251 47:-0.00176166 48:0.17915 49:-0.0259383 50:-0.0417245 51:0.0389165 52:0.212168 53:-0.152609 54:-0.0749547 55:-0.0760857 56:-0.277447 57:0.109669 58:-0.128079 59:-0.0276912 60:-0.198345 61:-0.0155403 62:-0.0246864 63:-0.223739 64:0.0443025 65:-0.126711 66:0.0421428 67:-0.0352703 68:-0.199363 69:-0.0174379 70:0.0395421 71:-0.214561 72:-0.138189 73:-0.234609 74:0.0143656 75:-0.00380544 76:0.0275281 77:-0.319205 78:0.00476132 79:-0.0515141 80:0.0113422 81:-0.189516 82:-0.394176 83:0.237987 84:-0.167903 85:-0.0436708 86:-0.213834 87:-0.0250658 88:0.191165 89:-0.0584925 90:0.0161694 91:0.276838 92:0.00307035 93:-0.0473487 94:-0.0387051 95:-0.0625308 96:0.243505 97:0.158005 98:-0.142351 99:-0.0903724 100:-0.0756413 
15354.53882942773 1:-1.44129 2:-0.438184 3:-0.0117182 4:-0.0260666 5:-0.128306 6:-1.33332 7:-0.459431 8:0.0706706 9:-0.0638482 10:-0.141425 11:-0.733526 12:-0.375214 13:0.132538 14:-0.062807 15:-0.234174 16:-0.653246 17:-0.425638 18:-0.101557 19:-0.0546324 20:-0.174875 21:-0.0445386 22:-0.116598 23:-0.0735051 24:-0.0298029 25:-0.101885 26:0.368146 27:0.0951327 28:-0.125504 29:-0.0171699 30:-0.0164009 31:0.368052 32:0.316579 33:-0.0546612 34:-0.0486648 35:0.139724 36:0.217628 37:0.0768105 38:-0.211116 39:-0.0237381 40:0.079533 41:0.167925 42:-0.519839 43:-0.134476 44:0.0673075 45:0.0173697 46:-0.644596 47:-0.16159 48:0.0433954 49:-0.0291533 50:-0.135294 51:-0.659226 52:-0.303725 53:0.0594113 54:-0.0875657 55:-0.0584335 56:-0.668549 57:-0.244362 58:0.164863 59:-0.00632836 60:-0.049122 61:-0.59862 62:-0.288091 63:0.0324361 64:0.0754047 65:-0.0323133 66:-0.0795654 67:-0.167697 68:0.049727 69:-0.118759 70:-0.0632459 71:0.345841 72:0.0618651 73:-0.119166 74:-0.148431 75:-0.144104 76:0.333566 77:0.288409 78:-0.306831 79:-0.127241 80:-0.0231302 81:0.186876 82:0.0415524 83:-0.365894 84:0.00530778 85:0.0353781 86:0.186651 87:-0.172275 88:-0.0339684 89:0.113867 90:-0.0407134 91:-0.613399 92:-0.228071 93:0.142565 94:0.0416601 95:-0.130794 96:-0.449429 97:-0.285068 98:0.109325 99:-0.114512 100:-0.0833783 
15354.53882942773 1:0.0713983 2:0.0644221 3:-0.116082 4:0.00162263 5:-0.11448 6:-0.161796 7:0.0210792 8:0.0354476 9:-0.00958613 10:-0.00527797 11:-0.324895 12:0.0927932 13:0.0830306 14:0.0288263 15:0.0102754 16:-0.308318 17:-0.0683438 18:-0.06248 19:-0.0337008 20:-0.0829505 21:-0.0370221 22:-0.0983934 23:-0.245768 24:-0.160788 25:-0.0165099 26:0.161865 27:-0.0899834 28:0.00409467 29:-0.144142 30:0.00390351 31:0.171124 32:-0.0903717 33:0.105453 34:0.00640629 35:-0.109982 36:-0.026022 37:-0.295099 38:-0.113518 39:-0.0321174 40:-0.189141 41:-0.332594 42:-0.381358 43:0.0832797 44:-0.0952029 45:-0.103735 46:0.0296418 47:0.117666 48:0.0739449 49:-0.0896012 50:-0.0565511 51:-0.11968 52:0.0959432 53:0.0205286 54:-0.123719 55:-0.0952292 56:-0.328984 57:0.121255 58:0.13419 59:-0.0570121 60:-0.021036 61:-0.223994 62:-0.171739 63:-0.180559 64:-0.0319973 65:0.0264177 66:-0.0568785 67:-0.1805 68:-0.395147 69:-0.0592016 70:-0.0564654 71:0.161119 72:-0.0531696 73:0.00994749 74:-0.121389 75:-0.0417908 76:0.16462 77:-0.0247509 78:0.0378312 79:0.0133959 80:-0.0521846 81:-0.0321695 82:-0.243272 83:-0.0255928 84:0.0583327 85:-0.0469676 86:-0.0859661 87:-0.217064 88:0.0367816 89:0.0399714 90:-0.120843 91:0.0256181 92:0.0778046 93:0.0928388 94:-0.122843 95:-0.0411279 96:-0.256405 97:0.159115 98:0.117802 99:-0.0908893 100:-0.0816811 
7733.875670036587 1:-0.391649 2:-0.224077 3:0.00173254 4:-0.0871755 5:-0.193944 6:-0.136967 7:-0.106417 8:0.104979 9:0.00607244 10:-0.16014 11:-0.0965681 12:-0.145474 13:0.0184301 14:0.00148543 15:-0.246437 16:0.0818378 17:-0.113995 18:-0.073991 19:-0.0979219 20:-0.0630689 21:0.0324844 22:-0.0698387 23:0.155516 24:-0.0579264 25:0.0227854 26:-0.0508531 27:-0.0841334 28:-0.00579402 29:-0.0560874 30:-0.0435924 31:-0.169063 32:0.0467573 33:-0.491199 34:-0.0112403 35:0.0739452 36:0.197263 37:0.279833 38:-0.197447 39:-0.0032055 40:0.0766962 41:0.106255 42:0.215435 43:0.0744287 44:0.0273835 45:-0.0806765 46:-0.158195 47:0.0223167 48:-0.0169353 49:-0.12943 50:-0.0639671 51:-0.00863341 52:0.0172068 53:-0.0368472 54:0.00148028 55:-0.073248 56:-0.251684 57:-0.104229 58:-0.0620338 59:-0.00244776 60:-0.18182 61:-0.201388 62:-0.261889 63:-0.00329614 64:-0.102102 65:-0.0707519 66:-0.15943 67:-0.422212 68:-0.0759131 69:-0.0874378 70:-0.000525797 71:0.147168 72:0.0234079 73:0.084837 74:-0.0226896 75:-0.084503 76:0.0645192 77:0.0783177 78:-0.108384 79:-0.0342392 80:0.0344198 81:0.149783 82:0.184209 83:-0.0576694 84:0.0403221 85:-0.053331 86:0.0553235 87:0.122789 88:0.219929 89:0.0254373 90:-0.150698 91:-0.190595 92:-0.0512771 93:-0.0762117 94:-0.106864 95:-0.0910258 96:-0.0686301 97:0.0141897 98:-0.0762109 99:0.0402518 100:-0.0787067 
5905.957135351545 1:0.00158536 2:0.0349607 3:0.128076 4:0.0607985 5:-0.119446 6:-0.0673635 7:-0.313816 8:-0.239145 9:0.00382418 10:-0.0776725 11:0.0274507 12:0.0416756 13:0.00554832 14:-0.198655 15:0.00778361 16:-0.0892909 17:0.111475 18:0.236599 19:-0.253261 20:-0.0701198 21:0.0898943 22:-0.0325921 23:0.0420326 24:-0.206887 25:-0.144144 26:0.127403 27:-0.0174068 28:-0.291459 29:-0.134258 30:-0.121929 31:-0.172068 32:0.0267683 33:-0.26176 34:0.11715 35:0.0236707 36:-0.176025 37:-0.0896701 38:-0.0928399 39:0.041956 40:0.0508168 41:-0.27488 42:-0.0232444 43:-0.23354 44:-0.0260644 45:-0.0756554 46:0.0884381 47:0.0291112 48:0.0543584 49:-0.0152921 50:-0.0941011 51:0.059082 52:-0.374781 53:-0.185291 54:0.0393397 55:-0.0666595 56:0.0536097 57:-0.0281187 58:0.0233736 59:-0.0369895 60:0.0151522 61:-0.0994601 62:0.0597963 63:0.224387 64:-0.136848 65:7.47277e-05 66:-0.0652516 67:-0.0984718 68:0.012425 69:-0.194743 70:-0.0938272 71:-0.0543698 72:-0.00796961 73:-0.0372395 74:-0.17125 75:-0.101259 76:-0.0949855 77:0.0577946 78:-0.257884 79:0.0408941 80:-0.0541554 81:-0.015646 82:0.0271125 83:-0.299177 84:0.00903537 85:-0.00900585 86:-0.0210364 87:-0.171093 88:-0.332172 89:-0.170246 90:-0.139382 91:0.163647 92:0.0777545 93:0.131513 94:-0.0444442 95:-0.107685 96:-0.0679785 97:-0.235381 98:-0.115878 99:-0.0169795 100:-0.117661 
15354.53882942773 1:0.133276 2:0.0265282 3:0.12237 4:-0.176925 5:-0.0268883 6:-0.0903473 7:0.00913293 8:-0.00825568 9:0.0218749 10:-0.014816 11:0.142984 12:-0.184572 13:-0.0403357 14:0.0818102 15:-0.000764949 16:0.258674 17:-0.125945 18:-0.213799 19:0.0344075 20:-0.118818 21:-0.067426 22:0.0959422 23:-0.285016 24:-0.00994147 25:-0.0681307 26:-0.282796 27:0.00853675 28:-0.0177752 29:-0.0771375 30:-0.0814992 31:-0.519929 32:-0.0369699 33:0.0810014 34:-0.141629 35:-0.0699896 36:-0.318652 37:-0.0472465 38:0.00671222 39:-0.107862 40:-0.0716196 41:-0.0472226 42:-0.162687 43:-0.194032 44:-0.0354171 45:-0.077451 46:0.0233659 47:-0.11067 48:0.0768341 49:-0.11417 50:0.0193552 51:-0.313196 52:-0.0845637 53:-0.011953 54:0.0202268 55:-0.005572 56:0.0928852 57:-0.161226 58:-0.0560827 59:-0.0167302 60:-0.0349443 61:0.259198 62:-0.097371 63:-0.186011 64:-0.0770725 65:-0.103136 66:0.0580131 67:0.112392 68:-0.169348 69:-0.016846 70:-0.0555066 71:-0.0763212 72:0.0409004 73:0.00463102 74:0.0364725 75:-0.0728917 76:-0.330191 77:-0.00768289 78:0.0882569 79:-0.0182054 80:-0.097558 81:-0.237904 82:0.00642703 83:-0.0709966 84:-0.106139 85:-0.0678202 86:-0.172086 87:-0.00337541 88:-0.0762994 89:-0.0558423 90:-0.162469 91:0.0383846 92:-0.049815 93:0.118419 94:-0.0966004 95:-0.0787745 96:-0.187208 97:-0.0224435 98:0.0301067 99:0.0457133 100:-0.0294347 
15354.53882942773 1:-0.496032 2:-0.26671 3:-0.0483475 4:-0.202041 5:0.0538334 6:-0.156341 7:-0.480458 8:0.0656981 9:-0.157814 10:-0.0715493 11:0.0218523 12:-0.338192 13:0.00505968 14:-0.00791849 15:-0.222844 16:0.0835855 17:-0.244325 18:-0.118844 19:-0.0117001 20:-0.080225 21:-0.0548895 22:-0.00340733 23:0.119108 24:-0.0415587 25:0.114583 26:-0.363186 27:0.17698 28:0.0106125 29:-0.0332795 30:0.0364803 31:0.0603306 32:0.0785119 33:-0.280026 34:-0.0977839 35:-0.150544 36:0.282971 37:0.267562 38:-0.0722628 39:0.0501448 40:-0.246724 41:0.371665 42:0.365059 43:0.00530656 44:-0.0197049 45:-0.23437 46:-0.257583 47:-0.510786 48:0.0396478 49:-0.170452 50:-0.0324305 51:-0.114698 52:-0.51306 53:0.143359 54:-0.0964495 55:-0.0244615 56:-0.0535065 57:-0.282104 58:0.0573861 59:0.000729566 60:-0.101124 61:0.16907 62:-0.154637 63:-0.18719 64:-0.0845041 65:-0.0551041 66:0.248461 67:-0.0295543 68:-0.011341 69:-0.138295 70:0.0749746 71:-0.0603733 72:0.143164 73:-0.158981 74:-0.0624506 75:-0.0688465 76:-0.264764 77:0.159755 78:-0.187678 79:0.0116137 80:-0.133286 81:-0.0801802 82:0.107078 83:-0.0536569 84:0.0738808 85:-0.119711 86:0.212166 87:0.127026 88:0.0701241 89:0.0257091 90:-0.252121 91:-0.220531 92:-0.186081 93:0.164439 94:-0.23704 95:-0.0201195 96:-0.105237 97:-0.148865 98:0.0970574 99:-0.162759 100:-0.0823808 
10117.8520495366 1:0.0117545 2:-0.386616 3:-0.0205023 4:-0.0312284 5:0.0497972 6:-0.0788768 7:0.00481147 8:0.241617 9:0.0489105 10:0.09997 11:-0.0448897 12:0.184445 13:0.0449203 14:0.069805 15:-0.0232252 16:0.0897313 17:-0.0745889 18:-0.238385 19:0.0119513 20:-0.0676225 21:0.0988962 22:-0.147785 23:-0.0802161 24:-0.0742993 25:-0.0618866 26:0.015348 27:0.045968 28:-0.167165 29:-0.18428 30:-0.160633 31:-0.0826791 32:-0.00635825 33:-0.315755 34:-0.140457 35:-0.202282 36:-0.240706 37:-0.156113 38:-0.0287028 39:-0.123484 40:-0.179455 41:0.022668 42:-0.112971 43:-0.271524 44:-0.116541 45:-0.107397 46:0.101712 47:-0.181703 48:0.0271798 49:0.0188065 50:-0.122545 51:-0.0889493 52:-0.0622653 53:0.110273 54:0.0777411 55:-0.0743339 56:-0.179366 57:0.149977 58:-0.0770158 59:0.0284397 60:0.0402053 61:0.0561848 62:-0.00558406 63:-0.406479 64:0.006506 65:-0.0653879 66:0.105369 67:-0.0528536 68:0.0523607 69:0.0377411 70:-0.0397426 71:0.0197056 72:0.02192 73:0.144221 74:-0.162602 75:0.0289068 76:-0.105961 77:0.00898556 78:-0.213206 79:-0.271469 80:-0.107827 81:-0.169973 82:-0.232759 83:-0.279025 84:-0.250162 85:-0.103791 86:-0.015802 87:-0.0858059 88:-0.138971 89:-0.250228 90:0.00603992 91:0.022121 92:-0.0420569 93:0.00431661 94:0.078164 95:-0.0692778 96:-0.173627 97:0.122144 98:-0.0978942 99:0.0813447 100:-0.144596 
15332.3660948137 1:-0.986472 2:-0.70321 3:0.0419864 4:0.0476667 5:-0.225977 6:-0.819784 7:-0.640606 8:-0.11951 9:-0.103677 10:-0.223269 11:-0.286422 12:-0.229369 13:-0.252998 14:-0.168053 15:-0.0302455 16:0.18722 17:0.105856 18:-0.112551 19:-0.0895018 20:-0.0354017 21:0.309296 22:0.426548 23:0.237768 24:0.0268602 25:-0.00795621 26:0.209485 27:0.209374 28:0.118518 29:0.0439035 30:0.0932169 31:0.039261 32:-0.324218 33:-0.0981278 34:-0.0171257 35:0.0119682 36:-0.0978987 37:-0.413215 38:-0.179785 39:-0.136319 40:-0.110775 41:-0.287167 42:-0.364374 43:-0.162616 44:-0.116768 45:-0.151669 46:-0.760757 47:-0.477764 48:-0.033474 49:0.0276022 50:-0.219824 51:-0.587231 52:-0.428823 53:-0.349924 54:-0.0622706 55:-0.124713 56:-0.160541 57:-0.0235703 58:-0.31867 59:-0.115101 60:0.00622707 61:0.186624 62:0.10331 63:-0.210482 64:-0.095337 65:-0.0167856 66:0.290686 67:0.327173 68:0.200956 69:-0.0420724 70:-0.0240112 71:0.177428 72:0.118057 73:0.172706 74:-0.0211771 75:0.0507012 76:-0.0073182 77:-0.313318 78:0.0972797 79:-0.0173373 80:-0.00585258 81:-0.114269 82:-0.204151 83:-0.0455274 84:-0.082897 85:-0.0888503 86:-0.270117 87:-0.263353 88:-0.174573 89:-0.114019 90:-0.174817 91:-0.664548 92:-0.303095 93:-0.0680677 94:0.0408569 95:-0.230451 96:-0.484952 97:-0.346427 98:-0.285511 99:-0.0580476 100:-0.125927 
15354.53882942773 1:0.00850588 2:-0.31182 3:-0.539827 4:0.0899945 5:0.0107131 6:-0.121588 7:-0.184972 8:-0.246816 9:0.0750887 10:0.0877284 11:-0.212484 12:0.0317555 13:0.00331899 14:0.00652474 15:0.143721 16:0.0215305 17:0.141073 18:0.232457 19:-0.116438 20:0.00969387 21:0.112057 22:-0.119806 23:-0.0329538 24:-0.101489 25:-0.20085 26:0.0599876 27:-0.0631115 28:-0.119353 29:-0.146468 30:-0.281276 31:0.073532 32:0.00975198 33:-0.0489268 34:-0.140844 35:-0.172518 36:-0.0917487 37:0.0294995 38:0.132816 39:-0.16255 40:-0.189852 41:-0.561781 42:-0.026612 43:0.141584 44:-0.108709 45:-0.199238 46:0.0557875 47:-0.0861612 48:-0.476477 49:0.0556981 50:0.0748613 51:-0.0183711 52:-0.17905 53:-0.158403 54:0.0603359 55:0.208768 56:-0.0659558 57:0.0195173 58:-0.0307335 59:0.0314383 60:0.134245 61:0.127839 62:0.202406 63:0.162067 64:-0.10317 65:0.0453429 66:0.0831511 67:-0.0707225 68:-0.0615896 69:-0.153784 70:-0.185799 71:-0.175929 72:-0.370175 73:-0.147527 74:-0.115242 75:-0.378265 76:-0.0413295 77:-0.108837 78:-0.00212868 79:-0.0926618 80:-0.387219 81:-0.102825 82:0.0925133 83:0.213818 84:-0.0853205 85:-0.336751 86:-0.546744 87:-0.0530616 88:0.206538 89:-0.102067 90:-0.348757 91:0.0235041 92:-0.38677 93:-0.107539 94:0.10963 95:-0.0193178 96:-0.216271 97:-0.459148 98:0.0135954 99:0.0963861 100:0.168101 
15354.53882942773 1:0.188534 2:0.0735649 3:-0.211357 4:-0.0122972 5:0.024658 6:0.137581 7:-0.0415253 8:0.0359151 9:-0.0146753 10:-0.0540063 11:-0.052978 12:0.174241 13:0.00524455 14:0.0216419 15:0.0689119 16:0.0117484 17:0.080701 18:0.0239563 19:-0.0187083 20:0.0481236 21:-0.135642 22:-0.294328 23:-0.0566508 24:-0.0465973 25:-0.0562218 26:0.00387272 27:-0.376393 28:-0.207169 29:-0.10267 30:-0.150434 31:-0.126005 32:-0.25748 33:0.0243736 34:-0.102255 35:-0.199604 36:-0.503082 37:-0.0154712 38:0.0196153 39:-0.135978 40:-0.112216 41:0.0472207 42:-0.0184867 43:-0.123346 44:-0.0221259 45:-0.0279192 46:0.0786706 47:0.0525391 48:-0.0565257 49:-0.192098 50:0.0694169 51:0.000767745 52:-0.0989361 53:-0.326946 54:-0.184201 55:0.0215407 56:-0.298983 57:-0.0194969 58:-0.215621 59:-0.039443 60:-0.0701417 61:-0.293463 62:0.0194353 63:0.0301582 64:-0.0261634 65:0.0140184 66:0.0713415 67:-0.0467413 68:0.0167016 69:0.112963 70:-0.0643974 71:0.194811 72:-0.0441634 73:-0.0636696 74:0.0212343 75:-0.172338 76:-0.0048074 77:-0.153945 78:0.0187028 79:-0.0824876 80:-0.116507 81:-0.132629 82:-0.111527 83:-0.0120062 84:-0.0906477 85:-0.203144 86:-0.0930871 87:-0.0843752 88:-0.196299 89:-0.0657139 90:-0.0607859 91:0.114585 92:0.0436392 93:-0.154551 94:-0.151734 95:0.0719831 96:0.0917398 97:-0.121446 98:0.041702 99:-0.0524527 100:0.0157596 
15354.53882942773 1:0.167861 2:-0.0874021 3:-0.0328157 4:-0.053482 5:-0.0688657 6:0.0246799 7:-0.0200664 8:0.0233551 9:-0.0137662 10:-0.0351969 11:-0.101837 12:0.199459 13:-0.0783453 14:-0.0187909 15:0.015502 16:-0.286785 17:0.0080053 18:-0.048271 19:0.0370645 20:-0.0247081 21:-0.120301 22:-0.0425551 23:-0.0829473 24:-0.0294056 25:-0.0734388 26:-0.103004 27:-0.250223 28:0.140718 29:-0.17036 30:-0.113896 31:0.0547682 32:-0.101963 33:0.0580525 34:-0.124261 35:-0.0834253 36:0.105816 37:-0.199363 38:-0.262708 39:-0.0132858 40:-0.0686773 41:0.0837398 42:-0.104748 43:-0.242936 44:-0.0512765 45:-0.038348 46:0.150832 47:0.100815 48:-0.285679 49:-0.059881 50:-0.0687247 51:0.0369003 52:0.0586614 53:-0.172686 54:-0.0173614 55:0.0165616 56:-0.140239 57:0.218423 58:-0.262879 59:-0.039003 60:0.054074 61:-0.27973 62:0.0409944 63:-0.142615 64:-0.0240273 65:-0.0571917 66:-0.274268 67:-0.368089 68:0.0643762 69:0.0372629 70:-0.108708 71:0.0288201 72:-0.313668 73:0.244732 74:-0.0679305 75:-0.193683 76:0.131089 77:-0.0825292 78:0.123258 79:-0.0689048 80:-0.143569 81:-0.00416994 82:-0.33476 83:-0.0840311 84:-0.0518228 85:0.00514067 86:-0.0422553 87:-0.372515 88:-0.202778 89:-0.122876 90:0.030777 91:-0.0704756 92:-0.0858616 93:-0.183732 94:-0.0898521 95:-0.0946121 96:0.0856683 97:-0.0617296 98:-0.175117 99:-0.0675559 100:-0.0763807 
15294.15617695481 1:-0.0407805 2:0.0469973 3:-7.94506e-05 4:-0.0742879 5:0.0980023 6:0.124919 7:0.194879 8:-0.105347 9:-0.11278 10:-0.0194245 11:-0.0933996 12:0.0670933 13:-0.641406 14:-0.10052 15:-0.114932 16:-0.354351 17:-0.0809833 18:-0.389131 19:0.076769 20:-0.0467373 21:0.129342 22:-0.141043 23:-0.0848788 24:-0.00122837 25:-0.127109 26:0.176529 27:-0.255204 28:0.000936898 29:-0.00390332 30:-0.151274 31:-0.0140029 32:-0.127295 33:0.234717 34:0.0296659 35:-0.0936524 36:-0.409996 37:-0.0594513 38:0.204446 39:-0.122135 40:-0.033637 41:-0.36585 42:-0.247461 43:-0.131844 44:-0.138217 45:-0.0792612 46:0.230868 47:0.110917 48:0.018049 49:0.0160697 50:-0.0371661 51:0.234159 52:0.156533 53:-0.132884 54:-0.150227 55:-0.050595 56:0.00816412 57:0.0443454 58:-0.452585 59:-0.178732 60:0.0028242 61:-0.459561 62:-0.103688 63:-0.359615 64:-0.0213764 65:0.0380298 66:0.0105365 67:-0.0957921 68:-0.164573 69:-0.0109554 70:-0.0558177 71:0.101896 72:-0.136454 73:0.0380667 74:-0.0118724 75:-0.0836626 76:-0.414299 77:-0.203681 78:0.252582 79:0.0653356 80:-0.195556 81:-0.776882 82:-0.335002 83:0.148037 84:-0.0541026 85:-0.0684571 86:-0.52627 87:-0.267182 88:-0.238944 89:-0.11347 90:0.152974 91:-0.103581 92:-0.203581 93:-0.0795806 94:-0.0188373 95:-0.00812562 96:0.230656 97:0.218443 98:-0.248992 99:-0.126921 100:-0.0767047 
3594.463428404231 1:-0.0351726 2:0.0615518 3:0.19172 4:0.0325992 5:-0.000710303 6:-0.12513 7:0.121612 8:0.0188769 9:0.0169737 10:-0.0944835 11:-0.0838739 12:0.122315 13:-0.326012 14:-0.0946262 15:-0.0360935 16:0.244722 17:-0.0761191 18:-0.22456 19:-0.103591 20:0.0299354 21:0.116704 22:-0.12456 23:0.0542317 24:-0.0215624 25:-0.115441 26:-0.120206 27:-0.341935 28:-0.204128 29:-0.0164738 30:-0.0368726 31:-0.219461 32:-0.323099 33:-0.214394 34:-0.113225 35:-0.0419045 36:-0.354325 37:-0.148032 38:-0.111857 39:-0.121336 40:-0.113139 41:-0.246488 42:-0.178654 43:0.218042 44:-0.137659 45:-0.0715753 46:-0.267234 47:0.182246 48:0.185289 49:-0.0882984 50:-0.136324 51:-0.402509 52:0.102775 53:-0.0484236 54:-0.0367832 55:-0.154946 56:-0.0524537 57:0.108934 58:-0.283119 59:-0.064668 60:0.0029615 61:0.18486 62:-0.193603 63:-0.233707 64:-0.0634094 65:0.0468965 66:0.114861 67:-0.237485 68:0.0842595 69:0.0136773 70:0.0364944 71:-0.0653727 72:-0.323931 73:-0.0897237 74:0.043166 75:0.0166641 76:0.0572593 77:-0.183481 78:-0.113897 79:-0.0121867 80:-0.0754229 81:0.0469139 82:0.0308874 83:0.0126702 84:-0.132984 85:-0.131396 86:0.0611317 87:-0.132162 88:0.147386 89:-0.231029 90:-0.118444 91:-0.583032 92:0.0890203 93:0.300352 94:-0.0788775 95:-0.123076 96:-0.324088 97:0.00691721 98:0.055206 99:-0.026115 100:-0.113694 
14911.75594548397 1:-0.139092 2:-0.0499822 3:0.115041 4:-0.0742622 5:-0.0506163 6:-0.50389 7:0.0523201 8:0.0591244 9:-0.104327 10:-0.0621661 11:-0.307383 12:-0.184307 13:-0.102005 14:0.0146072 15:-0.129469 16:-0.317532 17:-0.358249 18:-0.230024 19:-0.0132956 20:-0.0421939 21:-0.333024 22:-0.329113 23:-0.218144 24:-0.0607383 25:-0.194483 26:-0.0185736 27:-0.0942473 28:-0.0229069 29:-0.0653026 30:-0.104519 31:0.0997238 32:0.0625554 33:0.122703 34:-0.0186142 35:0.028845 36:0.445251 37:0.269094 38:-0.12905 39:-0.081086 40:0.0491093 41:0.378798 42:0.0749197 43:-0.438247 44:-0.129007 45:0.0304564 46:-0.112987 47:0.159103 48:0.18986 49:-0.157103 50:-0.0958851 51:-0.116254 52:-0.106078 53:0.01736 54:-0.138854 55:-0.129183 56:-0.193691 57:-0.32596 58:-0.0541596 59:-0.0981721 60:-0.180933 61:-0.399088 62:-0.247437 63:-0.269209 64:-0.0265948 65:-0.079442 66:-0.0637792 67:-0.209544 68:-0.288171 69:0.0413106 70:-0.017621 71:0.0139393 72:0.0330043 73:-0.0796739 74:-0.0086911 75:-0.0314994 76:0.0484576 77:0.0256048 78:0.0880018 79:-0.0832004 80:-0.0623837 81:0.303007 82:0.143436 83:-0.118025 84:-0.0100959 85:-0.00517445 86:0.165922 87:0.112253 88:-0.353 89:0.0578913 90:-0.00168904 91:-0.109045 92:0.152147 93:0.132649 94:-0.216714 95:-0.0314384 96:-0.12364 97:-0.0717291 98:0.0517118 99:-0.238125 100:-0.0948345 
15354.53882942773 1:0.145274 2:-0.128573 3:0.0583312 4:0.0159272 5:-0.138403 6:0.169981 7:-0.217025 8:0.133887 9:0.0261031 10:-0.0956146 11:0.0148271 12:-0.0803999 13:0.023904 14:-0.0556371 15:-0.0594001 16:-0.154008 17:0.0757362 18:-0.0158416 19:-0.0653348 20:-0.114666 21:0.0855173 22:-0.118069 23:-0.402927 24:-0.0696035 25:-0.0542403 26:-0.0574354 27:-0.13545 28:-0.243286 29:0.00760874 30:0.00510193 31:-0.279731 32:-0.0830611 33:-0.0614898 34:-0.0800878 35:-0.0356771 36:-0.329164 37:0.0614632 38:-0.00926582 39:-0.147633 40:0.087911 41:0.0725951 42:0.0965247 43:-0.154679 44:-0.189255 45:0.0429919 46:-0.0349306 47:-0.162178 48:0.0151339 49:0.0823993 50:-0.125265 51:0.0392497 52:-0.139766 53:-0.00116033 54:0.0106628 55:-0.03928 56:0.107241 57:0.0696191 58:0.0566148 59:-0.0892581 60:0.00419289 61:-0.113576 62:0.156944 63:0.0890237 64:-0.166446 65:-0.125432 66:-0.174339 67:-0.116178 68:-0.234651 69:-0.0732869 70:-0.197056 71:0.0172823 72:-0.142318 73:-0.0699001 74:0.0394112 75:-0.0711644 76:0.0376324 77:-0.261372 78:-0.100681 79:-0.0724065 80:-0.0538338 81:-0.124171 82:0.137206 83:-0.112382 84:-0.170417 85:0.0591554 86:-0.0322111 87:0.0992058 88:-0.0883203 89:-0.126954 90:0.0124268 91:0.190863 92:-0.0474441 93:0.0800957 94:0.0712144 95:-0.173436 96:0.163053 97:-0.0780727 98:0.080674 99:0.0332284 100:-0.0546548 
15354.53882942773 1:-1.42846 2:-0.254475 3:0.199976 4:-0.0700266 5:-0.259859 6:-1.56064 7:-0.359452 8:-0.005531 9:-0.0177758 10:-0.19404 11:-0.883977 12:-0.358749 13:-0.0806437 14:0.00161642 15:-0.147236 16:-0.0312447 17:0.119067 18:-0.121702 19:-0.189919 20:-0.054125 21:0.270808 22:0.105723 23:-0.178571 24:-0.170727 25:-0.0977326 26:0.262753 27:-0.122435 28:-0.305614 29:0.0704507 30:-0.0110195 31:0.191458 32:-0.0229633 33:0.0509904 34:0.0333372 35:0.110713 36:0.158205 37:0.042948 38:-0.03407 39:-0.0363231 40:0.121409 41:0.00879413 42:-0.099475 43:0.0187266 44:-0.137395 45:-0.0370705 46:-0.845191 47:-0.160371 48:0.037144 49:-0.0139321 50:-0.249093 51:-1.07671 52:-0.358817 53:-0.105614 54:0.00893408 55:-0.0601415 56:-0.795902 57:-0.288731 58:-0.228451 59:0.01538 60:-0.0593878 61:-0.1104 62:0.0438639 63:-0.387962 64:-0.136915 65:-0.0659987 66:0.268244 67:0.0965501 68:-0.170707 69:-0.119904 70:-0.0665588 71:0.247328 72:-0.0714398 73:0.163493 74:-0.0041551 75:0.0115178 76:0.170906 77:-0.0668532 78:0.23359 79:-0.0162133 80:-0.050132 81:0.176877 82:0.170303 83:-0.0523784 84:-0.054215 85:-0.026051 86:0.0707384 87:0.0472477 88:-0.100756 89:-0.0140747 90:-0.0755956 91:-0.591866 92:-0.341308 93:0.150647 94:-0.044338 95:-0.117794 96:-0.633783 97:-0.288676 98:-0.131871 99:0.00222122 100:-0.055051 
9565.563976212616 1:-0.14686 2:0.0125072 3:-0.0365546 4:-0.0940644 5:-0.0595613 6:0.0385563 7:0.110394 8:0.0973451 9:-0.0502273 10:0.0315191 11:0.0836648 12:0.134004 13:0.00103037 14:-0.0128402 15:-0.0137581 16:0.118734 17:-0.0241834 18:0.108443 19:-0.0483202 20:-0.0757972 21:0.0663524 22:-0.041627 23:0.0683807 24:-0.0709174 25:-0.0619377 26:-0.0565285 27:-0.237671 28:-0.372298 29:-0.016963 30:-0.0917014 31:-0.0900799 32:-0.260664 33:-0.290076 34:0.00532359 35:-0.102427 36:-0.20434 37:-0.160704 38:-0.0244111 39:-0.0833513 40:-0.0819989 41:-0.15963 42:0.0201454 43:-0.206041 44:-0.114678 45:-0.0486319 46:-0.116669 47:-0.153393 48:-0.0450969 49:0.0082491 50:-0.107937 51:-0.391718 52:-0.0110655 53:0.168717 54:0.0294046 55:0.00640242 56:-0.310072 57:0.200818 58:0.0389703 59:-0.0698834 60:-0.0410326 61:0.124794 62:0.067475 63:-0.088081 64:-0.0942115 65:-0.0616354 66:0.0311981 67:-0.266165 68:-0.015398 69:-0.128184 70:-0.0115783 71:0.0385279 72:-0.365866 73:-0.199151 74:-0.0887938 75:-0.0555105 76:0.163112 77:-0.0759694 78:-0.136348 79:-0.00720621 80:-0.0966007 81:-0.00830556 82:-0.0175306 83:0.0251631 84:-0.0653496 85:-0.109648 86:-0.246369 87:0.0223888 88:-0.219623 89:-0.0508172 90:-0.152968 91:0.0369276 92:0.0366671 93:-0.0212562 94:-0.0261487 95:-0.122298 96:-0.119757 97:0.0711527 98:0.101082 99:-0.0445239 100:0.0468183 
15354.53882942773 1:0.0747499 2:-0.305506 3:0.130251 4:-0.201264 5:-0.0483553 6:0.196017 7:0.107388 8:0.0591914 9:-0.0629119 10:0.0412823 11:-0.0855598 12:0.129035 13:0.103114 14:-0.0876674 15:0.0532114 16:-0.0847797 17:0.0187388 18:-0.00874389 19:-0.123865 20:-0.0998266 21:-0.131319 22:-0.0898861 23:-0.302727 24:-0.00976555 25:-0.2729 26:-0.274578 27:-0.136228 28:-0.276485 29:0.0433293 30:-0.185645 31:-0.0291469 32:0.0320667 33:-0.0760606 34:0.0396045 35:-0.0147713 36:0.0243934 37:-0.0593262 38:-0.0413935 39:0.0309808 40:0.0051098 41:-0.00107642 42:-0.145669 43:-0.297822 44:-0.00922067 45:0.0142926 46:-0.108111 47:-0.327767 48:-0.0638229 49:-0.0507419 50:-0.0506649 51:0.0330558 52:-0.0623998 53:-0.116444 54:-0.130456 55:0.0336125 56:-0.0406617 57:0.0632038 58:0.126973 59:-0.120759 60:0.0473425 61:0.00310571 62:0.0863943 63:0.110064 64:-0.0485076 65:-0.0738864 66:-0.0431482 67:-0.220549 68:-0.102103 69:-0.0540246 70:-0.151752 71:-0.219555 72:-0.183024 73:-0.180884 74:0.00322308 75:-0.18478 76:0.00117119 77:0.0881839 78:-0.108378 79:0.0556948 80:-0.12869 81:0.143061 82:0.0675445 83:0.0558713 84:-0.0556475 85:-0.0197028 86:-0.0986754 87:0.0648196 88:-0.0953316 89:-0.119575 90:0.00962688 91:0.037956 92:-0.233374 93:-0.0706798 94:-0.0691254 95:-0.0407881 96:0.144962 97:-0.0546766 98:-0.0815026 99:-0.0351261 100:0.0130457 
15354.53882942773 1:-0.153067 2:-0.189017 3:-0.0324259 4:-0.00687372 5:-0.172014 6:-0.105149 7:-0.196087 8:0.167041 9:-0.0550508 10:-0.141035 11:-0.195141 12:-0.2238 13:0.0810953 14:-0.120884 15:-0.0895642 16:-0.22402 17:-0.0833591 18:-0.112315 19:0.0142582 20:-0.054946 21:-0.153973 22:0.136556 23:-0.115644 24:0.000314335 25:-0.0459934 26:-0.0564668 27:0.069481 28:-0.23764 29:-0.00180231 30:-0.0676261 31:0.10876 32:-0.0293353 33:-0.147968 34:-0.0504299 35:0.0249524 36:0.292579 37:-0.030844 38:0.0591297 39:-0.0904483 40:0.091513 41:0.165259 42:0.257059 43:-0.0294637 44:-0.0689079 45:0.102172 46:-0.232526 47:-0.0568757 48:-0.110033 49:-0.0688618 50:-0.0481421 51:-0.16038 52:-0.10815 53:0.175207 54:-0.103162 55:-0.0714242 56:0.0538348 57:-0.129929 58:0.227956 59:-0.0574916 60:-0.0576284 61:-0.0203729 62:0.0192645 63:-0.0176119 64:0.00376128 65:0.106321 66:-0.109269 67:0.118305 68:-0.223134 69:-0.0161457 70:-0.00260222 71:-0.164171 72:0.0232772 73:-0.276845 74:-0.0260845 75:-0.163215 76:0.0739158 77:-0.00859959 78:-0.108241 79:-0.0833742 80:-0.160245 81:0.213903 82:-0.176289 83:-0.0767566 84:-0.00740734 85:-0.0685953 86:0.0762541 87:-0.0491155 88:-0.163469 89:-0.0492714 90:-0.0638336 91:-0.0671031 92:-0.0474204 93:-0.116126 94:-0.169719 95:-0.0764901 96:0.0184445 97:0.100153 98:0.0963583 99:-0.160677 100:-0.0595659 
15354.53882942773 1:-0.46583 2:0.152419 3:-0.0392586 4:-0.0160031 5:-0.135545 6:-0.0488776 7:-0.0718367 8:-0.212983 9:-0.223375 10:-0.147756 11:0.0311682 12:0.00663408 13:-0.241923 14:-0.0407453 15:-0.0890722 16:-0.300693 17:-0.305067 18:-0.325134 19:-0.00400909 20:0.0191724 21:-0.104805 22:-0.263808 23:-0.187794 24:0.00533095 25:0.0375874 26:0.0323933 27:-0.0858379 28:0.0206216 29:-0.0362395 30:-0.0525384 31:0.19505 32:0.0580356 33:0.0511537 34:-0.0154073 35:-0.071698 36:0.1923 37:0.0579668 38:0.306064 39:-0.0486621 40:-0.00765502 41:0.170317 42:0.0153212 43:0.25796 44:-0.0431379 45:0.0496411 46:-0.168002 47:-0.0779949 48:-0.214905 49:-0.130273 50:-0.031918 51:0.037266 52:-0.115602 53:-0.251911 54:-0.217339 55:-0.0935713 56:0.0495801 57:0.00180566 58:-0.0323589 59:-0.100233 60:-0.0938333 61:-0.255618 62:-0.0855758 63:-0.129784 64:0.00598664 65:-0.0299591 66:-0.266523 67:-0.0636608 68:-0.0440162 69:0.0691095 70:-0.0872873 71:0.06061 72:-0.120971 73:-0.0548475 74:0.0503777 75:-0.171901 76:0.148591 77:0.0169773 78:-0.0242733 79:-0.0390106 80:-0.0422567 81:0.086591 82:0.0572418 83:0.282895 84:-0.0404658 85:-0.0281653 86:-0.0134841 87:-0.0199187 88:0.173813 89:0.0492426 90:-0.0279114 91:-0.367926 92:-0.0275461 93:0.00962624 94:-0.0189313 95:-0.179371 96:-0.0676303 97:-0.0441896 98:-0.0921706 99:-0.134296 100:-0.138335 
15354.53882942773 1:-0.371923 2:-0.0810583 3:-0.175372 4:-0.0562534 5:0.114272 6:-0.312706 7:0.0721782 8:0.100562 9:0.0474937 10:-0.026056 11:0.0415457 12:0.183156 13:0.104146 14:0.126427 15:-0.0745348 16:0.313265 17:-0.0346746 18:-0.0451187 19:0.0570322 20:-0.0950028 21:0.16983 22:-0.0346235 23:0.140285 24:-0.132105 25:-0.036185 26:-0.159749 27:-0.140572 28:-0.110811 29:-0.0995155 30:-0.062372 31:-0.184224 32:-0.224686 33:-0.386268 34:-0.152843 35:-0.0740786 36:-0.189813 37:-0.301647 38:-0.114921 39:-0.245205 40:-0.162132 41:-0.203297 42:-0.411398 43:-0.0266521 44:-0.197121 45:-0.149742 46:0.0168508 47:0.00772816 48:0.0445796 49:0.0121935 50:0.0724655 51:-0.20365 52:0.0642742 53:0.0746924 54:0.0331579 55:0.0546267 56:0.177394 57:0.108308 58:-0.0451562 59:0.0377489 60:-0.0151003 61:0.292174 62:-0.0272037 63:-0.0877713 64:-0.0500409 65:-0.114136 66:0.115534 67:-0.00720641 68:0.104682 69:-0.13369 70:-0.130197 71:-0.269788 72:-0.199887 73:-0.242641 74:-0.112009 75:-0.139419 76:-0.649834 77:-0.259797 78:-0.321952 79:-0.0794672 80:-0.124012 81:-0.311449 82:-0.219574 83:0.00228854 84:-0.151078 85:-0.128457 86:0.0394012 87:-0.0550672 88:0.074657 89:-0.350658 90:-0.112636 91:-0.22337 92:-0.0283328 93:-0.136162 94:0.00300487 95:-0.0389793 96:-0.181715 97:0.0209568 98:0.0325611 99:0.0148502 100:-0.00321952 
6397.984008712487 1:0.104953 2:0.112282 3:-0.0589112 4:0.0551747 5:-0.0983995 6:-0.181904 7:-0.0843364 8:0.0095958 9:0.0562206 10:-0.109514 11:-0.353026 12:-0.276499 13:-0.126418 14:-0.0789872 15:-0.0626041 16:0.168148 17:0.00704773 18:-0.201348 19:-0.314983 20:-0.0786771 21:0.274423 22:0.133062 23:-0.190772 24:-0.320979 25:-0.057203 26:-0.145877 27:-0.243357 28:-0.0158752 29:-0.109449 30:0.0809342 31:-0.371369 32:-0.197908 33:0.00798391 34:0.0719151 35:-0.0220526 36:-0.189337 37:0.0881925 38:0.0505303 39:0.0160269 40:-0.0619673 41:0.110856 42:0.258867 43:-0.129543 44:0.0154278 45:-0.130393 46:-0.0677947 47:0.158992 48:-0.0962539 49:0.0196728 50:0.00489873 51:-0.276562 52:-0.0779884 53:0.0816371 54:0.0760922 55:-0.0181315 56:-0.203582 57:-0.178591 58:0.134526 59:-0.0637026 60:-0.123113 61:0.156625 62:-0.128734 63:-0.139207 64:-0.1743 65:-0.156554 66:0.170427 67:-0.0118723 68:-0.423157 69:-0.17119 70:-0.0920461 71:-0.1635 72:-0.120283 73:-0.109909 74:-0.121266 75:0.00655399 76:-0.0183862 77:-0.192275 78:0.143982 79:0.0127989 80:-0.00800805 81:-0.0190754 82:0.13212 83:-0.103849 84:-0.0437132 85:-0.0360467 86:0.141764 87:0.182837 88:-0.295772 89:-0.106827 90:0.103997 91:0.126232 92:0.0212611 93:-0.196014 94:-0.0493163 95:-0.00180323 96:-0.18214 97:-0.116091 98:-0.188083 99:-0.033309 100:-0.0781015 
15354.53882942773 1:0.0632129 2:-0.119055 3:-0.107076 4:0.0492327 5:-0.0024367 6:0.0746163 7:-0.401474 8:-0.384882 9:-0.00239597 10:-0.0464943 11:0.018576 12:-0.259413 13:-0.210286 14:-0.00646291 15:-0.180933 16:-0.182545 17:-0.364016 18:-0.120143 19:-0.0438421 20:-0.203981 21:0.0411034 22:-0.265483 23:0.00815345 24:-0.137175 25:-0.0199392 26:0.133083 27:0.208052 28:0.042212 29:-0.17327 30:-0.0330444 31:-0.0932094 32:0.294183 33:0.101178 34:-0.119713 35:-0.068081 36:-0.403547 37:0.0284819 38:0.0721065 39:-0.0535663 40:0.0599058 41:-0.178397 42:0.0768113 43:-0.0488624 44:-0.0325403 45:0.0516038 46:0.0687258 47:-0.255163 48:-0.136413 49:-0.0157996 50:-0.116074 51:0.050894 52:-0.325357 53:-0.0215643 54:-0.0491296 55:-0.039224 56:0.00623229 57:-0.0200877 58:-0.16953 59:-0.0784816 60:-0.0226996 61:-0.202627 62:-0.0918634 63:-0.0880021 64:-0.0972582 65:-0.122261 66:0.0104356 67:0.0959755 68:0.148424 69:-0.00763406 70:-0.124542 71:0.140998 72:0.118644 73:0.11479 74:-0.0165366 75:-0.0903228 76:-0.0540233 77:0.182512 78:-0.0591467 79:-0.0176094 80:-0.0543987 81:-0.466723 82:-0.214562 83:-0.109694 84:-0.137251 85:0.0403135 86:-0.0159524 87:-0.367835 88:-0.128455 89:-0.140081 90:0.126599 91:0.0431797 92:-0.264212 93:-0.302013 94:-0.0749932 95:-0.10149 96:0.0430385 97:-0.388409 98:-0.408717 99:0.0184246 100:-0.062346 
15354.53882942773 1:0.12656 2:0.0877939 3:0.0514788 4:-0.108846 5:-0.0174127 6:0.114659 7:-0.0898538 8:0.229914 9:0.0608096 10:0.043199 11:-0.069733 12:-0.194841 13:0.174497 14:-0.0251723 15:-0.0281239 16:-0.306613 17:-0.456851 18:-0.129747 19:-0.0560704 20:0.019738 21:-0.244478 22:-0.167147 23:-0.188338 24:-0.146381 25:-0.0344989 26:0.0271285 27:0.164036 28:-0.397826 29:-0.0913373 30:-0.0999348 31:-0.0571133 32:0.108143 33:-0.295394 34:-0.028278 35:-0.179161 36:0.071272 37:-0.0504898 38:-0.0405353 39:0.0326315 40:-0.154126 41:-0.0272472 42:-0.0697831 43:-0.0287351 44:0.062469 45:-0.090508 46:0.115764 47:0.202404 48:0.0593164 49:-0.122859 50:-0.0300585 51:0.0701865 52:-0.0268499 53:-0.152642 54:0.0168917 55:0.0228013 56:-0.0233033 57:-0.0978997 58:-0.138423 59:-0.0277855 60:-0.0775348 61:-0.269669 62:-0.442061 63:-0.0362843 64:0.0394191 65:-0.145047 66:-0.0467844 67:-0.255188 68:0.0903342 69:-0.0412785 70:-0.130642 71:0.0312873 72:0.0709203 73:-0.0953856 74:-0.0764244 75:-0.0684953 76:-0.0977772 77:0.0491288 78:-0.235081 79:-0.0745396 80:-0.0129003 81:-0.0247606 82:-0.00128338 83:0.0343541 84:-0.0907869 85:-0.109649 86:-0.098467 87:0.0510279 88:0.034051 89:-0.0568521 90:-0.0411388 91:0.178482 92:0.188276 93:-0.0426761 94:-0.0509236 95:0.0276288 96:0.102609 97:-0.11803 98:0.239063 99:0.0937047 100:0.0314684 
15354.53882942773 1:0.0833568 2:-0.0232592 3:-0.00478736 4:0.00379346 5:0.0907523 6:-0.35168 7:-0.0759689 8:-0.072727 9:0.0343471 10:-0.00713825 11:-0.00895656 12:0.184976 13:-0.213186 14:-0.0276923 15:-0.0438497 16:0.0226326 17:0.0242867 18:-0.100115 19:0.0361116 20:-0.0591855 21:-0.196421 22:-0.351107 23:0.142905 24:-0.107233 25:-0.134107 26:-0.135706 27:-0.237041 28:0.0510715 29:-0.15409 30:-0.174858 31:0.0726673 32:-0.00420549 33:0.0352703 34:-0.141509 35:-0.0888943 36:0.10724 37:-0.0355806 38:-0.278734 39:-0.200319 40:-0.0905061 41:0.0694316 42:-0.114925 43:-0.33184 44:-0.102501 45:0.0148402 46:-0.0645239 47:-0.0748756 48:-0.0613977 49:-0.0696266 50:0.0212373 51:-0.124863 52:-0.215917 53:-0.42232 54:-0.00415925 55:-0.11782 56:0.0338567 57:0.114647 58:-0.268486 59:0.0337193 60:-0.192848 61:-0.124089 62:0.14198 63:0.0167491 64:0.0541119 65:-0.00816082 66:-0.015036 67:-0.0577361 68:0.182759 69:-0.0877615 70:-0.038016 71:0.0767632 72:-0.124874 73:0.0668379 74:-0.157658 75:-0.0915963 76:-0.111473 77:-0.024454 78:0.0845289 79:-0.0784499 80:-0.0817307 81:0.0695708 82:-0.0962378 83:-0.197768 84:-0.14808 85:0.0115432 86:-0.0291444 87:-0.0540808 88:-0.121465 89:-0.161841 90:0.0751025 91:0.0129501 92:-0.0967492 93:-0.194841 94:-0.0860739 95:0.0045946 96:-0.18835 97:-0.271726 98:-0.777255 99:0.0183754 100:-0.0806613 
3370.35959569426 1:0.153146 2:0.143319 3:-0.0367908 4:0.0104521 5:-0.0936295 6:0.254777 7:0.0755765 8:0.0477417 9:0.000728565 10:-0.139325 11:-0.268287 12:-0.416972 13:-0.0187521 14:-0.048223 15:-0.0118766 16:-0.210895 17:-0.371708 18:-0.105843 19:-0.117913 20:0.0146842 21:0.036079 22:-0.150115 23:0.103033 24:-0.163545 25:-0.0328359 26:-0.0328336 27:0.0428471 28:-0.0357937 29:-0.0726598 30:-0.134088 31:-0.193271 32:0.0331289 33:-0.110774 34:-0.0704535 35:-0.140021 36:-0.372091 37:0.0431775 38:-0.139496 39:-0.0276507 40:0.0634931 41:-0.236192 42:-0.0975305 43:-0.00213341 44:0.103358 45:-0.00434575 46:0.270238 47:0.120657 48:-0.163376 49:-0.126262 50:-0.0444858 51:0.172106 52:0.0835801 53:0.0294162 54:-0.217345 55:-0.110196 56:-0.307878 57:-0.369858 58:-0.0549132 59:-0.115584 60:-0.058698 61:-0.4024 62:-0.124116 63:-0.287772 64:0.000117045 65:-0.0565651 66:0.0948108 67:-0.068447 68:0.0510143 69:0.0274248 70:-0.0573884 71:-0.0128443 72:0.0610331 73:0.0161995 74:-0.0299339 75:-0.0694639 76:-0.329423 77:-0.0159211 78:0.0690815 79:-0.0497059 80:-0.0666796 81:-0.287638 82:-0.109775 83:-0.00899977 84:0.0278172 85:-0.0231644 86:-0.0280908 87:-0.159524 88:0.0975298 89:0.110428 90:-0.0181462 91:0.0900495 92:0.213138 93:0.0498986 94:-0.109852 95:-0.104393 96:0.13106 97:0.0471975 98:0.0298642 99:-0.160309 100:-0.108461 
15354.53882942773 1:-0.101157 2:-0.0961981 3:-0.0562397 4:-0.122656 5:-0.268954 6:-0.300064 7:-0.193802 8:-0.00802662 9:-0.0905927 10:-0.137508 11:0.0162029 12:0.0627293 13:-0.0508347 14:-0.0625163 15:-0.0306368 16:0.138548 17:0.0214065 18:-0.167553 19:-0.104256 20:-0.0596189 21:-0.143803 22:-0.155452 23:-0.172111 24:-0.0859421 25:-0.0572287 26:0.120392 27:0.115894 28:-0.0346769 29:-0.0299296 30:-0.000341353 31:-0.0733149 32:0.0392486 33:-0.0170236 34:0.0142413 35:0.0185435 36:-0.00257163 37:-0.0206745 38:0.10219 39:0.090635 40:0.0280924 41:-0.0825661 42:-0.250836 43:-0.103955 44:-0.0282742 45:0.0176225 46:-0.0228608 47:-0.163715 48:-0.192373 49:-0.151074 50:-0.108008 51:-0.342386 52:-0.362312 53:-0.0279173 54:-0.0648414 55:-0.0819429 56:-0.0253625 57:-0.0630569 58:-0.047259 59:0.0619901 60:-0.0915079 61:0.12552 62:-0.0643044 63:-0.0397199 64:0.0049928 65:0.0106026 66:-0.128819 67:-0.131353 68:0.0230108 69:-0.0394687 70:0.0193418 71:0.112384 72:0.252508 73:-0.106874 74:0.0125177 75:0.00202067 76:0.0392963 77:0.159868 78:-0.0407651 79:-0.0822269 80:-0.0709633 81:-0.159454 82:-0.0539409 83:0.0821234 84:-0.17214 85:-0.0452689 86:-0.238243 87:-0.326789 88:-0.059664 89:-0.130388 90:-0.0285812 91:0.0624685 92:0.0729302 93:-0.177166 94:-0.112553 95:-0.181764 96:-0.238376 97:-0.228143 98:-0.0775022 99:-0.0956715 100:-0.114377 
15354.53882942773 1:0.197829 2:-0.030182 3:-0.150858 4:0.00649968 5:-0.123447 6:0.280481 7:-0.213863 8:-0.216134 9:0.0409997 10:-0.188484 11:0.234006 12:-0.0527985 13:-0.268311 14:-0.0215672 15:-0.0905446 16:0.0103432 17:0.0967654 18:-0.106892 19:-0.140996 20:-0.0177853 21:-0.731677 22:-0.0246813 23:0.230917 24:-0.159613 25:-0.0615052 26:-0.810254 27:-0.0498733 28:0.245071 29:-0.0279177 30:-0.115547 31:-0.490112 32:-0.103694 33:-0.108408 34:-0.0460955 35:0.00963594 36:-0.0854626 37:0.0402847 38:-0.285496 39:-0.0370917 40:0.100365 41:0.0658662 42:0.0337793 43:-0.0537287 44:-0.0263495 45:0.0278318 46:0.0205294 47:-0.00774094 48:-0.088715 49:-0.105925 50:-0.190889 51:0.283122 52:-0.05476 53:-0.207419 54:0.0398298 55:-0.286563 56:0.365603 57:0.0174628 58:-0.344033 59:-0.0294957 60:-0.0460372 61:0.0707744 62:0.231559 63:-0.128423 64:-0.0208386 65:0.0239984 66:-0.615961 67:0.086287 68:0.29402 69:-0.0558305 70:-0.127359 71:-0.509132 72:-0.356522 73:0.288837 74:-0.016871 75:-0.045552 76:-0.662088 77:-0.468067 78:-0.0629063 79:-0.0354762 80:0.0194379 81:-0.408757 82:-0.183482 83:-0.677056 84:-0.107121 85:0.0720363 86:-0.182407 87:-0.120229 88:-0.24265 89:-0.123011 90:-0.0202683 91:0.206846 92:-0.122905 93:-0.158404 94:-0.0224524 95:-0.14986 96:0.284105 97:-0.247331 98:-0.124255 99:0.0389102 100:-0.168541 
11168.01491642105 1:0.142089 2:0.184262 3:-0.0554448 4:-0.00447507 5:-0.136071 6:0.211045 7:-0.234469 8:0.0842282 9:-0.0551728 10:-0.164756 11:0.109331 12:-0.350896 13:0.0566186 14:-0.0509001 15:-0.014211 16:-0.170905 17:-0.0624651 18:0.199182 19:-0.0537029 20:0.0355875 21:-0.155735 22:0.196355 23:0.114572 24:-0.102251 25:0.10261 26:-0.469471 27:0.0187522 28:-0.246314 29:-0.144512 30:-0.03837 31:-0.272106 32:-0.269158 33:-0.441641 34:-0.124198 35:-0.125071 36:-0.130498 37:-0.202973 38:-0.437308 39:0.0578844 40:-0.0981917 41:0.106041 42:-0.063718 43:-0.117015 44:0.0142836 45:-0.0590789 46:0.164282 47:0.139629 48:-0.252301 49:-0.0146151 50:-0.0699525 51:0.153641 52:0.00720893 53:-0.0808099 54:0.00593807 55:-0.0759536 56:0.138207 57:-0.338373 58:0.125439 59:-0.00519408 60:0.0415165 61:-0.149329 62:-0.165754 63:0.138015 64:-0.0835946 65:0.0596768 66:-0.100977 67:0.0399668 68:0.0204244 69:-0.124815 70:0.0156036 71:-0.264107 72:0.0216547 73:0.0595389 74:-0.0866955 75:-0.0666543 76:-0.479375 77:-0.125875 78:-0.339047 79:-0.00983568 80:-0.127852 81:-0.165768 82:-0.0279186 83:-0.613546 84:-0.0573545 85:-0.247711 86:0.25547 87:0.29021 88:-0.246225 89:-0.0995535 90:-0.155184 91:-0.000998913 92:0.15514 93:-0.0159282 94:-0.0115623 95:-0.105991 96:0.0177232 97:0.00939437 98:0.102708 99:-0.0169687 100:-0.0729358 
14257.70301794574 1:0.176847 2:0.112815 3:-0.310145 4:0.0738033 5:0.0309923 6:0.159733 7:0.0459102 8:-0.0742465 9:0.0394528 10:0.100722 11:0.178576 12:-0.0130183 13:0.0563145 14:0.052181 15:0.0218278 16:0.151162 17:-0.0322562 18:0.28574 19:0.0536765 20:-0.0453046 21:0.042171 22:-0.0811497 23:0.270909 24:-0.1827 25:-0.123525 26:-0.25286 27:-0.0613874 28:-0.124077 29:-0.254399 30:-0.139719 31:-0.594755 32:-0.26909 33:-0.377912 34:-0.142478 35:-0.195207 36:-0.783311 37:-0.321599 38:-0.587104 39:-0.104637 40:-0.147282 41:-0.77299 42:-0.231062 43:-0.4979 44:-0.0925329 45:-0.154431 46:0.0390717 47:0.130173 48:0.0343711 49:0.00041775 50:-0.117001 51:0.0803505 52:0.110673 53:0.165466 54:-0.0387666 55:-0.0115955 56:0.135739 57:0.0452495 58:0.090333 59:0.0607486 60:-0.0145764 61:0.131298 62:-0.120223 63:0.0767684 64:-0.0194663 65:-0.033501 66:0.0655824 67:-0.106071 68:-0.0336728 69:-0.154019 70:-0.0687984 71:-0.050053 72:-0.0728402 73:-0.277851 74:-0.220343 75:-0.0438358 76:-0.30077 77:-0.221048 78:-0.254941 79:-0.0914243 80:-0.0388962 81:-0.40781 82:-0.18032 83:-0.307258 84:0.0357436 85:-0.186342 86:-0.362078 87:0.140908 88:-0.30429 89:-0.0497887 90:-0.273432 91:0.0222694 92:0.00394421 93:-0.0913402 94:0.0837747 95:-0.00563249 96:0.136359 97:0.178637 98:0.149835 99:-0.0348383 100:-0.0299124 
11249.41593525125 1:0.136437 2:-0.182224 3:-0.0902087 4:-0.0681844 5:0.00726803 6:0.0018087 7:0.033016 8:-0.133098 9:-0.0155114 10:-0.0658827 11:-0.124466 12:0.197341 13:0.0625377 14:0.00542522 15:-0.0256597 16:-0.0943717 17:0.147461 18:-0.01533 19:-0.00870741 20:-0.0766222 21:-0.0579555 22:-0.0775001 23:-0.0491004 24:-0.0313328 25:0.0299322 26:0.0739346 27:-0.127164 28:-0.0517651 29:-0.0143895 30:-0.0356559 31:-0.153849 32:-0.128158 33:0.131709 34:-0.0280448 35:-0.0847155 36:-0.0660598 37:-0.207383 38:-0.152838 39:-0.172076 40:-0.149143 41:0.127749 42:-0.0602103 43:-0.186406 44:-0.175589 45:-0.120919 46:0.0859425 47:-0.175036 48:-0.220558 49:-0.0231477 50:-0.0688829 51:-0.0621371 52:-0.0247763 53:-0.0929428 54:0.00591577 55:-0.135641 56:-0.101578 57:0.124285 58:0.137446 59:-0.0176812 60:-0.191065 61:-0.0233358 62:0.0662383 63:-0.0289295 64:-0.0523932 65:-0.0674293 66:0.0680031 67:-0.111094 68:-0.285032 69:0.00878087 70:0.0367407 71:0.175612 72:-0.0585288 73:0.0357203 74:-0.0281806 75:-0.00780815 76:-0.200556 77:-0.012386 78:0.123596 79:-0.0699654 80:0.0292734 81:-0.410064 82:-0.103942 83:-0.0414395 84:-0.100887 85:-0.00687039 86:0.0934663 87:0.0801617 88:0.160537 89:-0.0601282 90:-0.167858 91:-0.0802221 92:-0.234755 93:-0.37819 94:-0.00393037 95:-0.0782419 96:0.00907339 97:-0.0743451 98:-0.0640492 99:-0.0311151 100:-0.063477 
15347.25755617809 1:-0.189008 2:-0.00997429 3:-0.0702605 4:-0.0966466 5:0.0118007 6:-0.11792 7:-0.0160355 8:-0.209825 9:-0.0946898 10:-0.0636368 11:-0.0428889 12:-0.0981294 13:-0.457662 14:-0.0249107 15:0.00661345 16:-0.0905924 17:-0.0620388 18:-0.163296 19:-0.0144959 20:0.0139449 21:-0.0214049 22:0.0505893 23:-0.052158 24:-0.0589573 25:-0.0529736 26:0.206721 27:-0.0315113 28:0.17624 29:-0.0527814 30:-0.0983113 31:0.120179 32:-0.199295 33:0.188941 34:0.0338856 35:-0.0699366 36:-0.076246 37:0.0283274 38:-0.083722 39:-0.0658019 40:-0.113448 41:-0.157941 42:0.142781 43:-0.338447 44:-0.171747 45:-0.163413 46:-0.146222 47:-0.1574 48:-0.172101 49:0.0081315 50:-0.128169 51:-0.246029 52:0.134197 53:-0.478181 54:-0.0531109 55:-0.156929 56:-0.348174 57:0.0509997 58:-0.449792 59:-0.0298339 60:-0.0318549 61:-0.207088 62:-0.153039 63:-0.397354 64:-0.105416 65:-0.00168351 66:0.100513 67:-0.0693427 68:-0.19204 69:-0.0681619 70:0.00905874 71:0.236122 72:0.065002 73:0.247246 74:0.00150288 75:-0.0270585 76:0.142999 77:-0.0147702 78:0.341522 79:-0.0135587 80:-0.11573 81:0.0390525 82:-0.247349 83:0.0280219 84:-0.0766129 85:-0.131217 86:0.141536 87:-0.0678528 88:-0.0980316 89:-0.114392 90:-0.0626861 91:-0.214948 92:0.0603293 93:-0.169479 94:-0.0932965 95:-0.0851214 96:-0.548887 97:0.0733905 98:-0.306335 99:-0.129932 100:-0.159457 
15354.53882942773 1:-0.0253071 2:0.231446 3:-0.14152 4:-0.00840599 5:0.0173225 6:0.151257 7:0.0469193 8:-0.191414 9:0.0286475 10:0.0571173 11:0.118359 12:-0.486311 13:-0.474711 14:-0.0698984 15:0.00121493 16:0.0167911 17:-0.404827 18:-0.0771903 19:-0.0480506 20:-0.115622 21:-0.0781866 22:-0.150121 23:0.195237 24:0.0274933 25:-0.229663 26:-0.217462 27:-0.11975 28:0.097311 29:-0.131367 30:-0.172175 31:-0.0414844 32:0.0540089 33:-0.104702 34:-0.213241 35:-0.0263165 36:-0.0990913 37:0.0730389 38:-0.0226652 39:-0.0914538 40:-0.0421961 41:-0.374409 42:-0.00697439 43:0.0652786 44:-0.0349506 45:-0.14637 46:-0.000768533 47:0.240664 48:-0.0760846 49:-0.0143352 50:0.062487 51:0.0979326 52:-0.00591009 53:-0.176335 54:0.0994409 55:0.0291873 56:0.139992 57:-0.325157 58:-0.29452 59:0.0625678 60:-0.0169171 61:0.161705 62:-0.240369 63:-0.198219 64:-0.061687 65:-0.0394447 66:0.0658396 67:-0.106913 68:0.165119 69:-0.103219 70:-0.165441 71:-0.338327 72:-0.134685 73:0.0848153 74:-0.189839 75:-0.220965 76:-0.375752 77:-0.136007 78:-0.233411 79:-0.17843 80:-0.120138 81:-0.154232 82:0.0632307 83:0.114455 84:-0.201613 85:-0.0479153 86:-0.141273 87:-0.00274966 88:0.216944 89:-0.00828413 90:-0.0866987 91:0.0593163 92:0.235601 93:-0.112705 94:0.0047015 95:0.0781749 96:0.139598 97:0.0355199 98:-0.198576 99:0.0367488 100:-0.032544 
15354.53882942773 1:-0.512496 2:-0.129077 3:0.120004 4:-0.00933453 5:-0.180074 6:-0.672751 7:-0.0855976 8:-0.0120073 9:-0.0706419 10:-0.0951742 11:-0.860223 12:-0.3043 13:-0.15838 14:-0.152792 15:-0.0673554 16:-0.609271 17:-0.39342 18:0.0937124 19:0.0221379 20:-0.131977 21:-0.0492423 22:-0.116243 23:0.0038182 24:0.0104456 25:-0.117437 26:0.35244 27:0.122328 28:-0.163801 29:-0.0744396 30:-0.065539 31:0.368224 32:0.183161 33:-0.211519 34:-0.0493595 35:0.00833986 36:0.131598 37:-0.117817 38:-0.106237 39:0.0264757 40:0.0836137 41:-0.0480284 42:-0.432826 43:-0.0590566 44:-0.0936291 45:-0.0416831 46:-0.304528 47:-0.00729106 48:-0.374213 49:0.0856773 50:-0.0723251 51:-0.436229 52:0.0100866 53:-0.252811 54:-0.0176775 55:0.0196479 56:-0.498916 57:-0.287812 58:-0.101834 59:-0.13985 60:0.0774141 61:-0.50667 62:-0.279748 63:0.178425 64:-0.017685 65:-0.0768374 66:-0.149112 67:-0.151865 68:0.0396402 69:-0.0124123 70:-0.172067 71:0.30785 72:0.0466241 73:-0.305705 74:-0.0881153 75:-0.0781276 76:0.343539 77:0.184221 78:-0.0571845 79:-0.0721063 80:-0.133139 81:0.113057 82:-0.22799 83:0.187134 84:-0.0781927 85:-0.0507243 86:-0.126522 87:-0.507214 88:0.0692488 89:-0.180702 90:-0.0306727 91:-0.238111 92:-0.027416 93:-0.0877717 94:0.0858647 95:-0.160697 96:-0.229819 97:-0.025771 98:-0.0691315 99:-0.0371366 100:-0.0218691 
15014.32266341933 1:-0.0937526 2:-0.137089 3:-0.0452071 4:0.0266608 5:-0.149406 6:-0.0725339 7:0.0983078 8:-0.0542113 9:-0.052794 10:0.0122877 11:-0.340062 12:-0.0797471 13:-0.334535 14:-0.00912182 15:0.0450856 16:-0.122419 17:-0.0858954 18:-0.122231 19:0.122298 20:0.00913635 21:0.014949 22:0.0819683 23:0.113858 24:0.0155997 25:-0.0348566 26:0.0605458 27:-0.202408 28:0.234554 29:-0.121838 30:-0.0930373 31:0.189806 32:-0.211606 33:0.0209697 34:-0.28921 35:-0.14213 36:0.0695868 37:0.166021 38:-0.283164 39:-0.195922 40:-0.0369511 41:-0.365945 42:0.19605 43:-0.297159 44:-0.00524358 45:-0.0406462 46:-0.140286 47:-0.122775 48:-0.16482 49:-0.102006 50:-0.140994 51:0.00503066 52:0.100314 53:-0.036078 54:-0.137274 55:0.00306891 56:-0.029167 57:0.0443519 58:-0.177734 59:0.0188551 60:0.0405707 61:-0.0163918 62:-0.0889073 63:-0.216322 64:0.125027 65:-0.125575 66:-0.327793 67:-0.0349973 68:0.100236 69:0.0362067 70:-0.0470381 71:-0.191592 72:-0.103448 73:0.25413 74:-0.05908 75:-0.0203381 76:0.223066 77:-0.170781 78:-0.0484671 79:-0.182736 80:-0.0285408 81:0.0753485 82:0.0304645 83:-0.262307 84:-0.174624 85:-0.0184888 86:0.00424823 87:0.0567235 88:-0.4138 89:-0.0979316 90:-0.0157672 91:-0.0998515 92:0.0229722 93:-0.298951 94:-0.136162 95:-0.163891 96:-0.0986825 97:-0.00748575 98:-0.214549 99:-0.123357 100:-0.019839 
15354.53882942773 1:-0.195929 2:0.0104021 3:0.118341 4:-0.0534449 5:-0.0423261 6:-0.152087 7:-0.0432834 8:0.134055 9:0.0128884 10:-0.00927514 11:-0.141296 12:0.203653 13:0.0266371 14:0.0379036 15:-0.0232133 16:0.00913271 17:-0.00889403 18:-0.0830677 19:-0.0794566 20:-0.196927 21:0.106779 22:-0.183734 23:-0.580615 24:-0.0824553 25:-0.175544 26:-0.0214658 27:-0.128378 28:-0.417087 29:-0.123329 30:-0.0257191 31:-0.149005 32:-0.352028 33:-0.124803 34:-0.0690852 35:0.0636935 36:0.210035 37:-0.175363 38:0.104261 39:-0.0176223 40:0.0147704 41:0.342448 42:0.0754283 43:0.00703402 44:-0.0483437 45:-0.134149 46:0.00443318 47:0.190279 48:-0.000921832 49:-0.176855 50:-0.0429728 51:-0.0940825 52:-0.0421317 53:0.19798 54:-0.0454596 55:-0.0122184 56:-0.0754513 57:-0.257944 58:0.0839578 59:-0.0402437 60:-0.130226 61:-0.0279952 62:-0.276524 63:-0.246482 64:-0.123996 65:-0.16426 66:-0.0184588 67:-0.127815 68:-0.347765 69:-0.0426463 70:-0.0834766 71:-0.231707 72:0.0411324 73:-0.0319221 74:0.0326813 75:0.0298402 76:-0.0234291 77:-0.0672629 78:-0.0411573 79:-0.0717578 80:0.0411461 81:0.225821 82:0.030004 83:0.0129727 84:0.0195801 85:-0.0412426 86:0.249149 87:0.0419342 88:-0.0592826 89:0.0581558 90:-0.089474 91:0.202875 92:0.124005 93:-0.0613965 94:-0.12658 95:-0.132764 96:-0.0920918 97:-0.147315 98:0.0784144 99:-0.0793865 100:-0.057561 
424.5861176795568 1:0.113898 2:0.148286 3:0.00545317 4:-0.214094 5:-0.189726 6:-0.114569 7:-0.101417 8:0.0591392 9:-0.0632953 10:-0.196756 11:-0.268759 12:-0.127707 13:-0.0585386 14:0.0231433 15:-0.0692269 16:-0.424209 17:0.00756438 18:-0.104308 19:-0.014392 20:-0.0524328 21:-0.220545 22:-0.0119743 23:0.00199369 24:-0.0486645 25:-0.0066575 26:-0.0448923 27:-0.0980418 28:-0.0670963 29:-0.164171 30:-0.0507756 31:0.177267 32:-0.156396 33:-0.00192429 34:-0.0271091 35:0.0393908 36:0.215082 37:-0.109628 38:-0.127965 39:0.0872868 40:0.0485845 41:0.111346 42:0.110731 43:0.167775 44:0.0961005 45:-0.00322423 46:0.0832802 47:0.20068 48:0.0154966 49:-0.130201 50:-0.121571 51:-0.152795 52:-0.283495 53:-0.305921 54:-0.0827111 55:-0.168042 56:-0.382954 57:-0.188724 58:-0.173117 59:-0.0210821 60:-0.0788801 61:-0.400315 62:-0.134096 63:-0.19024 64:0.0295634 65:-0.057586 66:-0.168978 67:-0.220277 68:-0.0901724 69:-0.0144305 70:-0.023572 71:-0.0772272 72:0.173777 73:0.203677 74:-0.131349 75:0.0172677 76:0.210781 77:0.0509968 78:0.187499 79:-0.0574345 80:-0.00805105 81:0.258408 82:-0.221209 83:-0.139635 84:0.0567384 85:-0.0376114 86:0.0332648 87:0.0187491 88:0.247635 89:0.107423 90:0.095626 91:0.101018 92:0.059334 93:-0.0188213 94:-0.0277175 95:-0.119457 96:0.181928 97:-0.207419 98:-0.134695 99:-0.119539 100:-0.132597 
15354.53882942773 1:-0.188018 2:-0.217765 3:-0.433289 4:0.00499807 5:-0.0598531 6:-0.221498 7:-0.238109 8:-0.0561592 9:-0.176681 10:-0.0932378 11:-0.487304 12:-0.120764 13:-0.172778 14:-0.253862 15:-0.0652719 16:-0.225106 17:-0.0666805 18:-0.143122 19:-0.0288917 20:-0.0215944 21:0.0340404 22:0.146791 23:-0.00115949 24:-0.00778932 25:0.0919604 26:0.116788 27:0.0506734 28:0.23171 29:0.0542266 30:-0.0333167 31:0.153071 32:0.0293357 33:0.0468785 34:0.0522504 35:-0.154638 36:0.166501 37:0.035818 38:-0.0349972 39:-0.066883 40:-0.0958783 41:-0.0554944 42:-0.0805095 43:0.176315 44:-0.0632804 45:-0.177175 46:-0.416354 47:-0.459123 48:-0.353111 49:0.0378911 50:0.00693109 51:-0.311882 52:-0.478487 53:-0.0136721 54:-0.0958894 55:-0.14791 56:-0.0874831 57:-0.245443 58:-0.101392 59:-0.156664 60:-0.0396707 61:-0.0859755 62:-0.00394231 63:-0.046368 64:-0.0727173 65:-0.0449164 66:0.0780866 67:0.228398 68:0.0894137 69:-0.0943885 70:-0.00313179 71:0.0598527 72:0.079724 73:0.164746 74:0.00613476 75:-0.0391128 76:0.0949394 77:0.0395697 78:-0.0542098 79:-0.0238687 80:-0.154108 81:0.172479 82:0.0383529 83:-0.098513 84:-0.0196394 85:-0.0279944 86:-0.126415 87:-0.123972 88:0.220216 89:-0.0221433 90:-0.0557708 91:-0.480269 92:-0.189179 93:-0.212873 94:-0.0692167 95:0.0154108 96:-0.334687 97:-0.311985 98:-0.0224124 99:-0.0982757 100:-0.121928 
12257.24719917486 1:0.228496 2:-0.0779164 3:0.102847 4:-0.0893475 5:-0.0226999 6:0.0473945 7:0.0505313 8:0.163227 9:-0.0813885 10:-0.0893581 11:0.0672974 12:0.0549487 13:0.337398 14:-0.00957126 15:-0.145192 16:-0.214665 17:-0.229264 18:0.0282143 19:0.00565889 20:-0.0238592 21:-0.330882 22:-0.00509338 23:-0.610531 24:-0.0388677 25:-0.0358085 26:-0.177177 27:0.091804 28:-0.687407 29:-0.0489255 30:0.00505665 31:-0.014289 32:-0.058187 33:-0.451182 34:-0.16668 35:-0.082024 36:-0.058083 37:-0.21794 38:-0.26086 39:-0.0564749 40:-0.0498425 41:0.238157 42:0.0928428 43:0.105898 44:-0.0878832 45:-0.0510731 46:0.211617 47:0.073646 48:0.107793 49:-0.192292 50:-0.0351337 51:-0.106279 52:0.0843527 53:0.165431 54:-0.0501039 55:-0.0787965 56:0.112928 57:0.0689897 58:0.3265 59:0.0444724 60:-0.150423 61:-0.0119653 62:-0.285252 63:0.0109648 64:0.145293 65:0.0269589 66:-0.119461 67:-0.100015 68:-0.384409 69:0.0481824 70:0.0534957 71:-0.131885 72:0.0189027 73:-0.490374 74:-0.158257 75:-0.0203889 76:-0.127639 77:-0.124011 78:-0.52347 79:-0.331545 80:-0.0182909 81:-0.133472 82:-0.249465 83:-0.266065 84:-0.190379 85:-0.165286 86:0.14853 87:0.0583324 88:0.0233554 89:-0.167852 90:-0.25529 91:0.0333099 92:-0.0300482 93:0.0528757 94:-0.146131 95:-0.00818288 96:0.0568021 97:0.0267669 98:0.146614 99:-0.080021 100:-0.0505014 
13156.83516208696 1:0.128563 2:-0.183451 3:-0.0254629 4:-0.169267 5:-0.0962313 6:-0.0612859 7:-0.103682 8:-0.0558997 9:-0.170766 10:0.0213749 11:-0.126608 12:-0.293185 13:-0.149499 14:-0.158801 15:-0.038938 16:0.0872795 17:-0.258966 18:-0.107932 19:-0.136871 20:-0.0278549 21:0.154174 22:0.166978 23:0.0253976 24:0.0245177 25:-0.0615171 26:0.0455331 27:0.0936721 28:-0.166383 29:-0.0663288 30:-0.0167209 31:-0.257208 32:-0.0138809 33:-0.0343637 34:0.0162828 35:-0.0945738 36:-0.317646 37:0.0410808 38:0.158593 39:0.0834185 40:-0.0694211 41:0.00246233 42:0.216664 43:0.018129 44:0.0529944 45:-0.163133 46:-0.111117 47:-0.0860191 48:-0.0010356 49:-0.0628126 50:-0.0884892 51:-0.191536 52:-0.0965576 53:-0.0336977 54:-0.0608176 55:-0.00515533 56:-0.0651666 57:-0.207741 58:0.081249 59:-0.0235033 60:-0.0462266 61:0.14879 62:0.0304576 63:0.144521 64:-0.0662601 65:-0.104792 66:0.24134 67:0.105143 68:-0.0150634 69:-0.108115 70:-0.0506342 71:0.125382 72:0.0196903 73:-0.23279 74:-0.141473 75:-0.0893656 76:-0.178159 77:-0.143473 78:-0.158461 79:0.0114687 80:-0.061885 81:-0.357638 82:-0.15281 83:-0.065315 84:0.0616098 85:-0.0631279 86:-0.0603446 87:-0.0834437 88:-0.148713 89:0.041233 90:-0.110358 91:-0.0701871 92:0.123806 93:0.157123 94:-0.14028 95:-0.0944759 96:-0.0727692 97:-0.0202544 98:0.0171587 99:-0.0593445 100:0.0124565 
15354.53882942773 1:-0.168181 2:-0.124544 3:-0.374964 4:-0.0585486 5:-0.161862 6:-0.174654 7:-0.37018 8:-0.340606 9:-0.069074 10:-0.0183409 11:-0.108592 12:-0.0120183 13:0.105936 14:0.0436167 15:-0.0485258 16:0.188 17:0.210074 18:0.144237 19:-0.127978 20:-0.153841 21:0.036598 22:0.123367 23:0.133381 24:-0.103425 25:-0.131277 26:-0.038499 27:-0.224251 28:0.0191787 29:-0.0313692 30:-0.0422293 31:0.0326849 32:-0.0207923 33:0.0752463 34:-0.0606419 35:-0.0531908 36:-0.0130826 37:-0.144391 38:-0.2654 39:0.0439936 40:0.104496 41:0.0206822 42:0.147504 43:-0.386214 44:0.0640954 45:0.170391 46:-0.199279 47:-0.281347 48:-0.331743 49:0.0320296 50:0.0757747 51:-0.0442792 52:-0.102859 53:-0.290721 54:-0.0810956 55:-0.0122771 56:-0.0389893 57:0.110779 58:0.102965 59:-0.228836 60:-0.063391 61:0.0110873 62:0.230036 63:0.116363 64:-0.29175 65:-0.0611861 66:0.0251043 67:0.0914427 68:0.0373101 69:-0.127279 70:-0.145684 71:0.137494 72:-0.228599 73:-0.00715655 74:0.0583947 75:-0.0577202 76:0.0194717 77:-0.305261 78:0.0387928 79:0.0698473 80:-0.0746316 81:-0.110426 82:-0.0816948 83:-0.102038 84:0.00943453 85:-0.0414913 86:-0.165221 87:0.135775 88:-0.227485 89:0.0802633 90:0.0208256 91:0.203578 92:-0.0650406 93:-0.408758 94:0.0494534 95:-0.0383392 96:0.0486578 97:-0.137247 98:-0.284901 99:-0.0021117 100:-0.131296 
2108.073544701561 1:-0.416256 2:-0.117375 3:0.0522397 4:-0.148386 5:-0.00438252 6:0.0307415 7:0.123047 8:-0.186191 9:-0.0365937 10:-0.0583023 11:-0.0653059 12:0.0772516 13:-0.308184 14:0.00199929 15:-0.0090334 16:-0.0296103 17:-0.171822 18:0.0636416 19:-0.0109352 20:0.0342322 21:0.114683 22:-0.121966 23:0.127959 24:-0.00925983 25:-0.0263874 26:0.235938 27:0.143051 28:-0.0997417 29:-0.00924989 30:-0.112354 31:-0.0899922 32:-0.0411332 33:-0.0925108 34:-0.0895078 35:-0.175526 36:-0.192382 37:-0.246081 38:0.0914829 39:-0.0258608 40:-0.0818831 41:-0.252424 42:-0.361705 43:-0.100044 44:-0.179479 45:0.0246442 46:-0.348173 47:-0.0997055 48:0.124089 49:-0.179667 50:-0.0535742 51:-0.102083 52:0.149813 53:-0.098711 54:-0.0376613 55:-0.185353 56:-0.199272 57:0.115104 58:-0.237513 59:0.0499352 60:-0.251473 61:-0.117979 62:-0.129812 63:0.00454128 64:0.0489113 65:-0.0682978 66:0.0600766 67:-0.123588 68:0.12982 69:-0.0188322 70:0.0507183 71:0.273547 72:0.10674 73:-0.0856183 74:-0.0216551 75:0.0231675 76:0.181449 77:-0.0921799 78:-0.103827 79:-0.132411 80:-0.0153835 81:-0.24268 82:-0.342874 83:-0.0140761 84:-0.113882 85:-0.0471964 86:-0.418704 87:-0.467982 88:-0.0843014 89:-0.195622 90:0.0231634 91:-0.241682 92:0.0617972 93:0.165292 94:-0.0800734 95:-0.070906 96:-0.160591 97:0.168821 98:-0.0188081 99:0.0494787 100:-0.156204 
15354.53882942773 1:-0.0573322 2:-0.143574 3:-0.0407887 4:-0.103706 5:0.114798 6:-0.16572 7:-0.26948 8:-0.0816752 9:-0.0123058 10:0.0832193 11:-0.338542 12:0.0302698 13:0.241805 14:-0.0161835 15:-0.0918149 16:-0.0311662 17:0.178495 18:0.19653 19:0.0654766 20:-0.163218 21:-0.101049 22:0.0960933 23:0.109506 24:0.015014 25:-0.0996856 26:-0.0558519 27:-0.153808 28:-0.138363 29:-0.0280154 30:-0.0426592 31:0.120299 32:-0.232508 33:-0.482271 34:-0.195998 35:-0.0811513 36:0.228662 37:-0.0804385 38:-0.919772 39:-0.187062 40:-0.155945 41:-0.0134504 42:-0.285229 43:-0.384152 44:-0.14159 45:-0.168654 46:0.113785 47:-0.105991 48:-0.139913 49:-0.176589 50:0.0934861 51:-0.215325 52:-0.131204 53:-0.113965 54:-0.121596 55:-0.0181116 56:-0.246769 57:0.122373 58:0.172162 59:-0.0369316 60:-0.118594 61:-0.0274095 62:0.211578 63:0.175573 64:0.117501 65:-0.143472 66:0.075452 67:0.108602 68:0.157941 69:-0.0108163 70:-0.0316893 71:-0.0286089 72:-0.0891999 73:-0.144753 74:-0.00673961 75:-0.0122424 76:-0.00860579 77:-0.463134 78:-0.364445 79:-0.110837 80:-0.0275958 81:0.0863716 82:-0.485379 83:-0.469765 84:-0.178675 85:-0.140968 86:0.113431 87:-0.153883 88:-0.217922 89:-0.080904 90:-0.143529 91:0.083963 92:-0.128845 93:-0.292538 94:-0.140716 95:0.123182 96:-0.100454 97:0.149882 98:-0.177267 99:-0.0536255 100:0.0644007 
5968.621101340609 1:0.119329 2:-0.12337 3:-0.0554771 4:-0.0618658 5:-0.0262296 6:0.12385 7:0.193618 8:-0.112583 9:-0.101578 10:0.0232757 11:0.214546 12:0.153906 13:0.128163 14:-0.171934 15:0.0372062 16:0.106841 17:-0.188352 18:0.0313094 19:-0.208491 20:0.0120756 21:-0.021895 22:-0.146183 23:-0.320323 24:-0.0229001 25:-0.0942793 26:-0.357075 27:-0.0543542 28:-0.355005 29:0.00477894 30:-0.0674313 31:-0.39246 32:-0.088902 33:-0.135991 34:0.0462158 35:-0.112676 36:-0.547444 37:-0.111612 38:0.184763 39:-0.0428119 40:-0.182285 41:-0.115318 42:-0.411351 43:0.309434 44:-0.0958298 45:-0.0774741 46:-0.0123649 47:-0.0854754 48:0.0538847 49:-0.0297465 50:-0.116319 51:-0.061684 52:0.141352 53:-0.00620417 54:-0.117012 55:-0.134795 56:0.0954302 57:0.122176 58:0.162276 59:-0.109738 60:0.0220077 61:0.0977959 62:-0.00202324 63:0.153609 64:-0.168957 65:0.0240874 66:0.235076 67:-0.0657135 68:-0.108192 69:-0.0833155 70:-0.0234891 71:-0.192035 72:-0.195396 73:-0.207025 74:-0.0467294 75:-0.103403 76:-0.368387 77:-0.161284 78:-0.416683 79:0.034689 80:-0.0104545 81:-0.441048 82:-0.22336 83:-0.21158 84:-0.0711646 85:-0.00698688 86:0.0387294 87:-0.180803 88:0.0804378 89:-0.0542075 90:-0.115881 91:0.00354126 92:-0.185349 93:0.00628493 94:-0.151071 95:-0.077271 96:0.0708286 97:0.0177709 98:0.0596648 99:-0.123009 100:-0.0743112 
15285.12419050187 1:-0.267492 2:-0.272853 3:-0.272931 4:-0.179594 5:-0.223809 6:-0.279289 7:-0.312906 8:-0.0123811 9:-0.0594545 10:-0.141722 11:-0.33732 12:-0.172871 13:-0.0376382 14:-0.151448 15:-0.0345688 16:-0.134727 17:-0.0996886 18:-0.254605 19:-0.157388 20:0.0665394 21:0.0498245 22:-0.139008 23:-0.371572 24:-0.140531 25:-0.139489 26:0.0874219 27:0.214052 28:0.0240054 29:-0.0293242 30:-0.193662 31:0.0850187 32:0.197026 33:0.187843 34:0.0541655 35:0.0237128 36:0.290877 37:0.0357135 38:0.179186 39:0.157061 40:0.0569657 41:0.100225 42:-0.0774145 43:-0.0498829 44:0.0984156 45:-0.0147399 46:-0.141402 47:-0.161371 48:0.0367513 49:-0.0376847 50:-0.0125417 51:-0.198586 52:-0.152263 53:0.0365699 54:0.0363789 55:-0.0415846 56:-0.302179 57:-0.126399 58:-0.117658 59:0.0384569 60:0.0258189 61:-0.233076 62:-0.212561 63:-0.23857 64:-0.0937466 65:0.0108739 66:0.112921 67:-0.0993982 68:-0.175826 69:-0.114761 70:-0.178178 71:0.141069 72:0.22465 73:0.0694621 74:-0.0484823 75:-0.0886196 76:0.0221069 77:0.156798 78:3.45496e-05 79:-0.0385848 80:-0.108184 81:0.176291 82:-0.090233 83:0.0349779 84:-0.162445 85:-0.121411 86:-0.022069 87:-0.0781843 88:-0.275407 89:-0.251483 90:-0.135983 91:-0.0511971 92:-0.254841 93:-0.104763 94:-0.072586 95:-0.0178833 96:-0.191653 97:-0.382258 98:0.00990214 99:0.0340098 100:0.00500286 
12504.46804981745 1:-0.300897 2:-0.254651 3:-0.151616 4:-0.181293 5:-0.0410104 6:-0.267086 7:-0.471684 8:-0.133697 9:-0.0962678 10:-0.100044 11:-0.284814 12:-0.491359 13:-0.124747 14:-0.0417332 15:-0.192341 16:-0.282163 17:-0.152495 18:-0.0752529 19:-0.0197376 20:-0.0339097 21:-0.110659 22:0.0715522 23:-0.162679 24:0.0415139 25:0.180425 26:-0.239614 27:0.018881 28:-0.0930671 29:-0.00963781 30:0.0706937 31:0.00455597 32:0.0717164 33:0.0211307 34:0.0586487 35:-0.23229 36:0.439566 37:0.216982 38:0.135169 39:-0.059206 40:-0.288525 41:0.43815 42:-0.0931262 43:0.0362082 44:-0.202993 45:-0.0669926 46:-0.162458 47:-0.169713 48:-0.234861 49:-0.0841212 50:-0.0923807 51:-0.0243878 52:-0.19224 53:-0.331463 54:-0.0888562 55:-0.0777693 56:-0.039948 57:-0.216815 58:-0.241801 59:-0.0288805 60:-0.0243145 61:-0.146252 62:0.113048 63:-0.159657 64:-0.00501629 65:-0.0548981 66:0.0590241 67:0.0643089 68:-0.0313293 69:0.0114789 70:-0.137563 71:-0.0798832 72:-0.16599 73:0.0186024 74:0.0114752 75:0.00801321 76:-0.187523 77:0.060812 78:0.0837139 79:-0.0292324 80:-0.00538775 81:0.201367 82:0.126235 83:0.232592 84:-0.108531 85:-0.0924878 86:0.180515 87:-0.0272349 88:0.0952689 89:-0.234663 90:-0.111617 91:-0.139586 92:-0.0354818 93:-0.281063 94:-0.0960474 95:0.0537407 96:-0.444208 97:-0.266118 98:-0.244797 99:-0.069957 100:-0.0308023 
8896.058406239135 1:-0.782867 2:-0.242406 3:-0.192297 4:0.0603066 5:-0.0946873 6:-0.695642 7:-0.00188785 8:-0.237142 9:-0.108429 10:-0.215263 11:-0.908694 12:-0.262784 13:-0.253433 14:-0.131376 15:-0.161594 16:-0.698369 17:-0.251255 18:-0.0627001 19:-0.243228 20:-0.221331 21:-0.688636 22:-0.0681982 23:0.0363886 24:-0.278173 25:-0.292008 26:0.101617 27:0.0977793 28:0.0831597 29:-0.102821 30:0.0265494 31:0.428501 32:0.117145 33:0.133884 34:-0.0149689 35:0.117913 36:0.439996 37:0.0908327 38:0.105728 39:0.153851 40:0.147995 41:0.344251 42:-0.0167844 43:-0.186654 44:0.0750786 45:0.171402 46:-0.741863 47:-0.155081 48:-0.0512897 49:0.0555786 50:0.0947114 51:-0.625778 52:-0.0508896 53:-0.203121 54:-0.051842 55:-0.134031 56:-0.446199 57:-0.152811 58:-0.312962 59:0.019074 60:-0.0908263 61:-0.351917 62:-0.122793 63:-0.0322676 64:-0.0763819 65:-0.0753522 66:-0.389719 67:-0.0536996 68:0.115176 69:-0.107558 70:-0.095477 71:0.0633282 72:0.0507589 73:0.134593 74:-0.105685 75:0.000784406 76:0.381013 77:0.106579 78:-0.00889893 79:-0.164077 80:-0.0658222 81:0.375927 82:-0.149324 83:-0.194043 84:-0.0701409 85:-0.145718 86:0.197727 87:-0.0353835 88:0.0433273 89:0.00355155 90:-0.177345 91:-0.543214 92:-0.0891629 93:0.0712468 94:0.0476059 95:0.105881 96:-0.449137 97:0.0138414 98:-0.155865 99:-0.00429121 100:-0.119912 
15354.53882942773 1:-0.091962 2:-0.0963413 3:0.296033 4:-0.264346 5:-0.00665492 6:0.0371838 7:-0.0381037 8:0.249798 9:-0.217965 10:-0.108938 11:0.177177 12:0.0240341 13:-0.162417 14:-0.00968796 15:-0.0862402 16:0.140823 17:0.1697 18:-0.168273 19:-0.031679 20:-0.114129 21:-0.11148 22:0.0902921 23:-0.233897 24:-0.0701072 25:0.0135001 26:-0.0513491 27:-0.154985 28:-0.181935 29:0.0873982 30:0.0802125 31:-0.0388675 32:-0.294271 33:-0.269508 34:0.0217441 35:-0.130802 36:-0.28523 37:-0.242736 38:-0.159777 39:0.0145668 40:-0.082412 41:-0.432975 42:-0.148567 43:-0.340218 44:0.0858167 45:-0.00651143 46:-0.141669 47:-0.0926438 48:0.25867 49:-0.280274 50:-0.185882 51:-0.0234386 52:0.0248227 53:0.154823 54:-0.190831 55:-0.0790035 56:0.037661 57:0.0741887 58:-0.0837766 59:0.0631427 60:0.0677422 61:0.0262068 62:0.180185 63:0.000448491 64:-0.0243088 65:0.00991449 66:-0.019419 67:-0.0474402 68:-0.193066 69:-0.0957624 70:-0.0093391 71:-0.00294396 72:-0.451284 73:-0.293921 74:0.00368636 75:0.0353378 76:0.056577 77:-0.164109 78:-0.23101 79:-0.0304855 80:-0.106396 81:0.00952892 82:-0.0585286 83:-0.177472 84:-0.052631 85:-0.134755 86:-0.0356919 87:-0.0359465 88:-0.214962 89:0.0615137 90:-0.0531511 91:0.0394227 92:-0.114101 93:0.206466 94:-0.243542 95:-0.188609 96:-0.0413994 97:-0.0458313 98:0.0883133 99:-0.137739 100:-0.0871261 
15354.53882942773 1:-0.193745 2:0.270104 3:0.21063 4:-0.0410956 5:-0.109685 6:0.011957 7:-0.0825325 8:-0.333403 9:-0.134661 10:-0.0725411 11:0.0569934 12:-0.290046 13:-0.508801 14:-0.074013 15:-0.0613173 16:0.0935262 17:-0.268583 18:-0.410844 19:0.0155884 20:-0.0695353 21:-0.0012522 22:-0.107865 23:-0.000980022 24:0.0462066 25:0.0240893 26:-0.141685 27:-0.168148 28:-0.00248311 29:-0.116932 30:-0.0255721 31:0.00503767 32:0.0290429 33:0.0157675 34:-0.0297758 35:-0.0914373 36:-0.0590276 37:0.0421969 38:0.150408 39:-0.0401451 40:0.0184511 41:0.148381 42:0.107523 43:0.0865533 44:-0.159549 45:0.0465598 46:-0.0133504 47:0.243135 48:-0.0731375 49:-0.0702271 50:-0.159054 51:0.160132 52:-0.277087 53:-0.285939 54:-0.148848 55:-0.101568 56:0.13905 57:-0.325867 58:-0.252342 59:-0.105377 60:-0.0343821 61:0.0174273 62:-0.121956 63:-0.177228 64:-0.0459505 65:-0.0614836 66:-0.224348 67:-0.201166 68:-0.0193725 69:0.00823744 70:0.0578761 71:-0.0585631 72:-0.257231 73:0.0423104 74:-0.000719151 75:0.0325252 76:-0.0531567 77:0.0725621 78:0.081564 79:-0.0219554 80:-0.1297 81:-0.449434 82:0.0758755 83:0.17131 84:-0.0373507 85:-0.123296 86:-0.116964 87:0.148503 88:-0.0849239 89:0.00289352 90:-0.139439 91:-0.129961 92:0.200354 93:0.0281042 94:-0.131991 95:-0.0536035 96:-0.123246 97:-0.191721 98:-0.331955 99:-0.137737 100:-0.0814738 
15328.61380543554 1:-0.0471447 2:0.0552263 3:-0.155973 4:-0.134855 5:-0.12233 6:-0.288516 7:-0.124173 8:-0.179225 9:-0.156329 10:-0.186038 11:0.046154 12:-0.103235 13:-0.310012 14:0.00104037 15:-0.0327166 16:-0.00453553 17:0.097677 18:-0.155216 19:0.0482983 20:0.0327251 21:-0.330472 22:0.059696 23:0.137798 24:0.017669 25:-0.108683 26:-0.161858 27:-0.177036 28:0.231202 29:-0.0122784 30:-0.0317668 31:0.125805 32:-0.387673 33:-0.032094 34:-0.0909485 35:0.00746227 36:0.217306 37:-0.0208732 38:-0.0205611 39:-0.0102134 40:-0.10448 41:0.0540763 42:0.0230244 43:0.0396663 44:-0.0338663 45:-0.151697 46:0.124577 47:0.185089 48:-0.0599922 49:-0.0796585 50:0.0317174 51:-0.167296 52:0.0473407 53:-0.0768048 54:-0.035005 55:-0.0267925 56:-0.200186 57:-0.0942572 58:-0.23698 59:-0.0309815 60:-0.128402 61:-0.194802 62:0.0566438 63:-0.216414 64:-0.0329681 65:-0.200998 66:-0.185409 67:-0.0726242 68:-0.0241573 69:-0.130955 70:-0.0643066 71:-0.0380075 72:-0.271446 73:0.116393 74:-0.127097 75:-0.0144626 76:0.139597 77:-0.260064 78:0.0104747 79:-0.0435202 80:0.0229437 81:0.168979 82:-0.0188519 83:0.145645 84:0.0488748 85:-0.10162 86:-0.0355396 87:0.0465003 88:0.190515 89:0.0488654 90:-0.203772 91:-0.106302 92:-0.0103138 93:-0.117161 94:-0.0991825 95:-0.00769239 96:-0.296312 97:-0.175766 98:0.023925 99:-0.0358091 100:-0.0575777 
7223.385805722103 1:-0.402177 2:-0.176569 3:-0.026586 4:0.0842912 5:-0.0158714 6:-0.333496 7:-0.0928216 8:-0.115362 9:-0.0942366 10:-0.084207 11:-0.154459 12:-0.1734 13:-0.295562 14:-0.18201 15:-0.031614 16:-0.0137314 17:-0.0351517 18:-0.136015 19:-0.206141 20:0.0591538 21:-0.0378188 22:-0.0443501 23:-0.120264 24:-0.0387189 25:-0.0704467 26:0.122467 27:-0.311808 28:0.0139201 29:-0.0134812 30:-0.0761391 31:0.232394 32:-0.0229928 33:0.0380417 34:-0.000503953 35:-0.0857212 36:-0.037032 37:0.298954 38:0.17015 39:-0.0539583 40:-0.0749938 41:0.0498601 42:0.0209182 43:0.25886 44:-0.0480413 45:-0.100851 46:-0.223727 47:-0.0569873 48:-0.0353336 49:0.0323387 50:0.104744 51:0.0865564 52:-0.00414374 53:-0.210078 54:-0.135992 55:-0.0566974 56:-0.0701501 57:-0.123468 58:-0.160685 59:-0.102935 60:-0.186407 61:0.0389868 62:-0.0476477 63:-0.478357 64:-0.132185 65:-0.0776631 66:0.0707135 67:-0.11881 68:-0.0969354 69:-0.0033555 70:-0.0329214 71:0.0218916 72:-0.240031 73:0.0847965 74:-0.0102806 75:-0.0539782 76:-0.140884 77:-0.038036 78:0.036328 79:-0.00742931 80:-0.0718061 81:-0.199633 82:0.248299 83:0.224763 84:-0.0975334 85:-0.109996 86:-0.0278282 87:-0.0126227 88:0.365229 89:-0.0467368 90:-0.190915 91:-0.119379 92:-0.0739536 93:0.0264844 94:0.0755668 95:0.0950312 96:0.0688096 97:0.0392005 98:-0.257259 99:-0.109788 100:-0.0183399 
15015.91378681033 1:-0.027037 2:0.0907574 3:0.0109031 4:-0.155081 5:0.0412282 6:0.0407924 7:0.00942598 8:-0.253998 9:-0.103545 10:-0.0117329 11:-0.0634733 12:-0.0356702 13:-0.16299 14:-0.0130608 15:-0.168527 16:-0.101087 17:-0.20057 18:-0.123703 19:-0.153723 20:-0.119559 21:-0.203737 22:-0.0378721 23:-0.0344309 24:-0.0905971 25:-0.0962318 26:0.148649 27:0.0496771 28:0.0379874 29:-0.02071 30:-0.126667 31:0.0625758 32:-0.156924 33:0.134492 34:-0.00473262 35:-0.0250293 36:-0.204936 37:-0.0542803 38:0.0542948 39:0.0787153 40:0.128991 41:-0.226712 42:0.18758 43:-0.00617782 44:0.0295606 45:0.0327092 46:-0.207431 47:0.0627146 48:0.14195 49:-0.193255 50:-0.00578586 51:-0.314107 52:0.00273605 53:-0.225435 54:-0.0713357 55:-0.106409 56:-0.166822 57:-0.29549 58:-0.279266 59:0.0105738 60:-0.0799823 61:-0.0698139 62:-0.331611 63:-0.168327 64:0.0355483 65:-0.025553 66:0.0134691 67:0.0531853 68:-0.133988 69:0.0328158 70:-0.127006 71:0.218514 72:0.118865 73:0.0263385 74:-0.0818327 75:-0.138348 76:0.173431 77:-0.0625904 78:0.132082 79:-0.12455 80:-0.0217791 81:-0.0271317 82:-0.0546936 83:0.0711651 84:-0.0228049 85:0.0584714 86:-0.125571 87:0.178758 88:0.0334485 89:0.0271563 90:0.0393755 91:-0.202859 92:0.0435847 93:0.218061 94:-0.14781 95:0.0451869 96:-0.432674 97:-0.070645 98:-0.124976 99:-0.0709925 100:-0.0791235 
11788.72128527218 1:-0.142923 2:0.160904 3:0.0499289 4:-0.0194016 5:-0.261036 6:0.0022424 7:-0.013709 8:-0.0681958 9:-0.129503 10:-0.228432 11:-0.126993 12:0.0210615 13:-0.186968 14:0.00903124 15:-0.0679617 16:0.00452792 17:-0.0917211 18:-0.231862 19:-0.0174278 20:0.0490259 21:0.0621466 22:-0.202911 23:-0.405333 24:-0.0815483 25:0.0709496 26:0.114628 27:-0.225387 28:-0.254745 29:-0.149435 30:-0.0377218 31:-0.139719 32:-0.156718 33:0.175647 34:-0.079855 35:-0.0324775 36:-0.119667 37:-0.0272536 38:0.258396 39:0.0248503 40:-0.0573158 41:0.419883 42:0.189576 43:-0.0792332 44:0.0233058 45:-0.115714 46:-0.127271 47:0.114711 48:0.109951 49:-0.0079613 50:-0.204937 51:0.0878457 52:-0.156245 53:-0.104028 54:-0.0345687 55:-0.155531 56:-0.148797 57:0.0223718 58:-0.120754 59:0.133406 60:0.0915433 61:-0.0956167 62:-0.123202 63:-0.0758701 64:-0.052758 65:0.132879 66:0.140692 67:-0.063213 68:-0.227615 69:-0.0947816 70:-0.0195359 71:0.031227 72:-0.0392807 73:-0.135098 74:-0.172829 75:-0.099271 76:-0.0571492 77:-0.119439 78:0.0875558 79:-0.199108 80:-0.143455 81:-0.150946 82:-0.103637 83:0.112935 84:-0.0718846 85:-0.0882078 86:0.141416 87:-0.0751104 88:-0.148985 89:0.0148695 90:-0.0860346 91:0.0458585 92:0.036331 93:-0.107382 94:-0.117436 95:-0.1708 96:0.241234 97:-0.14945 98:-0.137277 99:-0.105402 100:-0.167312 
15266.88282035751 1:-0.398444 2:-0.218793 3:0.106976 4:-0.190878 5:-0.230158 6:-0.608779 7:-0.0582903 8:0.0186692 9:-0.164575 10:-0.282357 11:-0.246645 12:-0.0857051 13:0.0370659 14:-0.0691787 15:-0.202168 16:-0.23126 17:-0.0911904 18:-0.0958763 19:-0.0900157 20:-0.0833295 21:0.0313802 22:-0.16652 23:-0.267646 24:0.017089 25:-0.0818966 26:0.199867 27:-0.151899 28:-0.0979114 29:0.0611035 30:0.124089 31:0.258481 32:0.0959565 33:-0.038686 34:0.0460794 35:0.127064 36:0.146771 37:0.195815 38:-0.0178832 39:-0.0774222 40:-0.0669578 41:-0.132544 42:-0.162733 43:0.0748075 44:-0.0239526 45:-0.0704883 46:-0.340416 47:-0.127745 48:0.169197 49:-0.161337 50:-0.137565 51:-0.481535 52:-0.167105 53:0.0999688 54:-0.093886 55:-0.086093 56:-0.142424 57:-0.146656 58:0.0417569 59:-0.000139294 60:-0.0907243 61:-0.0368821 62:-0.0787252 63:-0.00452178 64:0.0164355 65:-0.0353159 66:0.0725265 67:0.0181562 68:-0.214137 69:-0.0126763 70:-0.0881948 71:0.184293 72:0.0614527 73:-0.132305 74:0.043267 75:0.0247306 76:0.156207 77:-0.0563478 78:-0.274361 79:-0.0162414 80:0.044221 81:0.0857682 82:0.0417906 83:-0.105824 84:-0.121965 85:-0.186099 86:0.0257433 87:-0.224511 88:-0.0340224 89:-0.158351 90:-0.144913 91:-0.562146 92:-0.186435 93:0.171077 94:-0.173181 95:-0.0774621 96:-0.299023 97:-0.100633 98:0.0982939 99:-0.0966962 100:-0.119692 
10115.09076951514 1:-0.525747 2:0.132662 3:0.0804018 4:-0.0100814 5:-0.0225657 6:-0.218826 7:0.0362641 8:0.151221 9:-0.135617 10:-0.0441935 11:0.137396 12:0.030579 13:-0.115278 14:-0.033902 15:-0.0809537 16:0.18249 17:-0.0630163 18:-0.156893 19:0.00538187 20:-0.0508645 21:0.262415 22:-0.0793875 23:-0.00605879 24:-0.0542931 25:0.03095 26:0.0669841 27:0.0308042 28:-0.0112419 29:-0.161229 30:-0.0850673 31:-0.294834 32:-0.16939 33:-0.0428351 34:0.0306752 35:-0.10995 36:-0.362692 37:-0.332145 38:-0.331254 39:0.00622122 40:-0.0906826 41:-0.392972 42:-0.331864 43:-0.401534 44:-0.0388631 45:-0.132936 46:-0.245192 47:0.137099 48:-0.254831 49:-0.159907 50:-0.0719922 51:-0.308011 52:0.0421453 53:-0.181009 54:-0.105888 55:-0.00666973 56:-0.0498759 57:0.0633686 58:-0.113992 59:-0.038051 60:-0.00371571 61:-0.0769623 62:-0.0413366 63:-0.068805 64:0.0475635 65:0.037484 66:0.0535365 67:0.013763 68:-0.0366105 69:0.037342 70:-0.00633494 71:0.0434822 72:-0.206386 73:0.0696765 74:-0.0326152 75:-0.161662 76:0.124009 77:-0.300815 78:0.0693504 79:-0.0500722 80:-0.222213 81:0.0709678 82:-0.298781 83:0.0545102 84:-0.033012 85:-0.139516 86:-0.280836 87:-0.165542 88:-0.0848072 89:-0.116327 90:-0.142158 91:0.00168833 92:0.0487544 93:-0.169768 94:-0.113359 95:-0.12436 96:-0.143591 97:0.0275991 98:-0.0499619 99:-0.0811187 100:-0.0238637 
15018.54437252731 1:0.196786 2:-0.322209 3:0.155485 4:0.00655006 5:0.0844596 6:-0.101531 7:-0.340632 8:-0.126213 9:-0.0479652 10:0.0165142 11:0.0205034 12:-0.132004 13:-0.24648 14:0.0335583 15:-0.0239413 16:0.0249988 17:0.154829 18:-0.0277678 19:0.118185 20:-0.00527694 21:-0.296627 22:-0.00472986 23:0.0649953 24:-0.0276746 25:-0.0650165 26:-0.227363 27:-0.0965334 28:-0.0217797 29:-0.101003 30:-0.091884 31:-0.0605523 32:-0.00484778 33:-0.100173 34:-0.172047 35:-0.154005 36:-0.0210689 37:0.217374 38:-0.154637 39:-0.297274 40:-0.146276 41:0.263376 42:-0.0135636 43:-0.0655965 44:-0.236422 45:-0.0675463 46:0.111422 47:-0.429315 48:0.059657 49:0.0151665 50:-0.0662948 51:0.0193237 52:-0.523888 53:-0.263017 54:0.0103115 55:-0.0279293 56:0.162606 57:-0.239529 58:-0.492328 59:0.0168496 60:-0.0515741 61:0.0665721 62:0.186689 63:0.0286893 64:-0.00788441 65:0.0407263 66:-0.241354 67:0.129347 68:0.126418 69:-0.113552 70:0.0178955 71:-0.110253 72:-0.0295066 73:0.0216998 74:-0.070882 75:-0.058239 76:-0.348287 77:-0.0288214 78:-0.131967 79:-0.15743 80:-0.122513 81:-0.183536 82:0.172447 83:-0.118435 84:-0.152666 85:-0.112324 86:-0.0136121 87:0.0809404 88:0.145377 89:-0.0370154 90:-0.0558599 91:0.0808737 92:-0.607273 93:0.114474 94:-0.0773495 95:-0.114233 96:0.22827 97:-0.421458 98:-0.0231744 99:0.0552496 100:-0.0992303 
6788.989532635254 1:0.271531 2:0.2016 3:0.189849 4:-0.0354618 5:-0.0621684 6:0.00966143 7:-0.150266 8:-0.22783 9:-0.162716 10:-0.190709 11:-0.111072 12:-0.0445315 13:-0.266085 14:-0.227059 15:-0.0909091 16:-0.250978 17:-0.0574589 18:0.0803289 19:-0.0657164 20:-0.0820377 21:-0.178083 22:0.00989107 23:-0.122645 24:0.119203 25:-0.19478 26:-0.30876 27:-0.108971 28:-0.0492032 29:0.0503232 30:-0.00980346 31:-0.147189 32:-0.187068 33:-0.0521062 34:0.0210261 35:0.0987185 36:0.16434 37:-0.282601 38:-0.053758 39:-0.103118 40:0.0446577 41:0.230627 42:-0.477131 43:-0.23239 44:-0.093818 45:-0.0225758 46:0.260032 47:0.0390781 48:0.123761 49:-0.0601835 50:0.00111723 51:-0.0192817 52:-0.18485 53:-0.243498 54:-0.206864 55:-0.10107 56:-0.235875 57:-0.0325075 58:-0.18938 59:-0.242197 60:-0.0800873 61:-0.3102 62:0.0945716 63:-0.0267461 64:-0.0960527 65:-0.159066 66:-0.157205 67:-0.0207291 68:-0.054908 69:0.130078 70:-0.0505079 71:-0.0914649 72:-0.212674 73:0.0742199 74:0.0785818 75:0.012507 76:-0.0299188 77:-0.114206 78:-0.0867559 79:-0.0156953 80:0.0480336 81:0.137439 82:-0.103297 83:-0.328354 84:-0.0617586 85:-0.0620836 86:-0.0801393 87:-0.294195 88:-0.446781 89:0.0204234 90:-0.119771 91:0.212723 92:0.170628 93:0.241981 94:-0.0515426 95:-0.00383224 96:-0.142033 97:-0.00592936 98:-0.132738 99:-0.115011 100:-0.0938524 
15354.53882942773 1:-0.043385 2:0.259589 3:0.0887379 4:-0.101813 5:-0.0409941 6:-0.183195 7:0.165128 8:0.018993 9:-0.115124 10:0.022339 11:0.242406 12:0.11907 13:0.168817 14:-0.059442 15:-0.0198299 16:0.271178 17:-0.0533016 18:0.161533 19:0.0166382 20:-0.0233304 21:0.00395701 22:-0.312461 23:-0.0499179 24:-0.0440208 25:-0.0399725 26:-0.311586 27:-0.242468 28:-0.211558 29:0.0476555 30:-0.133779 31:-0.450211 32:-0.242152 33:-0.290066 34:-0.0222084 35:-0.270435 36:-0.217477 37:-0.305589 38:-0.272139 39:-0.173193 40:-0.136597 41:-0.550701 42:-0.198161 43:-0.0737976 44:-0.413369 45:-0.0722911 46:-0.266831 47:0.0469747 48:0.240062 49:0.0802899 50:-0.186435 51:-0.187503 52:0.0279312 53:0.0900793 54:0.0275386 55:-0.074372 56:0.188334 57:0.166567 58:0.139694 59:-0.066173 60:-0.0985096 61:0.176802 62:-0.00882664 63:-0.011246 64:-0.143309 65:-0.00369965 66:0.0361852 67:-0.217896 68:-0.239307 69:-0.0305287 70:0.0466379 71:0.0459011 72:-0.256421 73:-0.260515 74:-0.0845754 75:0.00929669 76:-0.135934 77:-0.0566812 78:-0.222309 79:-0.0961566 80:-0.0687888 81:-0.214379 82:-0.0261949 83:-0.240744 84:-0.0822085 85:-0.0883928 86:-0.270982 87:-0.581273 88:-0.137915 89:-0.240792 90:-0.116432 91:-0.470916 92:0.063737 93:-0.0106656 94:0.0903699 95:-0.156379 96:-0.268745 97:0.065161 98:-0.00813823 99:0.0491512 100:-0.0627251 
13959.76521659733 1:-0.113623 2:-0.0218154 3:-0.278561 4:-0.0550438 5:0.0682551 6:-0.334154 7:-0.175574 8:-0.152868 9:-0.0768151 10:-0.0949127 11:-0.266067 12:-0.127743 13:0.0842587 14:0.00373707 15:-0.152621 16:0.0678818 17:0.0646144 18:0.250625 19:-0.000158028 20:-0.0469128 21:0.0573546 22:-0.104373 23:-0.0169555 24:-0.125055 25:-0.0585417 26:-0.137631 27:0.0853823 28:-0.0566173 29:0.0454857 30:0.0447156 31:-0.111327 32:-0.0513793 33:-0.0348975 34:-0.0669298 35:-0.0805431 36:0.303202 37:-0.184138 38:-0.304558 39:-0.174478 40:-0.151776 41:0.27553 42:0.0367065 43:-0.233205 44:0.0915116 45:-0.0868356 46:0.0688327 47:-0.0833531 48:-0.0936429 49:-0.0712992 50:0.0490469 51:-0.474849 52:-0.401391 53:-0.191051 54:-0.0815292 55:-0.0467669 56:-0.375534 57:-0.129631 58:0.0774375 59:-0.0206084 60:-0.172717 61:-0.0428844 62:0.0285627 63:0.178289 64:0.00159598 65:-0.214839 66:-0.033175 67:-0.0276334 68:0.0149079 69:-0.111838 70:-0.114549 71:-0.102655 72:0.155617 73:-0.0529074 74:-0.122337 75:0.092447 76:0.0257657 77:0.0487399 78:-0.0663783 79:-0.107825 80:0.0138179 81:0.286101 82:-0.178237 83:-0.298499 84:0.0175048 85:-0.0343533 86:0.231175 87:-0.0948215 88:-0.448336 89:0.117674 90:0.0122434 91:-0.101538 92:0.0448309 93:-0.260339 94:-0.14881 95:0.0276015 96:-0.199364 97:-0.0676376 98:-0.0946729 99:-0.125952 100:-0.0889379 
15354.53882942773 1:-0.492222 2:-0.0670647 3:0.0234248 4:-0.0308124 5:-0.00520222 6:-0.233479 7:-0.18378 8:0.128913 9:-0.102725 10:-0.0602362 11:-0.150466 12:-0.108279 13:0.0212061 14:-0.0770756 15:-0.112527 16:-0.276019 17:0.0663048 18:0.0217184 19:-0.0130066 20:-0.0626855 21:-0.129111 22:-0.143645 23:-0.0194881 24:-0.00723156 25:-0.00813344 26:0.264204 27:-0.0858244 28:-0.0532012 29:-0.0244417 30:-0.0369932 31:0.26775 32:0.0908992 33:-0.324017 34:0.0148203 35:-0.055631 36:0.0699619 37:-0.00106809 38:-0.155965 39:-0.0771241 40:-0.0773991 41:-0.000571585 42:-0.13488 43:-0.0455116 44:-0.133337 45:-0.120656 46:-0.379374 47:-0.192376 48:-0.0769482 49:-0.0943387 50:0.0462489 51:-0.327128 52:-0.22593 53:0.0618967 54:-0.0598925 55:0.0240793 56:-0.388199 57:-0.188069 58:-0.0366315 59:-0.0553702 60:-0.0723078 61:-0.168888 62:-0.238499 63:-0.0185659 64:-0.0328523 65:-0.188114 66:0.14953 67:0.0303875 68:0.0984554 69:-0.102339 70:-0.0698606 71:0.200742 72:0.139305 73:0.156213 74:0.0197823 75:-0.0603203 76:0.215943 77:0.197251 78:-0.178297 79:0.0205813 80:-0.0607609 81:0.051146 82:-0.0114573 83:-0.531555 84:-0.069422 85:-0.125914 86:-0.160393 87:0.0220718 88:0.0552953 89:-0.151811 90:-0.0418828 91:-0.0309146 92:-0.0864374 93:-0.0298376 94:-0.0158551 95:0.0498669 96:-0.27566 97:-0.169213 98:0.176155 99:0.0200216 100:0.0325609 
334.8819485181493 1:-0.215448 2:-0.377144 3:-0.0562718 4:-0.0820858 5:-0.0489157 6:0.0879052 7:-0.0480898 8:-0.160954 9:-0.0880772 10:-0.132525 11:0.144206 12:0.114225 13:-0.133935 14:0.0484474 15:-0.0644292 16:-0.0446396 17:-0.130589 18:0.00943697 19:-0.00157116 20:-0.0031803 21:-0.0470064 22:-0.0488263 23:0.141999 24:-0.0424296 25:-7.73847e-06 26:0.135053 27:-0.218914 28:-0.0337623 29:0.00429897 30:-0.0294384 31:-0.0503242 32:0.138706 33:-0.0692021 34:-0.133933 35:-0.0520596 36:-0.313389 37:0.136489 38:-0.0618339 39:-0.0872765 40:-0.138582 41:-0.162579 42:-0.0268957 43:0.0678318 44:-0.0525051 45:-0.227805 46:-0.377934 47:-0.268011 48:-0.235837 49:-0.119315 50:-0.02388 51:0.0991499 52:-0.121403 53:-0.202283 54:-0.220986 55:-0.0861985 56:0.107918 57:0.064143 58:-0.0212103 59:-0.0429343 60:-0.0529643 61:-0.199352 62:-0.15865 63:0.0158016 64:0.137527 65:-0.0671993 66:-0.0242616 67:-0.101834 68:0.132698 69:0.00504711 70:-0.128726 71:0.147789 72:-0.1891 73:0.0464506 74:-0.069571 75:-0.0389692 76:0.0256098 77:0.207956 78:-0.00863485 79:-0.0709795 80:-0.0334509 81:-0.11628 82:0.151155 83:-0.132979 84:-0.141242 85:-0.00103549 86:0.0513825 87:-0.0510912 88:-0.358332 89:-0.256531 90:-0.0782823 91:-0.413375 92:-0.0757322 93:0.10901 94:-0.040154 95:-0.00737579 96:0.0636052 97:0.0152807 98:0.0421683 99:-0.148697 100:-0.047721 
15354.53882942773 1:-0.0481866 2:-0.0985814 3:0.125879 4:-0.105188 5:-0.0313366 6:-0.0972302 7:-0.134002 8:-0.23275 9:-0.121824 10:-0.0664419 11:-0.171294 12:-0.134487 13:0.0464559 14:0.0826128 15:-0.158219 16:-0.0974407 17:0.113923 18:0.0724828 19:0.0223301 20:-0.0476814 21:-0.12872 22:0.0943486 23:-0.0371603 24:-0.0934159 25:0.00991768 26:-0.0746981 27:-0.094922 28:-0.0753458 29:-0.141644 30:0.0317471 31:0.128039 32:0.0577599 33:-0.0221271 34:-0.0675551 35:-0.0809818 36:0.175592 37:-0.0472423 38:-0.183004 39:0.0421254 40:-0.0645565 41:0.0541036 42:-0.113294 43:-0.335832 44:0.00716906 45:-0.021355 46:0.0541439 47:-0.0217122 48:0.00776289 49:-0.07116 50:-0.0619452 51:0.149117 52:-0.278661 53:-0.336759 54:-0.131018 55:-0.0629209 56:0.0618095 57:-0.162784 58:0.00971068 59:0.0294569 60:-0.0707117 61:-0.0706654 62:0.0897436 63:0.153681 64:0.0553663 65:0.00937426 66:-0.248067 67:-0.013734 68:-0.00147526 69:0.00805324 70:0.0158139 71:-0.220346 72:-0.158115 73:0.00835795 74:-0.0872094 75:-0.0643809 76:-0.0528768 77:0.0630354 78:-0.121133 79:-0.132798 80:-0.0810081 81:0.0546263 82:0.0346764 83:-0.083245 84:-0.0737675 85:-0.095528 86:0.101239 87:-0.039338 88:-0.136839 89:-0.0598141 90:0.0279177 91:-0.305386 92:0.0596015 93:0.154089 94:-0.0660172 95:-0.0772592 96:-0.183259 97:-0.213987 98:-0.297523 99:-0.106672 100:-0.185359 
